<?xml version="1.0"?>
<MethodSetup Method="DL::DNN_CPU">
  <GeneralInfo>
    <Info name="TMVA Release" value="4.2.1 [262657]"/>
    <Info name="ROOT Release" value="6.29/01 [400641]"/>
    <Info name="Creator" value="simon"/>
    <Info name="Date" value="Mon May 15 16:11:38 2023"/>
    <Info name="Host" value="Linux np-muon01.physics.gla.ac.uk 5.15.0-47-lowlatency #53-Ubuntu SMP PREEMPT Fri Aug 12 15:27:13 UTC 2022 x86_64 x86_64 x86_64 GNU/Linux"/>
    <Info name="Dir" value="/home/simon/Analysis/EIC_Analysis/NeuralNetwork"/>
    <Info name="Training events" value="125187"/>
    <Info name="TrainingTime" value="5.86702243e+02"/>
    <Info name="AnalysisType" value="Regression"/>
  </GeneralInfo>
  <Options>
    <Option name="V" modified="Yes">True</Option>
    <Option name="VerbosityLevel" modified="No">Verbose</Option>
    <Option name="VarTransform" modified="Yes">D,N</Option>
    <Option name="H" modified="Yes">False</Option>
    <Option name="CreateMVAPdfs" modified="No">False</Option>
    <Option name="IgnoreNegWeightsInTraining" modified="No">False</Option>
    <Option name="InputLayout" modified="No">0|0|0</Option>
    <Option name="BatchLayout" modified="No">0|0|0</Option>
    <Option name="Layout" modified="Yes">TANH|1024,TANH|128,TANH|64,TANH|32,LINEAR</Option>
    <Option name="ErrorStrategy" modified="Yes">SUMOFSQUARES</Option>
    <Option name="WeightInitialization" modified="Yes">XAVIERUNIFORM</Option>
    <Option name="RandomSeed" modified="No">0</Option>
    <Option name="ValidationSize" modified="No">20%</Option>
    <Option name="Architecture" modified="Yes">GPU</Option>
    <Option name="TrainingStrategy" modified="Yes">LearningRate=1e-4,Momentum=0,MaxEpochs=2000,ConvergenceSteps=200,BatchSize=64,TestRepetitions=1,Regularization=None,Optimizer=ADAM</Option>
  </Options>
  <Variables NVar="4">
    <Variable VarIndex="0" Expression="LowQ2Tracks[0].loc.a" Label="LowQ2Tracks[0].loc.a" Title="fit_position_y" Unit="units" Internal="LowQ2Tracks_0_.loc.a" Type="F" Min="-5.51447266e+03" Max="3.89569678e+03"/>
    <Variable VarIndex="1" Expression="LowQ2Tracks[0].loc.b" Label="LowQ2Tracks[0].loc.b" Title="fit_position_z" Unit="units" Internal="LowQ2Tracks_0_.loc.b" Type="F" Min="-3.62365562e+05" Max="3.95523531e+05"/>
    <Variable VarIndex="2" Expression="sin(LowQ2Tracks[0].phi)*sin(LowQ2Tracks[0].theta)" Label="sin(LowQ2Tracks[0].phi)*sin(LowQ2Tracks[0].theta)" Title="fit_vector_y" Unit="units" Internal="sin_LowQ2Tracks_0_.phi__T_sin_LowQ2Tracks_0_.theta_" Type="F" Min="-3.27757783e-02" Max="5.29449545e-02"/>
    <Variable VarIndex="3" Expression="cos(LowQ2Tracks[0].phi)*sin(LowQ2Tracks[0].theta)" Label="cos(LowQ2Tracks[0].phi)*sin(LowQ2Tracks[0].theta)" Title="fit_vector_y" Unit="units" Internal="cos_LowQ2Tracks_0_.phi__T_sin_LowQ2Tracks_0_.theta_" Type="F" Min="-1.07832707e-01" Max="6.08154982e-02"/>
  </Variables>
  <Spectators NSpec="0"/>
  <Classes NClass="1">
    <Class Name="Regression" Index="0"/>
  </Classes>
  <Targets NTrgt="3">
    <Target TargetIndex="0" Expression="MCParticles[2].momentum.x/18" Label="MCParticles[2].momentum.x/18" Title="MCParticles[2].momentum.x/18" Unit="" Internal="MCParticles_2_.momentum.x_D_18" Type="F" Min="-3.91768925e-02" Max="9.27919522e-03"/>
    <Target TargetIndex="1" Expression="MCParticles[2].momentum.y/18" Label="MCParticles[2].momentum.y/18" Title="MCParticles[2].momentum.y/18" Unit="" Internal="MCParticles_2_.momentum.y_D_18" Type="F" Min="-1.63646992e-02" Max="3.12391315e-02"/>
    <Target TargetIndex="2" Expression="MCParticles[2].momentum.z/18" Label="MCParticles[2].momentum.z/18" Title="MCParticles[2].momentum.z/18" Unit="" Internal="MCParticles_2_.momentum.z_D_18" Type="F" Min="-9.99856651e-01" Max="-1.32436156e-01"/>
  </Targets>
  <Transformations NTransformations="2">
    <Transform Name="Decorrelation">
      <Selection>
        <Input NInputs="4">
          <Input Type="Variable" Label="LowQ2Tracks[0].loc.a" Expression="LowQ2Tracks[0].loc.a"/>
          <Input Type="Variable" Label="LowQ2Tracks[0].loc.b" Expression="LowQ2Tracks[0].loc.b"/>
          <Input Type="Variable" Label="sin(LowQ2Tracks[0].phi)*sin(LowQ2Tracks[0].theta)" Expression="sin(LowQ2Tracks[0].phi)*sin(LowQ2Tracks[0].theta)"/>
          <Input Type="Variable" Label="cos(LowQ2Tracks[0].phi)*sin(LowQ2Tracks[0].theta)" Expression="cos(LowQ2Tracks[0].phi)*sin(LowQ2Tracks[0].theta)"/>
        </Input>
        <Output NOutputs="4">
          <Output Type="Variable" Label="LowQ2Tracks[0].loc.a" Expression="LowQ2Tracks[0].loc.a"/>
          <Output Type="Variable" Label="LowQ2Tracks[0].loc.b" Expression="LowQ2Tracks[0].loc.b"/>
          <Output Type="Variable" Label="sin(LowQ2Tracks[0].phi)*sin(LowQ2Tracks[0].theta)" Expression="sin(LowQ2Tracks[0].phi)*sin(LowQ2Tracks[0].theta)"/>
          <Output Type="Variable" Label="cos(LowQ2Tracks[0].phi)*sin(LowQ2Tracks[0].theta)" Expression="cos(LowQ2Tracks[0].phi)*sin(LowQ2Tracks[0].theta)"/>
        </Output>
      </Selection>
      <Matrix Rows="4" Columns="4">
        4.103644307137671e-02 3.824802163558012e-05 1.252947012969701e-03 -9.305722459717061e-04 3.824802163558012e-05 3.508617519179941e-04 3.692824545892895e-06 -5.254931205551633e-05 1.252947012969701e-03 3.692824545892896e-06 7.709040636220531e+02 9.882621133548111e-01 -9.305722459717060e-04 -5.254931205551632e-05 9.882621133548114e-01 1.751194505107517e+02
      </Matrix>
    </Transform>
    <Transform Name="Normalize">
      <Selection>
        <Input NInputs="7">
          <Input Type="Variable" Label="LowQ2Tracks[0].loc.a" Expression="LowQ2Tracks[0].loc.a"/>
          <Input Type="Variable" Label="LowQ2Tracks[0].loc.b" Expression="LowQ2Tracks[0].loc.b"/>
          <Input Type="Variable" Label="sin(LowQ2Tracks[0].phi)*sin(LowQ2Tracks[0].theta)" Expression="sin(LowQ2Tracks[0].phi)*sin(LowQ2Tracks[0].theta)"/>
          <Input Type="Variable" Label="cos(LowQ2Tracks[0].phi)*sin(LowQ2Tracks[0].theta)" Expression="cos(LowQ2Tracks[0].phi)*sin(LowQ2Tracks[0].theta)"/>
          <Input Type="Target" Label="MCParticles[2].momentum.x/18" Expression="MCParticles[2].momentum.x/18"/>
          <Input Type="Target" Label="MCParticles[2].momentum.y/18" Expression="MCParticles[2].momentum.y/18"/>
          <Input Type="Target" Label="MCParticles[2].momentum.z/18" Expression="MCParticles[2].momentum.z/18"/>
        </Input>
        <Output NOutputs="7">
          <Output Type="Variable" Label="LowQ2Tracks[0].loc.a" Expression="LowQ2Tracks[0].loc.a"/>
          <Output Type="Variable" Label="LowQ2Tracks[0].loc.b" Expression="LowQ2Tracks[0].loc.b"/>
          <Output Type="Variable" Label="sin(LowQ2Tracks[0].phi)*sin(LowQ2Tracks[0].theta)" Expression="sin(LowQ2Tracks[0].phi)*sin(LowQ2Tracks[0].theta)"/>
          <Output Type="Variable" Label="cos(LowQ2Tracks[0].phi)*sin(LowQ2Tracks[0].theta)" Expression="cos(LowQ2Tracks[0].phi)*sin(LowQ2Tracks[0].theta)"/>
          <Output Type="Target" Label="MCParticles[2].momentum.x/18" Expression="MCParticles[2].momentum.x/18"/>
          <Output Type="Target" Label="MCParticles[2].momentum.y/18" Expression="MCParticles[2].momentum.y/18"/>
          <Output Type="Target" Label="MCParticles[2].momentum.z/18" Expression="MCParticles[2].momentum.z/18"/>
        </Output>
      </Selection>
      <Class ClassIndex="0">
        <Ranges>
          <Range Index="0" Min="-2.1355413818359375e+02" Max="1.6979965209960938e+02"/>
          <Range Index="1" Min="-1.2707265472412109e+02" Max="1.3881510925292969e+02"/>
          <Range Index="2" Min="-2.6003040313720703e+01" Max="3.9639411926269531e+01"/>
          <Range Index="3" Min="-2.1930715560913086e+01" Max="1.7569274902343750e+01"/>
          <Range Index="4" Min="-3.9176892489194870e-02" Max="9.2791952192783356e-03"/>
          <Range Index="5" Min="-1.6364699229598045e-02" Max="3.1239131465554237e-02"/>
          <Range Index="6" Min="-9.9985665082931519e-01" Max="-1.3243615627288818e-01"/>
        </Ranges>
      </Class>
    </Transform>
  </Transformations>
  <MVAPdfs/>
  <Weights NetDepth="5" InputDepth="1" InputHeight="1" InputWidth="4" BatchSize="1" BatchDepth="1" BatchHeight="64" BatchWidth="4" LossFunction="R" Initialization="F" Regularization="0" OutputFunction="I" WeightDecay="0.0000000000000000e+00">
    <DenseLayer Width="1024" ActivationFunction="3">
      <Weights Rows="1024" Columns="4">
        4.438142e-01  -1.077522e-02  3.657813e-02  -1.997994e-03  -8.012719e-02  -3.986747e-01  8.334979e-02  1.387986e-02  1.624929e-01  3.627024e-01  1.733787e-03  -9.827749e-03  -1.505273e-01  4.191248e-01  9.234486e-03  -4.338364e-02  2.023049e-01  4.481382e-01  -3.395640e-02  -1.388987e-01  -3.198838e-01  2.426346e-01  2.158670e-02  1.879464e-02  2.436256e-01  -3.590046e-01  -1.486322e-02  -1.671826e-02  2.539725e-01  3.388839e-01  2.797852e-03  -7.963461e-03  7.828569e-02  -4.527421e-01  -9.951793e-02  2.072601e-02  -1.571130e-01  -1.911869e-01  1.671115e-02  4.867286e-03  -4.163333e-01  -2.655285e-01  -2.539219e-02  -2.872650e-02  2.389129e-01  3.827492e-01  1.138419e-01  -7.582238e-02  1.464929e-01  -3.673684e-01  -5.057204e-04  8.149697e-03  -3.548515e-01  1.687859e-01  5.195741e-02  1.616524e-02  2.998625e-01  -3.045680e-01  3.557636e-02  -1.175365e-01  1.042200e-01  4.453760e-01  8.881829e-04  1.497999e-01  -1.531004e-01  -4.056329e-01  7.074840e-02  -1.020484e-01  -2.581487e-01  -3.740516e-01  -8.023074e-02  1.375146e-02  2.285656e-01  -3.785427e-01  -2.177848e-02  -1.246014e-02  -1.889435e-01  3.234915e-01  8.485501e-02  -5.178915e-02  1.608693e-01  3.502431e-01  1.234232e-04  -7.417647e-03  -9.882496e-02  -4.213438e-01  2.782628e-03  9.951492e-03  4.110743e-02  -4.585401e-01  6.242582e-02  4.710020e-02  -2.313262e-01  -4.705035e-01  -7.221494e-03  1.919568e-02  3.229283e-01  -1.400107e-01  8.681202e-02  -1.266113e-01  2.825226e-02  3.765389e-01  -2.366808e-04  -8.275804e-03  -2.862802e-01  2.783329e-01  2.328526e-02  -2.603057e-02  -1.377313e-01  4.627085e-01  5.391068e-03  9.420400e-02  2.125048e-01  -3.328843e-01  4.281713e-02  1.985670e-01  -2.856866e-01  3.192447e-01  -2.762178e-02  1.527675e-01  -2.165400e-01  2.696875e-01  8.554009e-02  -1.429939e-01  -4.015163e-01  -2.809624e-01  7.328819e-02  4.215567e-03  -2.034943e-01  3.639857e-01  -1.272529e-02  -3.035691e-02  -7.205965e-02  3.851567e-01  -4.709527e-02  -1.790257e-01  2.088175e-01  -4.056714e-01  7.981462e-02  2.706783e-02  -2.935289e-01  4.007230e-01  -3.251722e-02  -2.093652e-02  -3.477094e-01  2.340759e-01  -7.734403e-02  1.959152e-01  -3.143625e-01  2.808968e-01  5.162828e-02  1.552620e-02  -2.795923e-01  3.150760e-01  -9.361786e-02  -6.179387e-03  -3.061529e-01  -5.315222e-02  5.753605e-03  3.640643e-03  -2.748513e-01  2.366688e-01  4.879674e-02  -1.788577e-02  1.401569e-01  -4.253837e-01  3.378987e-03  -1.080404e-02  2.127310e-01  -3.438851e-01  -8.463611e-02  -7.046589e-02  5.534409e-02  4.437730e-01  1.192337e-01  -7.136849e-02  -3.299038e-02  -3.535896e-01  9.123778e-02  2.403489e-01  -3.406506e-01  2.441942e-01  5.747588e-02  5.743181e-03  3.707495e-01  1.980518e-01  -2.724374e-03  -3.703765e-03  -2.370221e-01  2.563428e-01  6.301885e-03  4.877614e-02  3.899843e-01  2.649057e-01  -6.765408e-02  1.689352e-02  -1.250067e-01  -3.215016e-01  3.406493e-02  2.898158e-01  -1.271981e-02  4.381872e-01  -3.995833e-02  1.004630e-02  -1.148129e-01  2.246297e-01  9.130599e-04  -4.701940e-03  4.576095e-01  6.345529e-02  -1.235832e-02  6.682609e-03  2.980620e-01  3.572356e-01  1.600539e-02  9.731440e-02  3.455490e-01  -2.569875e-01  -2.312043e-02  -2.985291e-02  4.104558e-01  2.246008e-02  2.532704e-03  1.093096e-03  -2.453752e-01  3.813815e-01  -6.149936e-02  1.484882e-02  1.221224e-01  3.996057e-01  1.312557e-01  -4.880311e-02  2.379516e-01  -4.104158e-01  5.212521e-02  -3.022606e-03  1.981469e-01  4.468446e-01  2.176954e-03  -9.530131e-02  -2.429225e-01  3.755736e-01  -1.202272e-01  -6.746192e-02  -3.722688e-01  8.601161e-02  -3.636974e-03  -7.973069e-04  -2.117226e-01  3.616459e-01  6.499202e-02  -3.988986e-02  2.115760e-01  -2.349732e-01  9.281371e-02  2.013493e-01  1.428193e-01  4.386325e-01  2.350701e-02  1.503263e-01  4.491545e-01  1.231283e-01  -1.916511e-02  -4.743451e-03  3.047147e-01  3.860441e-01  -1.121204e-01  8.749955e-02  -9.853687e-02  -4.079999e-01  -1.735738e-02  -5.472137e-02  2.680039e-01  -2.761533e-01  7.905644e-02  -1.455659e-01  -3.639072e-01  5.641248e-02  3.714581e-03  -6.172038e-04  3.217932e-01  3.748047e-01  8.944929e-02  1.807244e-02  9.856623e-02  -4.414739e-01  8.694066e-02  1.022999e-01  1.680828e-02  -4.070535e-01  4.319056e-02  4.891842e-02  -3.223446e-01  -2.346634e-01  -1.132242e-01  -3.712228e-02  -1.529844e-01  -4.684435e-01  7.522669e-02  -8.856216e-03  5.396374e-02  4.111292e-01  -6.850716e-02  -1.526696e-01  -3.152335e-01  2.116900e-01  4.258363e-02  4.513745e-02  -2.870537e-01  3.883542e-01  -7.818401e-02  1.612480e-03  -2.395255e-01  -4.180932e-01  3.055421e-02  1.861837e-02  -2.512407e-01  -4.294466e-01  -4.534761e-02  7.271575e-02  -4.682643e-01  -7.397402e-02  -1.238973e-01  2.329963e-02  1.545300e-01  4.131064e-01  5.658732e-02  -1.434979e-01  2.524734e-01  -2.933372e-01  -1.048263e-01  7.003012e-02  3.130254e-01  -2.327885e-01  -7.113179e-03  -1.300632e-03  4.347218e-01  3.793617e-03  -2.825127e-02  -6.074369e-02  2.623621e-01  -3.171194e-01  1.334472e-02  -1.106123e-01  3.394618e-01  -2.341135e-01  -7.321784e-02  6.703874e-02  -6.043084e-02  4.574795e-01  -5.419169e-02  -5.409423e-02  -3.964173e-01  1.839503e-02  3.693881e-02  -7.120318e-02  3.280982e-01  -3.050259e-01  2.403763e-02  8.110043e-02  -1.825529e-01  3.012847e-01  1.187683e-01  4.563687e-02  4.888880e-01  1.269335e-01  1.171257e-01  1.297773e-02  -1.707706e-01  -3.661193e-01  2.619333e-02  7.024363e-03  -4.285290e-01  -2.223935e-01  -6.059676e-02  5.571347e-04  -1.495363e-01  -4.201240e-01  9.162362e-02  2.031320e-01  -2.901121e-01  2.125991e-01  -6.338202e-02  -3.806164e-03  4.006725e-01  2.115291e-01  -9.141943e-02  4.390709e-02  -1.807348e-01  -2.424909e-01  7.275014e-02  1.081566e-01  4.174167e-01  2.828345e-01  -7.902634e-03  1.791226e-02  1.757983e-01  3.855416e-01  -6.186935e-02  -5.140017e-03  -3.257374e-01  -3.256194e-01  7.414823e-03  -4.094431e-02  3.534657e-01  -2.406071e-01  -1.252832e-02  -4.783493e-02  -1.281943e-01  -3.252840e-01  4.310448e-03  7.009178e-03  -3.248135e-01  3.591430e-01  -2.173067e-02  -6.406431e-02  2.654038e-01  3.575149e-01  9.229194e-02  -2.564929e-03  2.443953e-01  3.281929e-01  -5.942912e-03  -7.342473e-03  3.743007e-01  5.684000e-02  -5.622829e-02  1.104856e-01  -3.201211e-01  2.935066e-01  -8.762579e-03  4.337051e-03  4.339366e-01  5.340329e-03  -7.357095e-02  -3.041293e-03  -3.746159e-01  1.948128e-02  2.354003e-03  9.873061e-04  6.446540e-02  -3.352247e-01  4.923848e-02  2.630778e-01  -1.443725e-01  3.429396e-01  2.131828e-03  -6.333851e-03  8.965959e-02  4.386295e-01  4.816644e-02  2.025291e-02  -1.874612e-01  -3.645142e-01  1.245815e-01  -1.419066e-01  4.207785e-01  1.400390e-01  -3.867522e-02  3.149277e-02  -3.616487e-01  -3.281735e-01  -9.001783e-02  -4.087719e-02  -2.424249e-01  3.518247e-01  9.090702e-03  -2.249128e-02  2.759331e-01  4.348333e-01  5.866138e-02  -7.418082e-02  -1.844774e-01  -3.957510e-01  -3.073138e-02  -4.647437e-02  4.816156e-02  -4.344852e-01  1.642999e-01  3.267453e-02  -3.813804e-01  -2.956091e-01  4.129381e-02  1.248796e-02  8.920450e-02  -4.858341e-01  6.474113e-02  -3.284964e-02  -9.924959e-02  6.787505e-02  2.895681e-03  -2.674042e-04  3.720422e-01  2.793679e-01  -3.048100e-02  1.338980e-01  3.391254e-01  -2.713963e-01  1.248602e-01  1.964091e-03  2.172045e-01  -1.880228e-01  -2.778548e-02  -9.581237e-02  2.282274e-01  4.189745e-01  4.162816e-02  -5.336304e-02  -2.041417e-01  -4.107257e-01  -8.433122e-02  1.673401e-02  4.261363e-01  5.565095e-02  1.878512e-02  6.600192e-02  -2.135582e-01  -4.107648e-01  4.784440e-02  3.114190e-02  3.848511e-01  -1.318149e-01  5.216474e-03  -1.349627e-01  1.715092e-01  -4.530457e-01  7.662170e-02  8.762114e-02  4.533950e-01  1.160356e-01  -9.273192e-02  7.303088e-03  -6.676358e-02  4.366731e-01  7.307484e-04  -1.437899e-02  2.090496e-01  -3.814739e-01  7.673519e-02  1.484536e-01  -1.924384e-02  3.432700e-01  9.969400e-04  -7.932245e-03  -1.731018e-01  -4.651804e-01  -6.983086e-02  7.300007e-02  4.158752e-01  2.625389e-01  2.094381e-02  4.085601e-02  -4.788825e-02  3.814815e-01  -5.714871e-04  -7.548716e-03  2.158368e-03  3.878759e-01  1.111534e-01  -2.980403e-04  3.204743e-01  -1.854621e-01  -6.247495e-02  -2.529149e-02  -3.983855e-02  -4.189419e-01  1.276455e-01  -4.387611e-03  3.704843e-01  -2.052930e-01  -4.505980e-02  -2.022416e-03  2.439187e-01  -3.299006e-01  -1.242117e-03  7.079726e-02  1.494389e-01  2.994848e-01  -4.413248e-03  -6.206782e-03  3.545144e-01  -1.172436e-01  3.049332e-02  -2.253102e-01  1.085839e-02  4.061415e-01  -1.236474e-01  7.828218e-02  1.009937e-01  -3.798727e-01  -1.030928e-01  5.407612e-02  -2.982878e-01  1.856193e-01  -2.739923e-02  -1.944197e-01  1.053813e-01  -1.566719e-01  -1.902390e-03  2.851494e-03  2.623448e-01  -3.084557e-01  -6.059754e-02  1.244603e-01  4.157328e-01  2.836982e-01  1.520452e-02  -5.093821e-03  6.591254e-02  2.736271e-01  2.202739e-03  -3.899249e-03  -4.328983e-01  -8.401611e-02  1.404816e-02  -7.892595e-03  -1.785872e-01  -4.323666e-01  1.041177e-01  2.001430e-02  -4.369713e-01  -1.870777e-01  -2.663819e-02  -6.731099e-03  -2.650740e-03  -4.637789e-01  -4.306719e-02  1.008115e-01  -2.834607e-02  -4.619094e-01  5.826090e-02  -8.821455e-02  2.470258e-01  3.825252e-01  3.105179e-02  1.989528e-01  -5.521724e-02  -4.221614e-01  7.153755e-02  -1.125430e-01  1.873827e-01  3.999146e-01  1.308500e-02  -2.342111e-01  2.290127e-01  -3.879925e-01  -1.549775e-02  -2.819932e-02  2.182382e-01  2.332653e-01  -5.934214e-03  -6.894223e-03  -3.413720e-01  2.908835e-01  -1.585578e-02  1.187972e-02  3.411314e-01  2.821303e-01  8.181883e-02  -1.344915e-02  -4.331607e-01  -1.572509e-01  -1.213908e-01  -8.281924e-03  -1.629982e-01  -4.179338e-01  -6.474387e-02  2.042609e-01  -4.604256e-01  -4.922616e-03  1.314707e-02  2.979659e-04  2.977461e-01  -3.254008e-01  1.367079e-02  3.394866e-02  -3.252352e-01  -3.693998e-01  -1.849134e-02  -9.293801e-03  -7.884507e-02  4.138678e-01  7.545033e-02  4.700912e-03  -3.314081e-01  9.504516e-02  6.254422e-03  -3.680333e-04  3.577195e-01  -1.399200e-01  2.340150e-01  9.269402e-03  -1.374728e-01  -4.155334e-01  1.571237e-01  -2.007545e-02  4.229873e-01  6.348167e-02  2.081579e-02  -1.022869e-01  4.083391e-01  1.363691e-01  7.916819e-02  3.165419e-03  -3.793191e-01  2.511878e-01  -2.083502e-02  8.185450e-03  -3.123687e-01  2.889253e-01  1.893513e-02  2.478997e-02  4.345444e-01  1.599774e-01  5.439694e-02  6.125762e-02  -8.146401e-03  -4.434829e-01  9.484299e-02  -1.426541e-01  1.650009e-01  3.980782e-01  1.075161e-01  -3.842561e-02  -1.557701e-01  3.130221e-01  5.858883e-02  7.152760e-02  -2.531329e-01  3.589375e-01  1.466351e-02  1.029101e-01  -3.745359e-01  -2.064615e-01  -3.106628e-03  1.989624e-03  4.109667e-02  -3.967061e-01  1.173185e-03  8.367124e-03  -4.134454e-01  1.440985e-01  -6.507991e-02  3.611551e-03  2.696378e-02  4.193345e-01  -4.203669e-02  5.617861e-02  9.079071e-02  3.475720e-01  4.270634e-02  -2.586100e-01  2.575826e-01  -3.422038e-01  -1.274534e-02  1.365147e-01  -1.127657e-01  -4.722506e-01  4.567894e-02  5.166521e-02  2.950613e-02  -4.159766e-01  -2.733360e-02  -3.342114e-02  -1.969091e-01  3.304522e-01  2.610772e-02  4.641666e-02  8.018260e-02  -3.400916e-01  -1.194359e-01  7.764095e-03  -3.141930e-01  2.917762e-01  -8.661431e-03  -1.133693e-01  -2.726360e-01  -2.448703e-01  1.515267e-02  6.575066e-03  1.948464e-01  4.215203e-01  1.283342e-01  -6.409654e-02  -2.197550e-01  3.023150e-01  8.707587e-02  3.658831e-02  -4.542045e-01  1.230214e-01  -9.052174e-02  2.179815e-02  -3.424482e-01  2.594838e-01  1.970117e-02  -3.601942e-02  3.460443e-01  -2.303269e-01  5.002219e-03  -8.741321e-03  2.190112e-01  4.305301e-01  1.156978e-01  -4.821032e-02  1.306634e-01  3.581005e-01  -5.962760e-02  5.658148e-02  -2.959958e-01  2.765196e-01  1.123298e-01  -9.145986e-02  2.321737e-01  4.124364e-01  4.624081e-02  -1.911829e-03  2.731242e-01  4.247628e-01  -4.735751e-02  -5.489811e-02  2.735697e-01  -3.798111e-01  -5.762133e-02  5.562505e-02  -1.619991e-01  -3.876965e-01  -7.757907e-02  8.210123e-02  -3.695178e-01  -5.103905e-03  2.802934e-03  1.865681e-03  -3.695343e-01  -2.621477e-01  7.500660e-02  -6.449396e-03  -3.835451e-01  2.063487e-01  6.686465e-03  4.629510e-02  3.772299e-01  2.481046e-01  5.064640e-03  5.534023e-03  -2.775569e-01  5.752758e-02  5.660160e-03  1.900692e-03  3.024347e-01  -2.504564e-01  1.065419e-01  1.731212e-01  -1.500687e-01  -4.188900e-01  1.630861e-03  7.395154e-03  -2.202056e-01  2.464351e-01  1.360514e-01  -6.590116e-02  5.897989e-02  -3.964214e-01  -6.765644e-02  3.143072e-02  3.265599e-01  -2.844389e-01  3.327760e-04  9.867574e-02  2.293210e-01  -2.925293e-01  -3.121220e-02  6.720281e-02  -3.345132e-01  3.239284e-01  3.781951e-03  -5.263733e-02  3.752638e-01  -9.778594e-02  6.377660e-02  -2.640554e-03  2.925845e-01  3.963191e-01  3.976366e-02  9.279670e-02  -2.832277e-01  -3.268692e-01  5.288368e-03  7.225368e-03  -2.430082e-01  1.035419e-02  4.639733e-03  2.280815e-03  -4.909025e-02  -4.792551e-01  1.217637e-02  1.075835e-02  -2.576852e-01  5.134774e-02  4.309431e-03  1.569948e-03  -1.878466e-01  -4.483735e-01  1.823446e-02  3.776021e-03  -2.514399e-02  -4.687396e-01  6.476098e-02  -1.815731e-02  -2.821589e-01  -4.063665e-01  2.677015e-02  -1.153571e-02  1.879600e-01  -3.211076e-01  -1.116500e-01  7.709122e-02  -4.055359e-01  8.154636e-02  2.876185e-02  9.267093e-03  -1.150309e-01  3.966808e-01  3.124322e-02  -3.295681e-02  6.852107e-02  -4.569726e-01  5.642601e-02  1.237400e-01  3.471068e-01  -3.157732e-01  1.063161e-01  -1.697718e-01  7.421582e-02  -4.450537e-01  2.491510e-04  -2.008466e-01  3.047644e-01  2.220661e-01  -8.001050e-03  -4.869862e-03  -4.666482e-01  -6.858361e-02  -2.168997e-02  -4.015115e-02  4.245458e-01  -1.287693e-01  -2.885595e-02  2.820216e-03  8.076552e-02  4.732038e-01  -4.789473e-02  -6.970959e-02  4.313307e-01  -8.747697e-02  -1.481666e-02  -8.357445e-03  -2.945172e-01  2.310144e-01  -5.249476e-02  -1.873197e-02  4.266120e-01  1.071843e-01  -5.848754e-02  1.264294e-02  1.969265e-01  4.220020e-01  3.701373e-02  -9.029189e-02  4.905995e-03  4.600729e-01  3.767123e-02  5.605695e-02  -1.303850e-01  3.510725e-01  -8.299077e-02  8.558824e-02  2.321060e-01  -3.653222e-01  2.280835e-02  -1.875359e-01  -1.373045e-01  -4.117970e-01  3.292722e-02  8.077274e-03  5.514899e-02  3.499390e-01  -9.569798e-02  -2.479188e-01  -2.783325e-01  3.511206e-01  2.035939e-02  -4.828807e-02  -1.858128e-02  3.799231e-01  1.176976e-01  -6.704909e-02  -2.871416e-01  3.015835e-01  3.255245e-02  -5.891563e-03  -1.596265e-01  4.381189e-01  -7.860087e-02  3.637974e-02  -2.195430e-01  -4.131901e-01  -1.107667e-01  1.366918e-03  3.161405e-01  3.978947e-01  -1.812991e-02  -5.737184e-02  1.812706e-01  -3.994725e-01  1.259011e-01  -1.744058e-02  3.184728e-01  -3.113999e-01  -8.809535e-02  -9.015904e-02  3.996248e-01  1.167020e-01  -8.756964e-04  3.728613e-05  -4.016794e-01  3.622984e-02  7.037095e-04  -1.706385e-03  -4.438767e-01  -1.224164e-01  9.022614e-02  -2.154181e-02  -8.865967e-02  -3.841472e-01  -8.867182e-02  2.238668e-01  3.357931e-01  4.100442e-01  -3.135391e-02  5.142688e-02  -2.543331e-01  3.546896e-01  4.007296e-02  -6.559988e-04  3.264579e-01  4.155529e-02  -6.080049e-03  -3.146203e-03  4.151070e-01  -3.867869e-02  -3.877088e-02  -5.905349e-02  1.355291e-01  -3.902195e-01  3.067805e-03  1.566324e-01  -2.254734e-01  3.528430e-02  1.556685e-03  8.018652e-04  1.249581e-02  3.337055e-01  5.118277e-02  6.587483e-02  -3.883226e-01  1.102310e-01  6.208703e-03  -1.839392e-03  -2.459882e-01  -4.194348e-01  -9.630942e-02  2.730076e-03  2.898991e-01  -3.312797e-01  -6.089022e-02  -2.521921e-02  -3.245968e-01  -3.358742e-01  3.613367e-02  -1.217581e-01  -3.232921e-01  2.293445e-01  7.327794e-03  1.063921e-03  3.626128e-01  -1.153962e-01  1.015757e-03  3.689344e-04  -1.554636e-01  3.382662e-01  7.195702e-02  1.956532e-02  -1.483194e-01  3.866613e-01  -1.425328e-01  -1.745542e-02  -3.114323e-01  -3.632174e-01  9.222154e-02  -1.317957e-01  7.741701e-02  -4.029756e-01  3.039074e-03  9.128132e-03  2.243609e-01  -3.286642e-01  -4.994850e-02  4.950996e-03  6.733727e-02  -3.417682e-01  -3.602388e-02  -5.904842e-02  1.924579e-01  -3.840826e-01  3.959555e-02  -1.161867e-01  -1.613456e-01  3.157319e-01  2.261116e-03  -5.483785e-03  3.397677e-01  -2.592023e-01  1.956392e-02  -3.296129e-02  -5.719728e-02  -4.756651e-01  2.470431e-02  4.391672e-02  -2.614541e-01  3.520002e-01  -2.476796e-02  -1.194613e-01  3.614510e-01  -1.730226e-02  -1.009379e-01  -4.168921e-03  2.664191e-01  4.231595e-01  1.873923e-02  -2.577234e-02  -3.758439e-01  2.032105e-01  -1.100522e-01  5.494947e-02  -1.047014e-01  -3.860620e-01  -4.317225e-02  6.191387e-03  -2.817374e-01  2.252501e-01  -1.645201e-01  -4.016228e-02  -2.090431e-01  -3.181970e-01  -1.534458e-01  1.442395e-03  -4.357558e-01  -8.137010e-02  -4.988455e-03  -4.712114e-03  -3.831714e-01  -2.010286e-01  -5.594288e-04  -1.936006e-03  1.979866e-01  -3.839654e-01  1.155253e-02  -3.149273e-02  2.393494e-01  2.816283e-01  -2.533598e-02  2.041101e-01  -3.220743e-01  4.356356e-02  7.040071e-02  -2.122763e-01  -2.650463e-01  -3.055080e-01  8.601255e-02  -1.399203e-01  1.315464e-01  -3.972512e-01  1.277072e-01  -2.932039e-02  6.651238e-02  -4.201719e-01  -7.013745e-02  1.519374e-02  3.965381e-01  -1.280975e-01  1.718149e-03  -9.460582e-04  -3.476734e-01  1.549519e-01  1.320402e-03  -1.744461e-03  -2.687542e-01  -3.961966e-01  -4.233850e-02  3.023848e-02  2.546020e-01  -2.646789e-01  -5.308648e-03  5.881204e-03  4.144907e-01  -1.083886e-01  -1.174885e-02  -2.178160e-03  -2.395801e-01  3.748724e-01  -1.127578e-01  -4.110290e-03  2.550456e-02  -4.552226e-01  1.394288e-01  2.537161e-02  -2.975664e-01  2.005058e-01  3.224177e-03  -3.944030e-03  -2.015387e-01  3.512428e-01  1.445738e-02  -1.450825e-01  -3.425262e-01  -2.606610e-01  3.482202e-03  4.407712e-03  2.140779e-01  3.922702e-01  -6.444940e-02  5.975641e-02  4.779872e-02  4.093033e-01  3.269039e-02  3.505255e-02  -6.905479e-02  3.201462e-01  -3.160818e-02  -2.957583e-01  -2.567855e-01  -4.062995e-01  6.825636e-02  1.275389e-02  -7.471757e-02  3.595646e-01  2.915619e-02  1.642403e-01  1.097963e-01  -3.811916e-01  6.426989e-02  -1.089835e-01  3.761601e-01  3.069569e-01  5.659626e-02  2.423821e-02  4.164053e-01  1.620564e-01  1.270334e-01  -1.148968e-01  -2.403638e-01  -5.021747e-01  9.354284e-02  -4.086114e-02  -4.046494e-01  -1.350969e-01  4.608823e-02  9.335548e-03  3.236457e-01  -1.903478e-01  -1.609914e-03  3.603765e-03  1.591848e-01  3.407512e-01  -9.891994e-03  -5.128215e-03  3.853700e-01  -2.003180e-01  9.017021e-02  5.280716e-02  -2.051784e-01  -4.487538e-01  -3.867044e-02  1.002110e-01  1.826516e-01  1.514086e-02  -3.312165e-03  -2.231084e-03  1.036155e-01  -3.831257e-01  3.557650e-02  7.837171e-02  -2.397164e-01  3.931696e-01  -1.341800e-01  -2.899096e-02  1.348536e-01  -3.454430e-01  -3.728122e-02  1.278442e-02  1.430541e-01  -4.262242e-01  7.802515e-02  9.275142e-02  -4.786901e-02  3.864843e-01  -7.047767e-02  1.650573e-01  4.592550e-03  3.669433e-01  -5.672030e-02  1.994907e-01  -1.013991e-01  3.895771e-01  4.313665e-03  -9.665740e-03  2.698944e-01  -3.399429e-01  -2.084913e-02  -2.003256e-02  4.597267e-01  8.300106e-02  1.146683e-01  4.252140e-03  -2.780167e-01  1.901817e-01  9.040386e-02  2.364869e-03  3.525308e-01  -2.392996e-01  -4.522636e-02  3.329818e-02  -3.760164e-01  -1.732001e-01  9.936182e-02  -2.575019e-02  2.247494e-01  3.952453e-01  -1.268505e-01  7.648176e-02  3.022949e-01  1.212851e-01  -7.312131e-03  -3.649800e-03  -3.981119e-01  -2.969394e-01  9.643460e-02  -3.555337e-02  -3.939649e-01  3.757324e-02  -5.089952e-03  -5.508206e-04  -2.067306e-01  3.081184e-01  8.376554e-02  6.837799e-02  -5.167956e-02  -4.967908e-01  1.041924e-01  5.192717e-02  3.223936e-01  -2.111509e-01  1.184663e-03  2.640749e-03  4.091851e-01  -1.362105e-01  -3.173903e-02  -1.093755e-01  3.491707e-02  -4.200751e-01  1.179594e-01  2.033276e-01  3.164963e-01  2.773621e-01  -1.092739e-01  -1.046488e-01  -4.030387e-01  1.073054e-01  8.357743e-02  -1.808937e-02  2.941435e-01  -2.224732e-01  1.586679e-02  -1.943526e-01  -1.567639e-01  -3.718690e-01  1.435478e-01  2.372039e-02  -1.996732e-01  -3.540807e-01  6.919574e-03  8.595432e-03  7.249350e-02  3.950967e-01  -1.436335e-02  1.831857e-01  -3.870679e-03  4.104860e-01  -6.202691e-04  -9.475119e-03  -8.905529e-03  -4.139247e-01  -1.634805e-05  9.435233e-03  -4.091811e-01  -2.021748e-01  -7.527002e-03  -1.019432e-02  -2.105934e-01  -3.981774e-01  -1.465261e-01  2.423885e-03  -4.331087e-01  -1.694057e-01  2.987719e-02  9.965941e-02  9.327323e-02  -4.030738e-01  -1.926221e-02  5.176122e-03  -2.844039e-01  3.338073e-01  -7.006650e-02  7.812982e-03  -3.903594e-01  -2.582149e-01  7.505435e-03  1.416575e-02  3.914699e-02  -4.183123e-01  1.877205e-01  8.427308e-04  2.215815e-01  -3.576026e-01  -5.115357e-02  -6.635184e-02  -2.118360e-01  -4.592722e-01  -7.247656e-04  3.224043e-02  -4.245310e-01  -4.231518e-02  -4.480353e-03  -4.611894e-03  3.250193e-01  3.125636e-01  -1.152664e-01  4.977534e-02  -1.956574e-01  -4.409651e-01  8.654520e-03  1.417959e-02  -2.745464e-01  -3.649047e-01  1.170369e-01  -6.133565e-03  -2.191646e-01  -1.873130e-01  3.090590e-03  4.802469e-03  1.551688e-01  4.048817e-01  -2.771917e-03  -8.480341e-03  -3.361677e-01  -3.497016e-01  5.887831e-02  -1.699496e-02  -3.112342e-01  -3.288386e-01  1.076319e-01  -1.094652e-01  -4.493904e-01  -4.620142e-03  7.131716e-02  2.575673e-03  -7.438193e-02  3.300106e-01  3.957025e-02  5.216962e-02  1.446222e-01  -3.397908e-01  3.952250e-02  1.422747e-01  3.455660e-01  -3.000722e-01  -8.489864e-03  -1.495268e-02  3.293201e-01  8.086605e-02  -6.809441e-03  -3.519453e-03  4.258928e-01  -9.111931e-02  -3.964480e-02  -2.885016e-03  2.899475e-01  -1.268701e-01  -5.841686e-03  1.241402e-03  1.652732e-02  2.103558e-01  5.862010e-04  -5.251204e-03  3.801421e-01  -1.229044e-01  -5.497307e-02  3.127301e-02  1.926440e-01  -4.446227e-01  8.000290e-02  4.493960e-02  -4.352885e-01  -2.333492e-01  -5.774297e-02  -1.664817e-02  5.161669e-02  -4.328258e-01  -2.739460e-02  8.558767e-04  3.569077e-01  2.941170e-01  -3.893372e-02  -2.039333e-03  2.429832e-01  -3.056195e-01  -5.046598e-02  -3.498614e-02  3.329411e-01  2.774878e-01  -1.084423e-01  3.268128e-02  -4.471401e-01  6.341904e-02  3.134634e-02  8.259588e-04  3.644253e-01  -2.626626e-01  -3.128522e-02  -1.265136e-01  -1.593477e-01  3.519236e-01  -1.273550e-01  1.214995e-02  4.493290e-01  4.754576e-02  1.679783e-02  2.355316e-03  -1.836319e-01  3.676751e-01  6.929735e-02  -8.649521e-02  1.026090e-01  -3.626462e-01  -4.777971e-04  8.149160e-03  1.545002e-01  4.426809e-01  -1.213990e-01  -2.879262e-03  -2.058411e-01  -3.870641e-01  -1.025458e-01  2.875816e-02  -4.082835e-02  3.805680e-01  -4.710142e-05  -7.929605e-03  -3.729057e-01  -1.993251e-01  -4.752971e-03  4.422337e-03  -4.409750e-01  -2.918163e-02  6.242714e-02  -9.774348e-03  -1.212074e-01  3.415930e-01  9.862705e-02  -9.579396e-03  -2.891681e-01  2.035215e-01  7.619957e-02  3.461149e-03  -2.861977e-01  3.297317e-01  -1.542932e-01  -4.836220e-02  4.517667e-01  -1.690537e-02  -2.205648e-02  6.408395e-03  -3.909673e-01  -2.573495e-01  -2.888722e-03  1.008114e-01  2.927943e-01  3.026483e-01  1.255965e-01  1.789049e-04  7.864601e-02  -4.157300e-01  5.652900e-02  -1.922041e-01  3.030966e-02  -4.141598e-01  1.598907e-01  2.189494e-02  2.852932e-01  -2.250731e-01  -5.916900e-02  6.341185e-04  -4.057640e-01  -1.957226e-01  9.687036e-02  1.426628e-02  4.180189e-01  -1.052635e-01  8.653532e-02  9.220006e-02  3.684442e-01  1.885895e-01  1.258425e-01  9.226358e-03  -1.466954e-01  -2.493853e-01  2.962003e-03  6.495697e-03  2.729780e-02  4.172526e-01  -1.250558e-01  7.489615e-03  -4.727809e-02  4.591292e-01  2.318296e-02  1.148629e-02  3.532844e-01  -1.687473e-01  -2.600322e-03  9.535473e-04  -2.306476e-01  4.241352e-01  -6.038624e-02  -9.112099e-02  2.542829e-01  3.126428e-01  -3.274257e-02  -1.710878e-01  -3.259392e-01  -3.446392e-01  1.041961e-01  -2.342839e-02  3.323028e-01  -2.330362e-01  -4.480657e-03  -9.484466e-03  2.993808e-01  3.535754e-01  1.690039e-02  9.829448e-02  -2.205191e-01  -3.648421e-01  -1.490413e-01  2.611590e-02  -3.126943e-01  2.510577e-01  2.321828e-03  1.004052e-03  3.460106e-01  -2.453375e-01  -2.590016e-02  1.409882e-02  -9.529404e-02  3.679930e-01  -1.210038e-01  6.747296e-02  -2.196012e-01  -3.641118e-01  2.427969e-02  -4.680164e-02  -1.032749e-01  -1.093732e-01  -1.488414e-02  -4.140604e-01  -4.129535e-01  -1.765644e-01  1.000306e-01  -6.250749e-02  1.741488e-01  -3.853574e-01  1.218014e-01  5.077074e-02  -6.735399e-02  -2.670108e-01  2.285025e-02  -5.165456e-02  3.209740e-01  -2.538401e-01  -2.024023e-02  1.336277e-03  1.598275e-01  3.711059e-01  1.892882e-03  -8.014926e-03  2.090844e-01  4.106497e-01  -6.493076e-02  6.788003e-02  1.283078e-01  -3.993693e-01  1.045773e-01  1.127842e-01  4.409688e-01  7.046885e-02  -7.717903e-02  2.322860e-02  -2.674452e-01  -3.839076e-01  7.451893e-02  2.646847e-02  8.429246e-02  4.371063e-01  -1.426541e-01  -1.190808e-02  -2.731435e-01  -3.343172e-01  1.612669e-02  1.613002e-01  -1.453118e-01  -4.551730e-01  6.410994e-03  -3.105183e-03  -3.243875e-01  -2.030702e-02  2.047801e-03  1.974102e-03  2.999554e-01  -2.587397e-01  -2.334371e-03  1.481013e-03  3.995289e-01  3.934496e-02  1.067562e-01  -1.115480e-02  -3.401782e-01  -2.661150e-01  -1.635817e-03  4.576485e-03  2.358949e-01  -3.609639e-01  -4.442643e-02  -5.380276e-03  -9.226466e-02  4.663723e-01  -1.502636e-02  4.324914e-02  -2.359091e-01  -4.288254e-01  -3.045823e-02  1.524694e-01  -9.652025e-02  3.353642e-01  -1.251195e-01  -1.996437e-01  1.847217e-01  4.184049e-01  3.175622e-02  3.040964e-02  -2.954723e-01  -3.655061e-01  5.301610e-02  -2.466363e-02  -2.934465e-01  -3.447798e-01  -8.336731e-02  -7.469730e-02  -3.533614e-02  -2.979542e-01  6.665239e-02  3.043495e-01  -4.075521e-01  -2.134148e-01  6.449152e-02  -1.943962e-02  -4.480623e-01  -8.726842e-02  -1.277346e-02  -4.158823e-03  -1.304336e-01  -3.784214e-01  -2.581058e-02  6.020086e-02  -1.912319e-01  -3.235700e-01  -5.527699e-02  2.408268e-01  -1.739411e-01  -2.468701e-01  1.837880e-01  2.963974e-03  1.852089e-01  -3.893608e-01  2.191913e-02  -5.683599e-03  1.900442e-01  -3.516586e-01  -1.108210e-01  -4.465888e-02  -3.707021e-01  -2.156403e-01  -3.991265e-03  2.220451e-03  -1.327492e-02  4.328220e-01  5.048642e-02  3.410186e-03  3.843283e-01  -1.438649e-01  2.614206e-02  1.236349e-02  -2.920028e-01  2.702293e-01  -1.185658e-02  -2.323512e-03  -1.222982e-01  3.370575e-01  -2.453401e-04  -6.663776e-03  2.709452e-01  -3.368374e-01  1.611321e-01  7.813449e-02  -9.769005e-02  -4.214681e-01  -9.109021e-02  1.650104e-02  4.312282e-01  -6.381936e-02  -1.355011e-02  -1.381485e-03  -3.009746e-01  -3.509560e-01  1.858677e-02  2.417202e-02  7.185294e-02  4.734719e-01  3.480878e-02  -3.429040e-03  -4.626433e-01  -1.030756e-01  -1.705987e-02  1.678943e-02  2.743004e-01  -2.869677e-01  -1.076615e-01  -6.069869e-02  -3.838086e-01  2.159796e-01  -1.125864e-01  1.337701e-01  2.786836e-01  3.504655e-01  -3.128934e-02  9.381811e-02  -4.545231e-01  -2.114758e-02  -1.372819e-01  4.247153e-02  -4.043750e-01  3.287970e-02  -4.557137e-02  1.648046e-01  -8.495935e-02  -4.444253e-01  7.643914e-02  1.346932e-02  1.453510e-01  4.237289e-01  -7.972737e-02  -1.836368e-02  4.257296e-01  4.425701e-02  7.131089e-02  -1.302579e-03  -1.591454e-01  -4.467894e-01  -2.864269e-02  -8.509161e-02  -2.416292e-01  3.152340e-01  4.554180e-02  1.683061e-02  1.445536e-01  -3.271272e-01  -4.940001e-03  6.671280e-03  -1.161841e-01  -4.104636e-01  3.899172e-03  9.347432e-03  -7.986606e-02  4.138981e-01  -9.763691e-02  -1.026194e-01  3.350307e-01  1.612286e-01  -8.892830e-03  -4.832473e-03  3.382936e-01  -3.185260e-01  -7.624894e-04  1.288511e-01  3.075000e-01  -1.817447e-01  -3.558670e-03  -1.562157e-01  -1.628871e-01  4.012947e-01  -1.286176e-01  9.256480e-02  1.287850e-01  3.981607e-01  -6.367109e-03  -8.250088e-03  -3.832983e-01  -2.454038e-01  4.209662e-02  7.604790e-02  1.581988e-01  -3.983435e-01  6.765842e-02  1.102570e-02  1.003136e-02  1.486012e-01  2.412740e-03  -3.487957e-03  1.923671e-01  3.427212e-01  1.586668e-01  -8.539908e-04  2.422548e-01  -3.126041e-01  1.123712e-01  -5.218404e-02  -4.053223e-01  -1.823562e-01  -3.568544e-02  -5.769287e-02  -2.417850e-02  2.525915e-01  1.213586e-03  -4.396776e-03  -2.156197e-01  -4.439334e-01  7.727738e-02  -2.128773e-02  -4.009337e-01  -2.058494e-01  1.526271e-03  -7.992723e-03  1.872024e-01  -3.630989e-01  1.033718e-01  -1.438922e-01  3.947417e-01  -1.853371e-01  -8.218688e-02  -9.281649e-02  1.385522e-01  -3.981428e-01  -5.058788e-02  1.553490e-02  4.384645e-01  5.324613e-02  1.622264e-02  2.954075e-03  -3.471791e-01  2.224382e-01  -5.278670e-03  -1.616174e-02  -2.515866e-01  3.632491e-01  8.597596e-02  1.573457e-02  -5.975313e-02  -3.861405e-01  -9.383052e-02  5.545025e-02  -1.862474e-01  -3.473853e-01  -1.679414e-03  7.618618e-03  -2.170565e-01  -4.348438e-01  6.895023e-02  -9.139998e-03  3.127401e-01  -3.346403e-01  -2.543715e-02  -4.642068e-02  5.846880e-02  -4.075928e-01  1.530061e-01  2.729709e-02  2.124270e-01  3.624714e-01  -2.501959e-02  -2.102677e-02  3.165937e-01  -2.594657e-01  -7.643922e-02  4.626789e-02  2.126098e-01  4.153720e-01  -4.973942e-02  9.034472e-02  5.814511e-02  4.209705e-01  1.789498e-02  -1.189533e-02  2.148527e-01  4.371507e-01  -6.435581e-02  -7.368908e-03  -3.309424e-01  2.440159e-01  5.214357e-02  -5.732113e-02  -1.835034e-01  -3.433653e-01  7.422886e-02  -5.290655e-02  4.154825e-01  1.097189e-01  -1.568829e-02  5.900455e-03  2.847671e-01  -2.091402e-01  -1.836014e-02  3.998392e-03  2.263998e-01  4.624959e-01  5.197423e-02  -3.579860e-02  -2.383481e-01  2.451134e-01  -1.061598e-01  1.891809e-02  4.518358e-01  8.665419e-02  2.786371e-02  4.867067e-03  -4.868800e-02  -3.984076e-01  1.856068e-03  8.037503e-03  1.467156e-01  3.653786e-01  1.441545e-02  -3.369472e-02  2.636397e-01  -3.406810e-01  -9.808070e-03  -8.286133e-02  2.909376e-02  -4.057419e-01  -1.113959e-01  1.013042e-02  1.250820e-01  -2.323320e-01  -2.522917e-03  3.914463e-03  -2.416779e-01  -3.263875e-01  6.198959e-03  8.254808e-03  -4.032708e-01  1.505738e-01  1.405777e-02  7.339164e-03  3.814519e-01  2.885590e-01  -2.645146e-02  1.062661e-01  -4.028980e-02  -4.834814e-01  7.672091e-02  2.255997e-02  1.699531e-01  -3.281507e-01  -3.321769e-03  7.145727e-03  -3.981687e-01  -1.966839e-02  -4.204016e-03  1.391918e-03  -4.468785e-01  -1.431261e-01  4.881016e-02  -2.969678e-03  -4.290529e-01  6.426436e-02  4.037939e-02  -7.942895e-03  2.481208e-01  -2.802054e-01  6.832845e-02  -1.118340e-01  -2.893371e-01  2.522099e-01  4.983695e-02  4.192525e-02  3.526471e-01  3.508469e-01  -1.039295e-02  -4.859331e-02  -3.091180e-01  2.830374e-01  7.714473e-02  1.764289e-02  2.552340e-02  -4.289400e-01  6.188353e-02  -2.226085e-02  8.759828e-02  -3.535015e-01  7.549778e-02  9.385117e-02  -2.914062e-01  3.342825e-01  9.623482e-02  -6.052738e-02  2.682588e-01  3.461189e-01  -6.024440e-03  -7.421559e-03  -4.481798e-01  -1.809720e-01  -1.008006e-01  5.636315e-03  3.471891e-01  -2.148090e-01  -2.881956e-02  3.354505e-02  -8.666974e-02  4.600937e-01  -5.414612e-02  -1.004809e-02  -4.126050e-01  1.137547e-01  -7.061175e-02  -9.195455e-04  -1.541066e-01  4.792099e-01  -1.516600e-01  -4.089003e-02  6.534016e-02  -4.014022e-01  -1.396272e-03  9.455930e-03  -2.669721e-01  3.569761e-01  1.585911e-03  1.187597e-02  1.495730e-01  -3.776506e-01  1.414773e-01  1.436686e-01  4.139054e-01  1.555513e-01  3.448196e-03  6.503999e-03  -3.185087e-03  3.967106e-01  -6.152915e-02  -4.694694e-03  2.042135e-02  3.912078e-01  -6.509697e-02  5.190246e-02  -3.072240e-02  -3.781536e-01  7.895129e-03  -1.633780e-03  -2.014362e-02  4.609490e-01  5.307226e-02  -2.416201e-02  -4.139485e-01  2.012100e-01  -2.764631e-02  7.235417e-02  4.255226e-01  2.744434e-01  8.767341e-02  -5.418852e-03  -1.690568e-01  -3.959563e-01  -1.301398e-01  1.409431e-02  3.445684e-01  -2.278986e-01  -2.215453e-02  -1.031882e-01  3.345610e-01  3.735024e-01  1.055904e-01  -7.996412e-02  -1.972075e-01  6.568681e-02  3.272889e-03  1.156132e-03  -2.848707e-01  3.000291e-01  -7.782494e-02  -3.317202e-02  3.082523e-01  -3.171495e-01  2.689207e-02  3.677246e-02  4.321555e-01  -1.159108e-01  1.382212e-01  -4.138622e-02  -3.281473e-01  -3.643620e-01  -5.051062e-02  1.210605e-02  1.621497e-01  -3.885145e-01  -1.854997e-02  1.791043e-01  -2.057579e-01  -5.102087e-01  -4.017748e-02  6.756158e-02  -1.726916e-01  -3.210179e-01  4.545613e-02  -1.736207e-01  -1.165235e-01  -4.179977e-01  1.095596e-01  1.283309e-02  5.203417e-02  -3.829671e-01  9.078950e-02  -7.128409e-02  3.469479e-01  -2.741664e-01  -8.560175e-02  3.058700e-02  2.261574e-01  2.518148e-01  -4.920380e-02  -3.496360e-03  -6.527931e-02  -4.506672e-01  9.242243e-02  1.248706e-01  -6.610153e-02  -3.696467e-01  1.214152e-02  -1.796869e-01  1.895813e-01  4.175765e-01  1.096912e-01  -1.042500e-01  -4.094861e-01  -5.248574e-02  1.553546e-03  -1.348856e-03  3.745345e-01  2.175282e-01  -1.833758e-03  -1.975627e-04  -3.753543e-01  2.100167e-01  8.376349e-02  -9.329759e-02  -1.735015e-01  -3.332958e-01  1.695026e-01  -8.744911e-02  3.546765e-01  2.837085e-01  -3.365819e-02  8.842361e-02  3.216237e-01  3.349593e-01  -6.821387e-02  9.787297e-02  1.233087e-01  4.780426e-01  4.977274e-02  -3.583436e-02  1.388450e-01  -3.702196e-01  1.179550e-01  1.521218e-01  2.137764e-02  -3.866888e-01  1.547327e-01  3.385334e-02  4.045618e-01  9.108902e-02  4.280298e-03  4.354671e-04  -2.936800e-01  3.620655e-01  1.818276e-02  -3.047221e-02  2.784730e-01  -2.661645e-01  -8.112991e-02  -1.794725e-02  -2.064655e-01  -4.098549e-01  -1.084898e-01  1.367658e-02  -2.504957e-02  -4.314094e-01  -5.910551e-02  7.090454e-03  -1.998611e-01  1.868897e-01  3.672900e-03  -2.695794e-03  -6.003302e-03  4.278967e-01  9.565187e-02  1.878795e-02  4.195590e-01  1.076442e-01  -2.322298e-02  -5.130662e-02  3.342052e-01  1.318205e-01  -8.526755e-03  -3.960868e-03  -2.003030e-01  3.375826e-01  -1.320850e-01  4.776647e-02  -2.096788e-01  -3.620608e-01  1.235267e-01  -4.530141e-02  1.940397e-01  -4.620799e-01  -5.765782e-02  -5.092622e-02  7.789096e-02  4.531256e-01  1.091666e-01  -1.067149e-01  -5.457707e-02  -4.595897e-01  6.607696e-02  -1.816226e-01  -1.625927e-01  -4.524883e-01  -5.575443e-02  9.089857e-02  -2.107120e-01  -3.911700e-01  -6.062705e-02  1.447572e-01  -4.657114e-01  -5.417139e-02  4.066159e-03  -3.101993e-03  3.821649e-01  -7.976036e-02  7.115909e-02  1.477143e-01  -1.505071e-02  2.966431e-01  -2.705563e-02  -2.649281e-01  3.309814e-01  -3.581479e-01  2.903492e-02  8.167277e-02  8.341324e-02  -4.218190e-01  6.771899e-02  4.167660e-02  3.258826e-01  3.797001e-01  1.085431e-01  -1.364501e-02  -1.510199e-01  -3.207721e-01  3.219628e-02  2.643176e-03  -2.934251e-01  2.908815e-01  -1.003344e-01  -7.025822e-03  1.050347e-01  -3.751772e-01  9.812706e-04  8.517529e-03  4.206893e-01  1.984790e-01  -4.821323e-02  1.302266e-02  4.065883e-01  -2.418861e-03  2.200015e-03  -2.799972e-03  -2.283232e-01  -4.548065e-01  -5.849707e-02  -3.875743e-02  4.225805e-01  1.278433e-03  -4.699307e-02  2.131541e-02  -3.024126e-01  2.502311e-01  4.799098e-02  3.704403e-02  -2.064690e-01  -3.531329e-01  6.636959e-02  1.506609e-01  -3.767456e-01  1.444330e-01  1.677106e-02  2.857599e-02  6.361424e-02  -3.758438e-01  -1.748702e-03  7.431351e-03  4.957994e-02  3.688916e-01  -4.093414e-03  -7.525528e-03  7.360801e-02  -4.045096e-01  -1.004565e-01  -1.351072e-02  4.020375e-01  -6.531178e-03  2.286875e-02  -3.985691e-03  -4.038401e-01  1.599779e-01  6.328155e-02  2.557021e-02  -4.086497e-01  -9.159884e-03  -2.918250e-02  3.835754e-03  -2.995680e-01  -3.583591e-01  5.841913e-02  -5.888349e-02  -4.157623e-01  9.924623e-02  -1.008299e-02  1.540345e-03  1.988391e-01  4.136564e-01  2.113662e-02  -9.938416e-02  -1.751098e-01  2.966771e-01  3.780700e-03  -6.610231e-03  3.972085e-01  5.573943e-02  -2.477403e-02  6.802471e-03  4.196127e-01  -1.229075e-01  -2.745692e-02  -3.536478e-02  4.694289e-01  1.348363e-01  1.193054e-01  -3.898318e-02  -3.899770e-01  -6.331395e-02  -4.991947e-02  4.731458e-03  -1.772730e-01  -4.286708e-01  3.483842e-03  1.063785e-02  -2.009964e-01  -4.389973e-01  -1.351642e-01  1.026465e-01  -2.781898e-01  -1.927970e-01  7.587784e-03  5.028282e-03  -4.630969e-01  9.667570e-02  -1.929077e-02  -1.249430e-02  -4.150901e-01  -3.649157e-02  4.561045e-02  5.952091e-03  3.965861e-01  -8.432647e-02  1.262784e-01  -1.352066e-02  -3.279123e-02  4.416077e-01  9.012711e-02  -1.563073e-02  2.262663e-01  -2.500361e-01  -2.998633e-02  -2.115631e-01  2.331924e-01  -4.096496e-01  3.845786e-02  1.174314e-01  3.287181e-01  -1.080882e-01  -1.168091e-01  -1.904767e-01  -1.851281e-01  -3.529288e-01  1.084909e-01  -1.451429e-01  8.569939e-02  4.754215e-01  -3.499810e-02  -7.269578e-02  3.529063e-01  2.758987e-01  1.091824e-01  -4.160781e-04  3.351774e-01  2.257269e-01  -3.147592e-02  1.634400e-01  -3.855576e-01  -2.596262e-01  5.799223e-02  -3.211302e-02  7.945762e-02  4.419528e-01  8.392984e-02  -2.388029e-02  -3.870187e-01  2.012462e-01  -8.667900e-02  -1.059869e-02  3.296440e-01  9.941460e-02  -7.686550e-03  -3.491694e-03  8.447555e-02  4.839736e-01  4.265967e-02  -1.474835e-01  2.758854e-01  -3.260064e-01  6.515746e-02  9.689838e-02  2.591460e-01  2.551298e-01  -6.883323e-03  -6.392021e-03  1.997705e-02  -3.542168e-01  4.229949e-02  -9.780255e-02  2.702878e-01  -2.789872e-01  -1.186047e-03  5.276116e-03  -5.785108e-02  4.804754e-01  1.718517e-02  -4.956229e-02  4.066259e-01  2.556390e-01  -7.670321e-02  -2.169855e-03  1.422325e-01  -2.315612e-01  -1.303490e-03  4.033392e-03  1.845241e-01  -3.667586e-01  -3.255468e-02  -9.749259e-04  -1.166584e-01  -4.278060e-01  3.596971e-02  -1.534931e-02  -3.369863e-01  3.099816e-01  -8.656932e-02  2.011518e-01  1.372819e-01  4.139249e-01  9.421723e-02  -1.236869e-01  -1.515567e-01  3.416159e-01  -1.759991e-01  -4.003181e-02  2.140408e-01  3.643992e-01  5.125990e-02  -1.940634e-01  3.233624e-01  1.588635e-01  -8.450972e-03  -4.758437e-03  -2.523211e-01  -4.629590e-01  -5.440090e-02  7.379569e-02  -1.997331e-01  4.403628e-01  3.341374e-02  -2.929374e-02  -7.240064e-02  -4.335878e-01  4.494815e-02  1.879444e-01  7.816307e-02  -3.863822e-01  -7.644455e-02  -1.585443e-02  -1.957804e-01  -4.430527e-01  -9.292225e-02  -2.700125e-02  -2.142696e-01  -2.698528e-01  -3.034400e-02  -2.377333e-01  -3.308752e-01  -3.813748e-01  -1.534019e-02  -2.968274e-02  2.371311e-01  -2.618759e-01  -9.120924e-02  3.862255e-02  -2.022940e-01  3.928319e-01  3.628730e-02  1.912561e-02  -4.255931e-02  4.011435e-01  -1.305434e-01  -1.773130e-01  3.649735e-01  -1.409389e-01  1.124234e-02  -7.603072e-02  -2.340429e-01  3.799848e-01  2.368922e-02  -2.835976e-02  -2.277950e-01  3.007154e-01  1.177225e-01  -2.348977e-02  -8.544818e-02  -1.930079e-03  2.340547e-03  -7.770713e-04  -4.202002e-01  -1.647642e-01  -1.828129e-02  -5.874850e-02  1.143416e-01  -2.905469e-01  -5.571487e-02  -7.123753e-02  3.237598e-01  -2.732544e-01  9.000614e-02  -8.402149e-02  4.446169e-01  1.561431e-01  -1.037559e-01  1.244950e-02  4.168864e-01  1.983984e-01  -6.729623e-02  -7.130733e-04  -4.400067e-01  6.296641e-02  -1.453907e-02  2.459824e-03  -3.351286e-01  -3.399534e-01  -8.516614e-02  -3.061063e-03  -4.245337e-01  1.049731e-01  4.324687e-02  2.964879e-03  3.912393e-01  3.525977e-01  7.285450e-02  1.602844e-02  4.317763e-01  -3.228306e-02  -1.404645e-02  4.543615e-02  2.184747e-01  -3.606375e-01  1.656424e-01  3.463586e-02  -4.310292e-01  -8.929470e-02  -7.891075e-02  -1.432261e-02  3.735793e-01  5.206873e-02  -3.653257e-02  1.845144e-01  -3.738956e-01  1.516335e-01  -1.779934e-01  8.653701e-03  3.079751e-01  -2.277586e-01  -6.378462e-02  -8.626005e-02  -8.249205e-02  -4.643008e-01  1.152220e-01  -2.203133e-02  -3.815987e-01  -2.465653e-01  -8.491731e-02  -9.925921e-02  3.697626e-01  -1.232139e-01  -6.319555e-02  -3.543729e-02  -2.401732e-01  3.309875e-01  3.516148e-02  -1.559259e-01  2.628579e-01  3.893272e-01  4.389992e-02  -5.692102e-03  1.732806e-01  -3.683738e-01  -7.859688e-02  -2.073847e-03  2.337321e-01  -2.678701e-01  -3.840397e-02  1.372978e-01  1.957380e-01  -3.463076e-01  -2.186448e-03  7.780925e-03  4.404589e-01  1.092246e-01  -8.725767e-03  1.244668e-02  -3.806702e-01  2.349909e-01  -1.744036e-01  -3.289079e-02  4.474778e-01  5.010763e-02  1.652410e-02  3.393685e-03  5.373352e-02  -3.969035e-01  -8.546454e-02  -1.996467e-02  -3.927653e-01  -1.976626e-01  -3.133778e-02  1.693983e-03  2.087009e-01  -3.142904e-01  -7.142739e-02  -1.809279e-02  3.280688e-01  -2.979105e-01  -2.955184e-02  8.434790e-02  -3.346561e-01  -2.418052e-01  -1.233207e-01  4.388770e-03  4.893951e-02  -3.594286e-01  -1.671515e-02  2.518497e-01  1.957767e-01  3.628196e-01  5.225800e-02  1.404447e-01  2.855469e-01  -3.305460e-01  -5.712920e-02  3.577150e-02  3.652783e-01  3.405798e-01  -3.754002e-02  -4.335541e-02  3.551322e-01  8.865794e-02  -3.360300e-03  -3.228944e-03  -2.349044e-02  4.149036e-01  1.366205e-01  -2.776243e-02  2.642934e-01  -3.829959e-01  -3.293952e-02  -5.684984e-02  -8.903076e-02  -4.128754e-01  -9.152057e-02  1.057774e-01  4.865423e-02  -4.556406e-01  -6.972764e-03  7.391703e-02  3.947734e-01  1.714850e-01  -7.779874e-04  2.360591e-03  2.151185e-01  3.671489e-01  -5.777478e-02  8.518592e-02  3.866433e-01  9.854279e-02  -7.487141e-02  -1.507323e-02  -1.981198e-01  3.310469e-01  4.881446e-02  -2.864250e-02  1.775315e-01  4.292910e-01  1.077985e-01  -1.397059e-01  -2.806000e-01  -3.502801e-01  9.897172e-02  7.232946e-03  -9.557845e-02  3.207505e-01  1.021028e-01  -6.817877e-03  2.009797e-01  3.042717e-01  -5.544919e-03  7.230455e-02  -2.288097e-01  -4.200756e-01  -4.515462e-02  2.464814e-02  -3.080099e-01  6.530235e-02  -7.048790e-02  -1.264475e-01  -4.196988e-01  -1.764719e-01  -9.134643e-02  9.757697e-03  6.714205e-02  -4.538448e-01  -2.810612e-02  9.979349e-03  4.239259e-02  1.627522e-01  -3.097424e-04  -3.637872e-03  -2.305022e-01  1.006066e-01  1.157034e-03  -8.320857e-04  -1.044093e-01  4.718453e-01  -1.281917e-01  -3.142056e-02  -2.821525e-02  4.641526e-01  1.690447e-02  -7.239642e-02  -4.379571e-02  4.250740e-01  1.338925e-02  -1.353867e-01  -2.544250e-01  -3.615515e-01  1.144797e-02  6.124262e-03  2.422535e-01  3.186285e-01  -1.670385e-01  3.689310e-02  4.168179e-01  -9.378270e-02  -6.274768e-02  3.851152e-03  -2.754057e-01  2.773900e-01  2.257596e-02  9.438685e-03  -9.524381e-02  -4.766710e-01  -9.995259e-03  6.593534e-02  2.628213e-01  -2.853791e-01  1.253425e-01  -2.261524e-01  -4.423561e-01  7.028905e-02  -2.171620e-02  8.841596e-02  3.521695e-01  -2.426513e-01  6.715819e-02  -1.314599e-01  6.435540e-02  -4.189889e-01  1.447230e-02  1.125715e-02  -4.141657e-01  6.313246e-02  2.256380e-02  -1.433446e-03  1.029847e-01  -4.134796e-01  8.117460e-04  -3.200020e-02  3.177390e-01  -2.721692e-01  1.714885e-02  -3.567298e-03  3.902170e-01  2.724904e-01  7.206363e-02  6.067784e-02  1.321411e-01  -3.548553e-01  4.678584e-02  8.143789e-03  -4.235821e-01  6.468622e-03  1.165652e-02  1.695995e-01  -4.758462e-01  2.333690e-02  -4.452125e-02  2.077935e-02  -2.574418e-01  3.855064e-01  7.550437e-02  3.763005e-03  1.874363e-01  4.442268e-01  -3.098263e-02  -1.068309e-01  2.827955e-01  -2.304485e-01  -5.899932e-03  4.753469e-03  4.305151e-01  5.483639e-02  8.178156e-02  -5.709237e-03  3.231013e-01  1.960142e-01  -7.146404e-03  -1.772390e-02  4.342737e-02  -3.771342e-01  -9.050696e-02  7.041222e-02  -5.409240e-02  2.708144e-01  5.521851e-04  -5.314275e-03  -3.230765e-01  2.400497e-01  6.293406e-02  9.480570e-03  -1.275463e-02  -4.746639e-01  -7.003547e-02  1.884975e-02  -2.994494e-02  -4.068080e-01  9.759300e-02  7.195132e-02  1.219277e-01  -4.475680e-01  -3.897892e-02  -1.620645e-02  3.492805e-01  3.567256e-01  6.194820e-02  2.099985e-02  3.254331e-01  -1.457574e-01  -5.184592e-03  2.336826e-03  1.317202e-01  -4.063868e-01  4.766085e-02  8.532254e-03  -4.344795e-01  9.951900e-02  -5.713071e-02  1.763316e-01  2.854143e-01  3.880002e-01  5.975026e-02  -3.291679e-03  -1.176545e-01  3.986979e-01  1.219025e-03  -1.886393e-01  1.243617e-01  -3.564157e-01  1.086622e-01  -1.692598e-02  2.472592e-01  3.664969e-01  -3.938765e-02  7.164279e-02  1.813531e-01  3.915787e-01  9.856069e-02  7.673676e-02  4.326155e-01  2.458503e-01  7.521360e-02  -7.410797e-02  -1.228980e-01  -4.192340e-01  5.296161e-02  -8.361730e-02  -6.000628e-02  4.309546e-01  -7.036335e-02  1.023845e-01  -4.572484e-02  4.365557e-01  1.694191e-03  -4.641417e-03  1.220918e-01  -3.904694e-01  1.312430e-01  -6.807496e-02  -2.689421e-01  1.832961e-01  6.443664e-03  -6.477076e-04  -3.762034e-01  -2.434126e-01  -5.324591e-02  -1.350849e-01  -1.028406e-01  -3.847839e-01  -2.502074e-02  7.165694e-03  -2.315004e-01  -3.429433e-01  1.441450e-01  -1.092446e-01  1.919653e-01  -3.048606e-01  6.924067e-02  -4.268947e-02  1.545164e-01  -3.519991e-01  -1.037923e-03  8.032489e-03  9.175482e-02  3.762945e-01  -1.582869e-01  -5.826669e-02  -4.251499e-01  3.920022e-03  2.920705e-02  -8.853741e-04  3.798762e-02  -3.596986e-01  -6.652013e-04  7.917542e-03  1.567751e-01  4.127689e-01  1.104305e-01  -9.358909e-03  4.145038e-02  4.558136e-01  -2.318264e-02  -1.524276e-01  -4.306935e-01  -3.897952e-03  4.903831e-02  3.150698e-02  2.606589e-01  -3.022980e-01  -3.834714e-04  4.103723e-03  -7.541379e-02  2.872079e-01  -1.358690e-02  -2.433088e-01  -2.637221e-01  -3.954500e-01  -2.923269e-02  7.748005e-02  -5.548722e-02  -4.062980e-01  6.241063e-02  -6.158831e-02  -4.408132e-01  -7.618832e-02  -1.402299e-02  -3.523733e-02  1.938792e-01  3.939320e-01  3.503658e-03  -7.344244e-02  -2.665871e-01  2.672437e-01  2.894023e-03  -5.487130e-03  -1.790365e-01  -5.046901e-02  2.635031e-03  1.687682e-03  1.031005e-01  -4.201124e-01  5.956235e-02  1.453132e-02  -2.201432e-01  -3.333319e-01  1.272330e-01  1.884883e-03  -1.411048e-01  3.756445e-01  7.047408e-03  2.482703e-02  -1.489171e-01  -2.557476e-01  1.751717e-01  -3.086706e-03  -1.293733e-01  -4.949604e-01  8.522537e-02  2.508844e-02  1.722616e-01  3.463338e-01  -1.346772e-01  1.326952e-02  -4.202242e-01  1.206541e-01  -3.409094e-03  5.593560e-02  -1.656031e-01  4.010662e-01  5.785013e-02  3.601512e-03  -2.992056e-01  3.330388e-01  2.997880e-02  -1.068744e-01  -3.664901e-01  2.259652e-01  4.793033e-02  2.205984e-02  -2.573606e-02  -4.593816e-01  -7.808392e-02  -1.771770e-02  3.712599e-01  1.921524e-01  1.494162e-03  -4.772888e-03  -9.880795e-02  4.233981e-01  6.743999e-02  7.408425e-02  3.318230e-01  -2.091812e-01  -2.895828e-02  4.093002e-04  9.992084e-02  -3.857159e-01  -3.556372e-02  9.167048e-03  -3.224558e-01  2.909252e-01  7.402463e-02  -5.493901e-03  1.595093e-01  4.109188e-01  1.711034e-02  3.624203e-03  -5.533185e-02  4.211815e-01  1.274038e-03  -1.110770e-02  -2.923449e-01  -4.264778e-01  2.039280e-02  -1.198035e-02  2.117906e-01  -3.442240e-01  8.068000e-02  -2.051755e-01  -2.150366e-01  -4.920510e-01  8.377205e-04  1.019162e-02  9.909227e-02  4.835822e-01  -7.667523e-02  -5.775001e-02  -4.490919e-01  -5.473689e-02  1.364253e-02  -2.023832e-03  1.990355e-01  -3.247879e-01  1.465687e-01  -3.655466e-02  6.818428e-02  -3.213740e-01  -1.566467e-01  -1.179321e-01  1.247637e-01  -3.931582e-01  -3.132071e-02  1.629502e-02  -3.996122e-01  -2.724406e-02  -5.631535e-03  6.757682e-04  1.810808e-01  4.522538e-01  3.953616e-02  4.878097e-02  8.417516e-02  4.480903e-01  -1.556792e-01  -1.693654e-02  -2.587920e-01  2.889272e-01  -2.253484e-05  -4.533638e-03  -3.536346e-01  -2.533600e-01  -1.680816e-02  4.281644e-03  2.739070e-01  3.971980e-01  1.553412e-02  3.447981e-02  3.097697e-01  -2.239389e-01  -2.129023e-02  -9.711296e-02  3.090453e-01  1.362600e-01  2.529792e-02  1.942846e-03  -1.269170e-01  -4.312444e-01  3.378155e-02  -2.559198e-02  3.749790e-01  -2.134296e-01  8.677696e-02  -3.496151e-02  3.200028e-01  -1.766028e-01  7.162552e-04  2.687420e-03  4.194396e-01  2.037650e-01  1.150082e-02  7.783575e-03  4.260178e-01  1.564044e-01  -1.150297e-02  9.771238e-03  1.613835e-01  4.356231e-01  -8.044340e-03  -1.223134e-02  3.763973e-01  -1.586369e-01  -9.729842e-03  6.683634e-02  -1.336020e-01  4.022593e-01  5.534247e-02  -1.053630e-01  4.363551e-01  5.869651e-03  8.632044e-03  1.326279e-03  2.649216e-02  4.945378e-01  -4.238235e-02  -2.178219e-02  1.696485e-01  -2.848262e-01  -1.463148e-02  2.696995e-01  -4.393389e-02  -3.911918e-01  7.942943e-03  6.122008e-03  2.836079e-01  -3.416870e-01  4.333699e-02  2.706129e-02  -3.933637e-01  -2.790340e-01  4.814285e-02  -8.654474e-03  -2.812395e-01  -3.763781e-01  2.757058e-02  -1.054413e-01  3.085015e-01  -2.072888e-01  -1.407955e-02  4.586413e-03  1.365944e-02  -4.538839e-01  1.238286e-01  4.713181e-02  -1.615623e-01  -3.482303e-01  1.045529e-01  -6.053764e-02  -4.465669e-01  -5.082745e-02  7.334594e-02  -3.874648e-02  1.133167e-02  4.079563e-01  5.407149e-02  -1.608154e-01  4.782967e-02  4.847934e-01  -3.820648e-02  -1.081877e-01  -2.877066e-01  3.203240e-01  -2.839373e-03  1.266475e-02  1.726235e-01  4.038667e-01  2.535135e-02  -1.182374e-02  -1.917221e-01  -3.196397e-01  3.489610e-03  8.453929e-03  -4.287009e-01  1.022607e-01  -3.037195e-02  3.936281e-03  9.124017e-03  4.736569e-01  -7.969873e-02  -6.207975e-02  4.396907e-01  -6.408747e-02  -5.841736e-02  1.567212e-02  3.626735e-01  3.323063e-01  7.611982e-02  3.101071e-02  2.686008e-01  -2.423556e-01  -1.032442e-01  -1.452048e-02  -3.351070e-01  -3.672584e-01  5.978882e-02  -4.623632e-02  -4.249152e-01  9.997739e-02  3.076593e-02  1.046262e-01  -1.192514e-02  4.947101e-01  -7.451045e-02  -1.266491e-01  -9.129909e-02  -4.656447e-01  8.640178e-02  -1.085067e-03  1.198150e-01  -3.504522e-01  1.039329e-01  6.139379e-02  -3.652073e-01  -3.192816e-01  -1.101442e-01  6.312806e-02  1.532412e-01  2.868585e-01  -1.900783e-02  2.789764e-01  -2.253348e-01  3.398857e-01  5.457184e-02  -8.439249e-03  -3.540674e-01  -3.108392e-01  -8.248418e-02  -2.027088e-02  -1.517118e-01  -3.964968e-01  -4.794617e-02  8.105589e-02  -3.600701e-02  -4.388676e-01  9.292515e-03  4.105196e-02  1.846094e-01  4.054578e-01  -3.724947e-02  -1.691558e-01  -1.758177e-01  -4.194169e-01  -8.820226e-02  9.495137e-03  -3.143613e-01  -3.413198e-01  -4.390541e-02  -2.754804e-02  1.296207e-01  4.035923e-01  6.396454e-04  -9.330849e-03  2.127290e-01  4.415086e-01  -1.383129e-01  5.210568e-02  1.473713e-01  -3.730987e-01  -1.932604e-02  -6.879597e-02  1.569321e-01  1.347193e-01  -2.756910e-03  -4.248663e-03  3.809036e-01  -4.954018e-02  9.703249e-04  -1.179536e-04  1.868345e-01  -3.717501e-01  1.242336e-01  -5.418654e-02  -1.214045e-01  3.220833e-01  9.968915e-02  1.529744e-02  2.709057e-01  3.976054e-01  6.455142e-02  -6.791926e-02  3.809344e-01  3.543798e-01  1.949456e-02  -4.200893e-02  -2.542247e-01  2.442643e-01  1.151305e-01  -2.820071e-02  -2.379836e-01  3.379463e-01  2.154107e-02  7.967185e-03  2.281300e-01  4.029312e-01  5.016398e-02  -1.279778e-01  1.834915e-01  -3.533868e-01  -7.121510e-02  2.741309e-02  2.566040e-01  3.846819e-01  -6.170250e-03  9.529078e-04  -1.673035e-01  2.912987e-01  -1.151373e-02  2.157933e-01  1.448152e-01  -3.324698e-01  -2.458180e-03  7.122859e-03  -2.007812e-01  4.429123e-01  -9.071756e-02  4.159170e-02  3.136427e-01  3.477297e-01  -2.647616e-02  -1.075653e-01  -4.447084e-01  -3.756581e-02  -3.129538e-02  1.102569e-01  -7.593645e-02  -4.274350e-01  3.185495e-03  3.075560e-02  -2.264263e-01  5.884806e-02  5.222045e-03  1.562884e-03  -3.032165e-01  3.491395e-01  -4.641226e-02  6.994212e-02  6.561664e-02  -3.812158e-01  4.272712e-02  -8.586221e-04  7.892447e-02  -3.518952e-01  -3.606068e-02  -7.796948e-02  3.116408e-02  -4.365376e-01  -1.664274e-02  1.635600e-01  4.237721e-01  -5.641278e-02  8.502859e-03  -9.182792e-04  3.066379e-01  3.551447e-01  6.258552e-02  1.061260e-02  -4.458136e-01  4.694628e-02  1.559896e-02  4.085561e-02  2.971796e-01  -3.257499e-01  8.682619e-02  -8.302768e-03  -5.077341e-02  3.291188e-01  -1.967472e-02  -9.946837e-02  -3.725861e-01  -2.588495e-01  6.391634e-02  -1.479065e-02  1.396811e-01  4.505610e-01  1.138193e-02  -1.376682e-01  -1.490148e-01  -2.585850e-01  3.364212e-02  2.429153e-01  3.797030e-01  -2.021280e-01  -8.507998e-03  -1.151615e-02  -3.110762e-01  2.972595e-01  -2.020839e-02  -1.584416e-02  8.394849e-02  4.127554e-01  1.162876e-01  -5.819020e-02  3.031451e-01  3.583567e-01  -1.210229e-01  1.728984e-02  -1.403194e-01  3.852924e-01  -8.627647e-03  -8.916416e-03  -2.491146e-01  -3.936501e-01  -3.872431e-03  6.061454e-02  -3.124880e-01  2.331306e-01  1.578902e-03  -3.126623e-03  -3.103410e-01  2.919734e-01  1.169154e-02  1.529908e-02  -2.383764e-01  -4.483447e-01  7.922981e-02  -8.485902e-02  3.579864e-01  -1.517978e-01  4.467328e-03  1.079869e-03  -2.572453e-01  -3.514084e-01  9.142172e-02  8.856356e-02  3.917426e-02  -1.737248e-01  -2.697921e-03  4.242917e-03  1.439478e-01  3.664993e-01  -1.121450e-01  6.527259e-02  -1.454322e-01  3.725755e-01  1.063716e-01  -4.463075e-03  2.060348e-01  -4.164850e-01  8.094487e-02  8.386324e-02  -8.281476e-02  -4.835850e-01  -2.905715e-02  8.574773e-02  -3.103985e-01  -3.801773e-01  2.521684e-02  -3.610016e-02  3.633895e-01  2.699086e-01  8.800406e-03  7.647709e-02  -1.891416e-01  3.394278e-01  9.096058e-02  -3.682540e-02  4.506910e-01  9.299685e-02  -6.641805e-03  3.273198e-02  -4.036909e-01  1.928341e-01  4.211658e-02  -1.186784e-01  -3.322099e-01  -3.637276e-01  6.713321e-02  -3.075909e-02  -3.275899e-01  -2.274521e-01  -1.167808e-01  -5.101225e-02  -4.490595e-01  -3.519135e-02  4.995755e-02  -1.352839e-02  -4.439537e-01  -2.004930e-03  -4.815168e-02  1.029141e-01  -2.723695e-02  -3.084458e-01  -1.696144e-01  7.262081e-03  4.123566e-01  -3.677227e-02  4.093685e-02  -4.328020e-03  3.800324e-01  -1.861583e-01  5.494326e-02  1.725036e-03  -3.238613e-01  1.300392e-01  -8.541808e-02  -1.071632e-03  -3.088065e-01  2.703121e-01  -8.799951e-02  1.284295e-01  -2.926090e-01  -4.081895e-01  -6.240772e-02  6.567032e-02  -4.369777e-01  1.138345e-01  -4.279385e-02  -9.936745e-02  6.753695e-02  -3.919220e-01  -7.173402e-03  7.346275e-03  -1.435734e-02  -2.931074e-01  2.038689e-04  5.454135e-03  -4.353210e-01  1.116264e-01  -3.460716e-02  3.894424e-02  1.631986e-01  -4.426995e-01  -6.979499e-02  4.928461e-02  7.542471e-02  -3.797294e-01  -1.650732e-02  3.022744e-03  -2.636147e-01  -3.521910e-01  8.298461e-03  -1.933056e-01  -4.500124e-01  4.467261e-02  -2.388942e-02  3.996472e-03  -2.479419e-01  2.829623e-01  6.636116e-02  -1.158726e-02  4.385207e-01  -1.755801e-02  1.127282e-02  9.235839e-04  -3.566214e-01  7.127496e-02  9.957437e-02  3.803957e-02  -2.021368e-01  -3.467284e-01  -1.743837e-01  2.643488e-03  3.464846e-01  -2.250875e-01  -4.347946e-02  -5.770567e-02  3.860622e-01  -2.006532e-01  3.631719e-02  -1.680860e-01  3.444019e-01  -1.074887e-01  3.045252e-02  -1.730145e-01  -1.879671e-01  4.475092e-01  -6.351788e-03  2.622331e-02  1.924828e-02  -4.357910e-01  7.582038e-02  2.039744e-01  4.185441e-01  -1.226491e-01  4.866330e-02  -2.122922e-02  -2.388428e-01  -4.069726e-01  7.588185e-02  1.265284e-02  6.687944e-03  -4.079157e-01  -7.429863e-03  -6.161584e-03  -3.021599e-01  -3.730696e-01  -7.838792e-02  -1.510598e-02  2.870028e-01  3.868236e-01  -6.479361e-02  8.101816e-02  3.007394e-01  -3.903628e-01  -6.793175e-03  -2.744113e-02  -2.641109e-01  3.234431e-01  -1.322315e-01  6.138063e-02  1.139711e-01  4.147311e-01  -4.611067e-02  6.658109e-02  2.519790e-01  -3.576120e-01  8.170716e-02  8.223528e-02  -3.151158e-01  -3.311369e-01  9.741705e-02  -2.744666e-03  -4.329948e-01  -1.292868e-01  -6.858612e-03  -6.715090e-03  2.459133e-01  -3.042260e-01  -1.676030e-02  3.389314e-03  -1.860527e-02  3.832867e-01  1.283541e-01  1.045762e-02  1.386611e-01  -4.390578e-01  -2.311824e-02  7.071551e-02  -4.034266e-01  2.112876e-01  -5.616212e-02  1.264215e-01  2.700566e-01  2.858387e-01  7.375491e-02  9.464820e-02  -3.767909e-01  1.469433e-01  9.623488e-02  -1.271212e-02  1.721860e-01  4.173341e-01  -9.132266e-02  -9.483712e-02  -2.883003e-01  -3.841041e-01  -9.179172e-02  -3.677925e-03  -2.239635e-02  4.744878e-01  -6.178011e-03  -3.198131e-03  -1.645775e-01  3.705907e-01  -1.647917e-02  -8.435550e-03  9.880815e-02  -4.650628e-01  -1.610197e-02  1.381399e-01  1.561007e-02  4.818166e-01  1.199454e-02  -1.061189e-02  -1.678166e-01  -4.331770e-01  5.954205e-02  3.466380e-02  2.983718e-01  -3.304826e-01  2.702827e-02  -1.465702e-01  -6.407937e-02  -4.878430e-01  4.318783e-02  8.347182e-02  2.658535e-01  3.708909e-01  -4.477990e-02  -1.558652e-02  2.201456e-01  3.890466e-01  -7.532258e-02  2.771115e-03  2.132663e-01  3.602608e-01  5.265860e-02  1.011429e-01  -2.631457e-01  -3.404160e-01  -6.276771e-02  -1.323256e-01  -2.359018e-01  3.815281e-01  6.017883e-02  -3.208357e-02  3.439536e-01  2.787112e-01  6.483255e-02  -4.583103e-03  -2.705432e-01  2.675903e-01  1.182755e-03  -4.742118e-03  1.703639e-01  1.236373e-01  4.881521e-02  -3.977087e-01  -1.818306e-01  -4.584094e-01  7.371796e-02  -1.123944e-02  2.325032e-01  -2.854153e-01  9.656440e-02  6.294759e-03  3.486637e-01  2.272223e-01  1.973981e-03  -6.436237e-03  -2.960075e-01  -3.684478e-01  -4.628436e-03  1.194257e-01  -5.886555e-02  3.881748e-01  1.682820e-03  1.330282e-01  2.870271e-01  4.067952e-01  8.018772e-02  -5.021141e-02  -1.543741e-02  -4.733457e-01  1.969257e-02  1.189133e-01  -3.252479e-01  1.940245e-01  -3.697163e-04  -3.522889e-03  4.262228e-01  2.360178e-01  1.179444e-02  2.055552e-02  -3.098129e-01  -3.004594e-01  -1.083637e-02  5.908361e-02  -2.693891e-01  -2.424821e-01  -1.638572e-03  5.685732e-03  4.627639e-01  1.310012e-01  2.349430e-02  3.088879e-03  3.845931e-01  2.617080e-01  -6.417245e-02  5.027793e-03  -1.087667e-01  3.565458e-01  -9.156168e-02  4.904493e-02  -2.494922e-01  3.592205e-01  -6.255776e-02  2.326951e-02  9.063208e-03  -4.842364e-01  1.056097e-01  3.121675e-02  1.664298e-03  4.326213e-01  4.531537e-02  6.565089e-02  1.470655e-02  4.167479e-01  -7.367288e-03  -1.005059e-02  3.599362e-01  2.948287e-01  5.382590e-02  -1.018406e-01  2.891406e-01  -2.779521e-01  -2.223885e-02  -4.336979e-03  9.087630e-03  -4.476332e-01  -1.106274e-01  1.027973e-01  4.414021e-01  -1.544968e-02  4.652417e-02  -8.853375e-03  -2.945219e-01  -1.881066e-01  8.430302e-03  5.811474e-03  -4.898187e-01  -1.032887e-01  -5.214074e-02  -1.020492e-02  3.992784e-02  4.801777e-01  -3.109712e-02  -8.697683e-02  1.829011e-01  4.738486e-01  -9.763720e-02  -2.323256e-02  2.092929e-01  4.655829e-01  1.564188e-02  4.578964e-02  4.463218e-01  2.279145e-02  -5.064992e-03  2.110301e-03  -2.550195e-01  3.585273e-01  -8.957463e-03  -1.779320e-01  2.591091e-01  3.928591e-01  1.046830e-01  2.783696e-02  3.973876e-01  1.928159e-01  -5.004667e-02  -5.073254e-03  2.819899e-01  -3.369062e-01  -5.443384e-02  6.814810e-02  3.274121e-01  -2.792681e-01  -9.472866e-02  -1.207677e-02  -3.171929e-01  -2.227493e-01  6.622841e-02  -6.087991e-02  5.217027e-02  4.089026e-01  -1.768998e-02  1.420755e-01  2.248730e-01  4.128155e-01  4.503726e-02  1.561602e-01  2.933035e-01  -2.540304e-01  -3.104403e-02  -6.006191e-03  -1.639675e-01  4.262021e-01  -5.972008e-02  -4.322396e-02  4.261323e-01  1.410103e-02  -1.873984e-02  6.336922e-03  -9.064969e-02  -3.638130e-01  -1.865537e-01  3.878922e-02  -3.057028e-01  3.795815e-01  4.357175e-03  -4.959187e-02  -2.220442e-01  -4.554821e-01  4.014254e-02  -3.325441e-02  -4.276405e-02  4.385021e-01  1.174273e-03  -1.563911e-02  -1.399478e-01  4.135892e-01  -6.394707e-02  -8.561467e-03  -3.995777e-01  -1.878738e-01  7.160900e-02  -1.578115e-02
      </Weights>
      <Biases Rows="1024" Columns="1">
        -4.319184e-02  1.151285e-03  7.742237e-03  3.609188e-02  -3.272314e-03  6.579950e-02  -6.185756e-02  -4.000247e-03  -6.341473e-02  6.405299e-03  1.145681e-02  2.696697e-04  -4.243639e-02  7.008340e-02  -5.502089e-02  2.239824e-02  -2.262937e-02  -1.356165e-02  -6.265670e-02  5.300762e-02  6.481389e-03  -1.821692e-02  -3.366752e-03  -5.842515e-03  -6.957510e-02  2.337124e-02  5.074226e-02  4.252055e-02  -2.243604e-02  5.275487e-02  3.852126e-02  4.174382e-02  4.069642e-02  1.863326e-02  -2.685684e-02  4.997978e-02  4.295481e-02  7.202853e-02  3.352370e-02  3.074324e-02  5.505042e-02  -4.948755e-02  -7.846430e-02  1.634644e-02  -1.143178e-02  7.079885e-02  -2.754463e-02  6.586250e-02  -3.546911e-02  -1.131047e-02  3.262326e-02  2.860019e-02  -4.715977e-02  3.208348e-02  -6.705806e-02  -4.327537e-02  4.238087e-02  3.497265e-02  -4.383100e-02  -5.809209e-03  7.956879e-03  4.687750e-02  5.333078e-02  -7.505422e-03  2.457013e-02  -4.705059e-02  -2.087923e-02  -3.536764e-02  -6.018176e-02  4.501009e-02  1.755176e-02  1.181184e-02  -5.628828e-03  -1.860672e-02  -4.954125e-03  3.436107e-02  7.370180e-02  4.609127e-02  6.739671e-03  1.666941e-02  2.658699e-02  2.924768e-02  -4.785405e-02  -5.523280e-02  -7.003892e-02  -5.706253e-02  -5.313722e-02  1.398051e-02  3.691252e-02  -2.904448e-02  8.486447e-02  -1.681765e-02  -1.827496e-03  1.826420e-02  8.256639e-03  3.319230e-02  -3.682296e-02  1.009816e-02  -2.552264e-02  -4.848478e-03  -2.750592e-03  -6.917056e-02  -7.412855e-03  3.006981e-02  1.802274e-02  -5.068852e-03  -2.795352e-02  5.674590e-02  -6.520680e-02  4.364301e-02  -3.693240e-02  4.054926e-02  4.766204e-02  1.629560e-02  -3.532735e-02  -1.887847e-02  4.937930e-02  7.803519e-03  -4.364675e-02  8.421807e-03  3.409360e-02  -3.373538e-02  1.551134e-02  -2.287069e-02  -3.205514e-02  -4.047545e-02  1.517568e-03  -2.298306e-02  -2.414781e-02  1.779664e-02  -5.902207e-02  -5.400585e-03  -6.186260e-02  3.797916e-02  -9.593613e-03  2.612942e-02  -2.238326e-02  -6.692168e-03  3.137720e-02  5.822311e-02  -7.344238e-02  -3.672193e-04  -6.751095e-02  -2.811305e-02  3.445525e-03  -4.122009e-02  4.327577e-02  -4.770484e-02  3.682200e-02  -2.203930e-02  -4.661740e-02  -2.217056e-02  1.167506e-02  4.343450e-02  1.545383e-02  2.746335e-02  1.074469e-02  -2.478439e-02  6.194661e-03  -1.773942e-02  1.041686e-02  -5.760384e-02  -9.231331e-03  5.677639e-02  -1.941478e-03  6.463688e-03  -7.813167e-03  5.425036e-02  -4.356032e-02  -9.425027e-04  6.249914e-02  4.395183e-02  -1.427180e-05  1.575109e-02  -6.391498e-02  -1.660461e-02  5.677377e-02  6.675380e-02  -4.116632e-03  4.812802e-04  2.604801e-02  7.658276e-02  5.949426e-02  2.570979e-02  -3.213229e-02  4.337654e-02  4.570897e-02  6.503658e-03  -3.836596e-02  3.637054e-03  -5.278783e-02  7.057198e-02  -6.108759e-02  4.320935e-02  1.638160e-02  2.054335e-02  7.846744e-02  4.504246e-02  5.048431e-02  -5.780726e-02  1.431176e-02  1.862045e-02  4.293661e-02  1.797479e-02  -2.229908e-02  -5.073589e-02  3.842762e-03  4.143844e-02  3.810659e-02  6.977679e-02  -2.072225e-02  3.518982e-02  -4.178746e-03  -1.349149e-02  6.097841e-02  -4.379072e-02  -2.335007e-02  -3.268883e-02  5.235345e-02  -3.521689e-02  2.784070e-02  9.442546e-03  2.941668e-02  -2.757986e-02  3.316950e-02  -1.182374e-02  -2.906129e-02  -1.238439e-03  -6.062901e-02  6.098152e-02  4.043192e-02  -1.038082e-02  -4.248666e-02  -3.115405e-02  -2.026109e-02  2.697035e-02  -6.252157e-02  -1.145418e-02  -6.068886e-02  3.312548e-02  -5.023221e-02  -1.738797e-02  4.872433e-02  6.366519e-02  -4.519634e-02  -6.689738e-03  1.966935e-02  5.333031e-02  4.780061e-02  6.094371e-02  3.737791e-02  -3.530613e-02  -2.147101e-02  -2.603067e-02  -8.234491e-02  -3.576374e-02  4.706009e-02  5.460138e-02  -3.690127e-02  1.712317e-03  6.245150e-02  -3.447351e-02  -7.275242e-02  -3.749347e-02  2.803403e-02  6.170970e-02  5.281670e-02  -2.712982e-02  -7.471851e-02  -2.809793e-02  5.606758e-02  -4.859588e-02  7.002441e-02  7.785516e-03  2.177870e-02  -3.647137e-02  -6.076970e-02  -6.508739e-02  -4.754477e-02  4.032278e-02  -6.130271e-02  -1.317303e-02  4.352678e-02  -6.701159e-02  2.183841e-04  5.031968e-02  -2.568701e-02  5.023617e-03  -3.576148e-02  4.019365e-02  2.670707e-02  -5.436227e-02  -9.347516e-03  4.774426e-02  -4.433596e-03  -3.632600e-02  -5.629343e-02  -5.417097e-02  5.024159e-02  -4.649037e-04  -4.793932e-02  -5.788064e-02  3.198085e-02  2.875080e-03  4.762896e-02  1.701292e-02  2.020366e-02  1.944335e-02  4.219859e-02  3.149956e-02  1.627670e-02  4.985102e-02  -4.139987e-02  4.991886e-03  -3.468569e-02  -1.016739e-02  4.836415e-02  -4.948302e-02  4.497278e-03  -2.356387e-02  1.161472e-02  -1.990665e-02  -4.787271e-03  1.548766e-02  -4.679260e-02  -9.226368e-04  1.446363e-02  2.112569e-02  3.983843e-02  -6.123966e-02  -1.757393e-02  6.762416e-02  -5.666267e-02  4.656139e-02  -1.744376e-02  -2.803354e-02  3.558173e-02  4.559094e-02  8.471825e-02  1.060220e-02  -5.102424e-02  -6.930181e-02  5.858327e-04  -5.446465e-02  6.666403e-02  -5.301556e-02  3.073348e-02  -1.251622e-03  6.333576e-03  2.910901e-02  -2.817927e-02  2.548995e-02  -4.318029e-02  6.203149e-02  -4.556152e-02  4.275352e-02  2.945911e-02  8.081798e-03  -7.491436e-02  -5.883659e-03  4.183175e-02  -2.669509e-02  -7.260702e-03  2.940256e-02  1.287143e-02  1.098549e-02  1.901567e-02  2.013902e-02  6.614159e-02  6.614032e-02  -2.991298e-02  -6.114555e-02  -3.212358e-02  -6.459516e-02  -4.207397e-02  1.217446e-02  -5.491753e-02  -2.673601e-02  1.483110e-02  -4.700042e-02  -2.672146e-02  -7.317154e-02  -3.704729e-02  6.185782e-02  -7.090827e-02  1.981616e-02  -4.220906e-02  5.265696e-02  -3.660959e-02  -1.358870e-02  -2.270110e-02  3.098012e-02  2.636978e-02  5.773368e-02  6.186281e-02  6.733575e-02  9.836502e-03  -5.472305e-02  4.334909e-02  1.793208e-02  -1.797567e-02  7.823834e-03  -6.294573e-02  5.603334e-02  -6.459725e-03  3.739016e-03  8.866806e-05  2.527697e-03  5.181850e-02  -5.291479e-02  1.031711e-02  -2.444158e-02  3.155926e-02  -5.929559e-02  3.830881e-02  -2.894319e-02  5.571061e-02  -5.856294e-02  2.273352e-02  -1.541056e-02  1.724619e-02  3.251413e-02  -4.478561e-03  -2.064410e-02  -5.971861e-02  8.663089e-03  3.056188e-02  -1.063713e-03  -5.456645e-02  2.738163e-02  -1.659785e-02  2.528382e-02  -1.936239e-02  3.461698e-02  -5.379812e-02  -2.093887e-02  1.844976e-02  -6.568227e-02  4.427197e-02  -1.036723e-02  6.459451e-03  3.608776e-02  9.327914e-03  -3.673284e-02  -1.692112e-02  4.047370e-02  3.958683e-02  1.088741e-03  -1.051746e-02  4.459425e-02  -4.829159e-02  -8.095767e-02  2.461640e-02  5.120064e-02  -4.425938e-02  4.979706e-02  3.707624e-02  4.512311e-03  -3.928669e-02  -5.659771e-02  1.977040e-02  3.706360e-02  4.539213e-02  -6.493337e-02  5.150616e-02  2.749735e-02  3.350751e-02  6.071663e-02  -5.176096e-03  -9.439914e-03  -2.972379e-02  -3.317266e-02  6.697077e-02  -3.898738e-02  -1.526655e-02  -3.304439e-03  -2.859242e-02  -3.207395e-02  -6.599627e-02  3.093342e-02  1.271589e-02  5.697773e-02  -3.072564e-02  9.353656e-03  4.463267e-02  -4.604238e-02  3.944053e-03  2.043403e-02  -7.451440e-04  2.744000e-02  -3.818515e-02  -8.314974e-02  -5.412764e-02  -4.055859e-02  4.994236e-02  7.547533e-02  -2.436734e-02  -3.771428e-03  8.121112e-04  -6.690580e-02  6.135975e-03  -6.995400e-03  -5.550491e-02  2.878195e-02  2.670168e-02  -6.650649e-03  4.878353e-02  -1.249375e-02  -4.063577e-02  -5.000314e-02  9.290864e-03  2.810416e-02  -3.626884e-02  -2.237908e-02  4.872916e-03  -6.275608e-02  -5.952867e-02  -3.019774e-02  5.307056e-03  6.138813e-02  9.444288e-03  -7.865012e-03  -4.208538e-02  4.234771e-02  4.966196e-02  5.994498e-02  -5.989158e-02  7.453867e-02  -2.795503e-02  7.833809e-02  -4.889110e-02  1.369311e-02  6.207088e-02  -6.750287e-03  1.742471e-02  -5.035738e-02  3.030043e-02  3.927113e-02  1.009136e-02  -3.588173e-02  5.983834e-02  1.565200e-02  -3.197194e-02  1.588289e-02  3.541275e-02  -2.516599e-02  4.434167e-02  6.032208e-02  -1.044131e-02  -4.123073e-02  -8.092985e-02  -6.373163e-03  2.738496e-02  2.829052e-02  -4.073967e-02  -4.519839e-02  -1.840828e-04  -2.645543e-02  -1.243529e-02  2.528130e-02  1.004708e-02  -4.324131e-02  -6.730375e-02  -1.668189e-02  2.086409e-02  -2.283560e-02  2.476140e-02  4.157270e-02  -2.553141e-02  4.485532e-02  1.294964e-02  -1.408325e-02  -1.824091e-03  1.989589e-02  -1.946545e-02  1.464592e-02  -3.724287e-02  5.151916e-02  -7.585817e-02  -3.633247e-02  -4.567162e-02  3.544629e-02  6.291772e-02  -6.197686e-02  -2.992370e-02  4.444548e-02  7.065863e-03  -6.147267e-02  3.747432e-03  1.467176e-04  -1.894764e-02  -7.048385e-03  4.794752e-02  -4.243783e-03  3.769889e-02  -2.801764e-02  -1.297034e-02  1.389415e-02  2.904700e-05  3.043382e-02  -3.819329e-02  -3.983496e-02  -4.579300e-02  -2.780977e-02  -5.009610e-02  7.602938e-02  -1.427607e-02  6.616072e-02  -3.455593e-02  1.911255e-02  -6.836003e-02  -4.111281e-02  7.763077e-02  3.974657e-02  -6.298054e-03  5.217459e-02  -1.737083e-02  4.058762e-02  -4.349721e-02  -7.111980e-02  -2.937011e-02  2.910229e-02  -1.022540e-02  -4.419360e-03  1.926365e-02  4.932637e-02  5.641979e-02  -2.819603e-02  5.746701e-02  -4.972741e-02  -8.144914e-03  2.204141e-02  8.714100e-03  5.542217e-03  6.126441e-03  -1.962432e-02  2.504098e-02  4.142704e-02  3.547819e-02  -3.145080e-02  3.333399e-02  -1.436661e-02  -1.258317e-02  -5.517998e-02  -5.003570e-02  3.165130e-02  -4.460435e-02  -3.247960e-02  -5.780970e-02  -2.367455e-02  3.253431e-02  -4.258614e-03  -6.502595e-03  2.145769e-02  -2.670927e-02  6.469751e-03  5.038645e-02  -7.164048e-03  -6.521950e-02  -3.876742e-02  -7.262641e-03  -8.129908e-03  -5.633928e-02  6.638287e-02  -5.444482e-03  -6.768224e-02  5.090650e-02  7.078408e-02  9.164920e-03  1.238902e-02  -7.378864e-02  -5.588437e-02  -5.897927e-02  -4.774208e-02  5.106459e-02  -9.542862e-03  6.573825e-02  2.417677e-03  -3.844836e-02  -5.007045e-03  1.995871e-02  -3.644246e-02  1.741975e-02  -8.312879e-02  -1.494109e-02  -2.768057e-02  -7.703475e-02  4.491308e-02  9.940458e-03  -6.639304e-02  -4.376913e-02  -4.659269e-02  -3.942633e-02  1.282169e-02  -4.204427e-02  -6.307916e-02  2.187220e-02  -7.049702e-02  -4.014049e-02  -7.098652e-03  -3.445044e-02  3.562358e-02  -5.663162e-02  -3.425909e-02  -3.423710e-02  5.605214e-02  -6.445002e-02  -8.717550e-05  -1.956194e-02  -3.033586e-02  1.898774e-02  -5.663898e-02  5.038579e-02  2.451386e-02  3.295946e-02  5.773599e-02  3.148079e-02  -9.393478e-03  -3.310445e-03  1.639257e-02  -5.100714e-02  6.456059e-03  3.388583e-02  4.026627e-03  2.245035e-02  -1.287751e-02  4.715648e-03  -3.261180e-02  -6.624305e-02  6.112558e-02  -7.662440e-04  -1.676499e-02  6.118432e-02  -4.450789e-02  -3.317257e-02  5.603398e-02  -5.387361e-02  -5.332912e-02  9.190596e-03  -2.889072e-02  5.450121e-02  5.015035e-02  7.273415e-02  4.796276e-03  -4.850302e-02  -2.788851e-02  -2.680954e-02  -3.014091e-02  2.383318e-02  7.034519e-02  -4.971397e-02  1.694691e-02  -6.079014e-02  8.942716e-03  -4.747057e-02  -3.387602e-02  4.397164e-02  1.137691e-02  3.152402e-02  -2.419857e-02  2.222171e-02  4.433526e-02  -3.339096e-02  2.804772e-03  3.569340e-02  4.056493e-02  -4.469215e-02  4.396667e-02  -5.627527e-03  -2.131369e-02  1.588092e-02  -4.714828e-02  -4.222310e-02  -4.337234e-02  5.459296e-02  -2.954248e-02  3.952597e-02  -4.425912e-03  6.813414e-02  -5.187490e-02  2.736982e-02  2.296472e-02  -3.255284e-02  2.954360e-02  -1.968814e-02  4.878225e-02  1.790356e-02  -2.841476e-02  3.019167e-02  5.587879e-02  3.854663e-02  2.029077e-03  -1.879715e-02  6.712783e-02  6.344159e-02  3.289761e-02  7.375298e-02  -5.284250e-02  -2.751452e-02  4.351754e-02  -6.016468e-02  -4.750032e-02  6.988627e-02  2.196333e-02  3.595002e-02  -3.380192e-03  -4.596967e-02  -1.051257e-02  -8.750533e-03  4.886239e-02  -3.572792e-02  5.948152e-02  -4.707481e-02  4.163095e-02  2.662945e-02  -1.600222e-02  4.981110e-02  1.727531e-02  1.838922e-02  -7.505700e-02  -1.797278e-02  -2.245108e-02  -5.075930e-02  -4.782855e-02  -2.711406e-02  -3.606992e-02  1.117034e-02  -3.459750e-02  4.891447e-02  -4.595627e-02  1.890616e-02  -4.750887e-02  -2.168740e-02  -3.885794e-02  3.169356e-02  -3.099619e-02  -5.229031e-02  1.733763e-03  -1.552768e-02  4.877929e-02  3.048933e-02  8.850848e-03  5.786384e-02  1.453286e-02  -3.565567e-04  4.999167e-02  -1.129601e-02  -6.217083e-02  1.039918e-02  -7.645892e-02  1.682673e-02  7.204331e-02  -1.402781e-03  -5.190187e-03  -7.351217e-03  1.565878e-02  -3.680951e-03  6.127903e-02  -9.289264e-03  4.621124e-03  -1.343422e-02  -2.420601e-03  -3.087373e-02  -1.221600e-02  1.414087e-02  -1.333865e-02  -6.447044e-02  -9.399157e-03  -4.586514e-02  -3.311738e-02  6.666251e-02  -1.183373e-02  -2.571554e-02  6.587750e-02  6.071716e-02  -1.152370e-02  -5.613672e-02  8.059771e-04  4.441585e-02  -3.993117e-02  3.882030e-02  -2.606849e-02  5.600069e-02  -1.433504e-02  2.978650e-02  5.310725e-02  -2.822427e-02  -6.120640e-02  -3.444508e-02  -4.992368e-02  1.060502e-02  6.526551e-02  -4.100368e-02  -3.068330e-03  3.521451e-02  1.980764e-02  1.419167e-02  -6.248189e-02  4.767986e-02  2.711874e-02  -2.778324e-02  4.097085e-02  1.783147e-02  5.207628e-02  6.201250e-02  -2.037046e-02  -5.022191e-02  4.094382e-02  -1.673888e-02  2.023257e-02  7.080906e-02  -2.324768e-02  -2.616194e-02  -2.070819e-03  1.261695e-02  5.820657e-02  -3.379968e-02  3.396316e-02  2.383979e-02  -2.229377e-02  5.519978e-02  6.179966e-02  -6.021032e-02  -4.092798e-02  -4.429338e-02  2.596782e-02  5.876881e-02  7.826334e-03  2.273646e-02  -3.703731e-02  -1.831577e-02  5.806486e-02  -5.613696e-02  -4.059223e-02  1.167720e-02  4.943582e-02  6.146160e-02  -4.748249e-02  8.060406e-02  -4.294267e-02  -7.200196e-02  -5.095042e-02  -6.955729e-02  5.410236e-02  -2.118337e-02  -5.107149e-02  2.263085e-02  -3.803935e-02  -1.933430e-02  5.177110e-03  -5.976671e-02  4.779380e-02  4.560063e-02  -5.460273e-03  3.472783e-02  3.531002e-02  -5.418025e-02  7.082433e-02  -2.796391e-02  5.427954e-02  3.066886e-02  7.183079e-02  -4.415666e-02  -1.766350e-02  3.816165e-02  4.054132e-02  -4.479757e-02  3.649897e-02  2.177340e-02  -4.436681e-02  -7.489465e-03  -1.570899e-02  -1.129693e-02  3.226627e-02  -2.169649e-02  5.429037e-02  -3.757661e-03  4.937970e-02  3.503040e-03  -1.090804e-02  -2.512625e-02  -2.252513e-02  1.188677e-02  4.193582e-02  -1.144179e-04  2.666479e-02  4.999839e-02  -2.153611e-02  3.115315e-02  1.276206e-02  -3.615568e-02  -3.873775e-02  4.050830e-02  4.903215e-02  -3.631692e-03  5.642975e-02  2.656172e-02  -4.133966e-02  -6.078829e-02  -1.023497e-02  -4.223963e-02  2.130573e-02  3.358791e-02  7.704273e-03  -1.177706e-02  1.862957e-02  -4.904306e-02  4.737838e-02  3.156254e-02  -4.395699e-02  -3.886575e-02  -7.859856e-02  1.531378e-02  2.483331e-02  2.096007e-02  -6.175937e-02  2.181799e-02  -4.922232e-02  -5.122577e-02  4.654966e-02  -2.056613e-02  3.644048e-02  3.121359e-02  4.330372e-02
      </Biases>
    </DenseLayer>
    <DenseLayer Width="128" ActivationFunction="3">
      <Weights Rows="128" Columns="1024">
