<?xml version="1.0"?>
<MethodSetup Method="DL::DNN_CPU">
  <GeneralInfo>
    <Info name="TMVA Release" value="4.2.1 [262657]"/>
    <Info name="ROOT Release" value="6.29/01 [400641]"/>
    <Info name="Creator" value="simon"/>
    <Info name="Date" value="Fri Mar 17 16:59:52 2023"/>
    <Info name="Host" value="Linux np-muon01.physics.gla.ac.uk 5.15.0-47-lowlatency #53-Ubuntu SMP PREEMPT Fri Aug 12 15:27:13 UTC 2022 x86_64 x86_64 x86_64 GNU/Linux"/>
    <Info name="Dir" value="/home/simon/Analysis/EIC_Analysis/NeuralNetwork"/>
    <Info name="Training events" value="447778"/>
    <Info name="TrainingTime" value="1.04309050e+03"/>
    <Info name="AnalysisType" value="Regression"/>
  </GeneralInfo>
  <Options>
    <Option name="V" modified="Yes">True</Option>
    <Option name="VerbosityLevel" modified="No">Verbose</Option>
    <Option name="VarTransform" modified="Yes">D,N(eE)</Option>
    <Option name="H" modified="Yes">False</Option>
    <Option name="CreateMVAPdfs" modified="No">False</Option>
    <Option name="IgnoreNegWeightsInTraining" modified="No">False</Option>
    <Option name="InputLayout" modified="No">0|0|0</Option>
    <Option name="BatchLayout" modified="No">0|0|0</Option>
    <Option name="Layout" modified="Yes">TANH|1024,TANH|64,TANH|64,TANH|32,LINEAR</Option>
    <Option name="ErrorStrategy" modified="Yes">SUMOFSQUARES</Option>
    <Option name="WeightInitialization" modified="Yes">XAVIERUNIFORM</Option>
    <Option name="RandomSeed" modified="No">0</Option>
    <Option name="ValidationSize" modified="No">20%</Option>
    <Option name="Architecture" modified="Yes">GPU</Option>
    <Option name="TrainingStrategy" modified="Yes">LearningRate=1e-4,Momentum=0,MaxEpochs=2000,ConvergenceSteps=50,BatchSize=1024,TestRepetitions=1,Regularization=None,Optimizer=ADAM|LearningRate=1e-6,Momentum=0,MaxEpochs=2000,ConvergenceSteps=50,BatchSize=1024,TestRepetitions=1,Regularization=None,Optimizer=ADAGRAD|LearningRate=1e-7,Momentum=0,MaxEpochs=2000,ConvergenceSteps=50,BatchSize=1024,TestRepetitions=1,Regularization=None,Optimizer=ADAM|LearningRate=1e-8,Momentum=0,MaxEpochs=2000,ConvergenceSteps=50,BatchSize=1024,TestRepetitions=1,Regularization=None,Optimizer=ADAM</Option>
  </Options>
  <Variables NVar="4">
    <Variable VarIndex="0" Expression="Fposition.fCoordinates.fY" Label="Fposition.fCoordinates.fY" Title="fit_position_y" Unit="units" Internal="Fposition.fCoordinates.fY" Type="F" Min="-1.18942305e+04" Max="2.58677012e+04"/>
    <Variable VarIndex="1" Expression="Fposition.fCoordinates.fZ" Label="Fposition.fCoordinates.fZ" Title="fit_position_z" Unit="units" Internal="Fposition.fCoordinates.fZ" Type="F" Min="-9.65271000e+05" Max="1.65302762e+06"/>
    <Variable VarIndex="2" Expression="Fvector.fCoordinates.fX" Label="Fvector.fCoordinates.fX" Title="fit_vector_x" Unit="units" Internal="Fvector.fCoordinates.fX" Type="F" Min="-2.02463672e-01" Max="7.86010697e-02"/>
    <Variable VarIndex="3" Expression="Fvector.fCoordinates.fY" Label="Fvector.fCoordinates.fY" Title="fit_vector_y" Unit="units" Internal="Fvector.fCoordinates.fY" Type="F" Min="-9.69998613e-02" Max="1.31791830e-01"/>
  </Variables>
  <Spectators NSpec="4">
    <Spectator SpecIndex="0" Expression="eE" Label="eE" Title="eE" Unit="" Internal="eE" Type="F" Min="1.29928422e+00" Max="9.99002838e+00"/>
    <Spectator SpecIndex="1" Expression="logQ2_3" Label="logQ2_3" Title="logQ2_3" Unit="" Internal="logQ2_3" Type="F" Min="-8.27423573e+00" Max="-1.96303320e+00"/>
    <Spectator SpecIndex="2" Expression="phiV" Label="phiV" Title="phiV" Unit="" Internal="phiV" Type="F" Min="-3.14159083e+00" Max="3.14158559e+00"/>
    <Spectator SpecIndex="3" Expression="thetaE" Label="thetaE" Title="thetaE" Unit="" Internal="thetaE" Type="F" Min="6.10194820e-06" Max="1.04860971e-02"/>
  </Spectators>
  <Classes NClass="1">
    <Class Name="Regression" Index="0"/>
  </Classes>
  <Targets NTrgt="4">
    <Target TargetIndex="0" Expression="eE" Label="eE" Title="eE" Unit="" Internal="eE" Type="F" Min="1.29928422e+00" Max="9.99002838e+00"/>
    <Target TargetIndex="1" Expression="thetaE" Label="thetaE" Title="thetaE" Unit="" Internal="thetaE" Type="F" Min="6.10194820e-06" Max="1.04860971e-02"/>
    <Target TargetIndex="2" Expression="cosPhi" Label="cosPhi" Title="cosPhi" Unit="" Internal="cosPhi" Type="F" Min="-1.00000000e+00" Max="1.00000000e+00"/>
    <Target TargetIndex="3" Expression="sinPhi" Label="sinPhi" Title="sinPhi" Unit="" Internal="sinPhi" Type="F" Min="-1.00000000e+00" Max="1.00000000e+00"/>
  </Targets>
  <Transformations NTransformations="2">
    <Transform Name="Decorrelation">
      <Selection>
        <Input NInputs="4">
          <Input Type="Variable" Label="Fposition.fCoordinates.fY" Expression="Fposition.fCoordinates.fY"/>
          <Input Type="Variable" Label="Fposition.fCoordinates.fZ" Expression="Fposition.fCoordinates.fZ"/>
          <Input Type="Variable" Label="Fvector.fCoordinates.fX" Expression="Fvector.fCoordinates.fX"/>
          <Input Type="Variable" Label="Fvector.fCoordinates.fY" Expression="Fvector.fCoordinates.fY"/>
        </Input>
        <Output NOutputs="4">
          <Output Type="Variable" Label="Fposition.fCoordinates.fY" Expression="Fposition.fCoordinates.fY"/>
          <Output Type="Variable" Label="Fposition.fCoordinates.fZ" Expression="Fposition.fCoordinates.fZ"/>
          <Output Type="Variable" Label="Fvector.fCoordinates.fX" Expression="Fvector.fCoordinates.fX"/>
          <Output Type="Variable" Label="Fvector.fCoordinates.fY" Expression="Fvector.fCoordinates.fY"/>
        </Output>
      </Selection>
      <Matrix Rows="4" Columns="4">
        1.758873346677632e-02 -1.265374440166579e-04 2.525130528237490e-04 3.752979959814434e-03 -1.265374440166579e-04 2.731617782981361e-04 -1.014051725562859e-05 -2.952081378271319e-05 2.525130528237490e-04 -1.014051725562859e-05 5.514057972938379e+01 4.055822468947435e-01 3.752979959814434e-03 -2.952081378271320e-05 4.055822468947435e-01 5.459000352108792e+02
      </Matrix>
    </Transform>
    <Transform Name="Normalize">
      <Selection>
        <Input NInputs="2">
          <Input Type="Target" Label="eE" Expression="eE"/>
          <Input Type="Spectator" Label="eE" Expression="eE"/>
        </Input>
        <Output NOutputs="2">
          <Output Type="Target" Label="eE" Expression="eE"/>
          <Output Type="Spectator" Label="eE" Expression="eE"/>
        </Output>
      </Selection>
      <Class ClassIndex="0">
        <Ranges>
          <Range Index="0" Min="1.2992842197418213e+00" Max="9.9900283813476562e+00"/>
          <Range Index="1" Min="1.2992842197418213e+00" Max="9.9900283813476562e+00"/>
        </Ranges>
      </Class>
    </Transform>
  </Transformations>
  <MVAPdfs/>
  <Weights NetDepth="5" InputDepth="1" InputHeight="1" InputWidth="4" BatchSize="1" BatchDepth="1" BatchHeight="1024" BatchWidth="4" LossFunction="R" Initialization="F" Regularization="0" OutputFunction="I" WeightDecay="0.0000000000000000e+00">
    <DenseLayer Width="1024" ActivationFunction="3">
      <Weights Rows="1024" Columns="4">
        -6.070507e-03  5.062986e-02  4.444947e-02  8.595740e-03  9.611043e-02  7.797056e-02  4.041363e-02  -6.852018e-02  -2.612968e-02  2.073524e-03  -7.418653e-02  6.996959e-02  8.923391e-02  5.012177e-03  -3.562792e-02  -4.388445e-02  1.243443e-02  -3.422468e-02  1.984600e-02  -1.913352e-01  -1.494344e-02  -3.537335e-02  6.249499e-04  -7.819693e-02  -3.981724e-02  1.813145e-02  8.688424e-02  -1.237202e-01  -8.276337e-02  3.611175e-02  -4.642835e-02  -2.182583e-02  -6.940664e-02  -8.480127e-02  8.605426e-02  3.384286e-02  1.509774e-03  -1.134517e-02  7.490994e-02  -1.386018e-02  2.317408e-02  2.118539e-02  -1.796536e-02  -1.122297e-01  2.805431e-02  5.481188e-02  -1.641975e-02  3.255554e-02  5.259084e-02  6.988123e-02  1.664945e-02  8.600989e-02  1.226100e-02  2.535090e-02  -1.969483e-03  -9.719698e-02  -3.325602e-02  9.834693e-03  -4.673739e-02  1.434447e-01  4.005820e-03  3.414283e-02  -1.236042e-01  -1.113416e-01  -4.877681e-02  -2.478570e-02  -9.015459e-02  2.386961e-02  -7.450692e-02  -6.419383e-02  -6.502087e-02  -2.035842e-03  -3.275440e-02  6.360818e-02  -2.701565e-02  -3.427092e-02  2.172233e-02  -4.517982e-02  5.015606e-02  2.995247e-02  1.287534e-01  -9.701921e-02  -2.313731e-02  2.080185e-03  9.946801e-03  4.099885e-02  -3.489686e-03  -6.331231e-02  5.164890e-02  -3.317185e-02  3.689443e-02  -3.078298e-02  -3.823604e-02  -3.706353e-02  5.936796e-02  3.141155e-02  -3.964420e-02  4.833535e-02  -3.484660e-02  5.151566e-02  -3.027497e-02  4.165496e-02  -8.621759e-03  8.122499e-02  1.301017e-01  4.016668e-02  3.073392e-02  4.485963e-02  -1.153934e-02  -5.039718e-02  -8.270686e-02  1.112419e-01  -2.234233e-02  -5.644627e-02  -5.351510e-02  -1.073164e-01  5.933500e-02  7.275882e-02  -5.945455e-02  1.556839e-02  -9.672797e-02  1.575640e-02  1.017793e-02  -9.473892e-02  3.695454e-02  6.428411e-02  -4.654688e-02  -5.457303e-02  -3.917061e-02  -5.885626e-02  2.798389e-02  9.136590e-02  -3.084825e-02  -8.664997e-03  5.616833e-02  -1.273295e-01  -6.665707e-02  -6.080281e-03  -1.605033e-02  -1.137844e-01  -1.513741e-02  -4.627864e-02  -2.895973e-02  -1.650694e-01  6.932923e-02  7.324932e-02  -1.963593e-02  9.496890e-02  -3.341251e-02  3.868506e-02  4.336977e-03  1.514675e-02  1.497868e-01  1.686262e-02  2.348757e-02  -4.782462e-02  -1.409296e-02  -6.199583e-02  8.755749e-02  8.924738e-02  7.415419e-02  4.396918e-02  1.134510e-01  2.121903e-01  1.317316e-01  3.730359e-02  -5.457051e-02  6.502721e-03  9.115562e-02  7.741828e-02  3.216169e-02  -3.082179e-02  5.685974e-02  -2.813355e-02  -4.516070e-02  5.317783e-02  -3.622973e-02  2.874049e-02  -2.813386e-03  9.685710e-02  6.555064e-02  -3.966022e-03  -3.873215e-02  -7.927821e-02  -4.404763e-02  5.282459e-04  -6.884019e-03  2.065319e-01  -8.951171e-02  -8.482369e-02  7.428551e-02  7.750683e-02  2.760310e-02  1.338622e-02  4.451746e-02  -6.577766e-02  -1.398219e-01  -7.019512e-02  -1.318716e-02  -9.952510e-03  -2.914576e-02  4.045190e-02  1.384483e-02  1.358847e-01  -1.379113e-01  -2.824165e-02  1.555975e-02  8.579541e-02  -9.275126e-02  -1.973947e-02  9.743652e-03  -6.229160e-02  2.990033e-02  2.057683e-02  -1.893357e-02  -1.013830e-01  -6.719957e-02  4.308598e-03  2.858432e-04  2.158063e-02  -6.464496e-02  1.064239e-02  3.205148e-03  1.036088e-01  9.178333e-02  1.797236e-02  -7.224623e-02  -2.518009e-03  -1.469446e-01  -5.832614e-02  4.571323e-02  -6.747811e-02  -1.092397e-02  -4.100459e-02  2.009842e-02  8.893923e-02  6.387889e-02  8.119315e-02  -7.501669e-02  -5.905926e-02  -8.238303e-02  -4.964819e-02  2.596176e-03  -4.132843e-04  -5.552189e-02  -2.974524e-02  -1.232816e-01  -7.009383e-02  -8.931950e-02  -1.003810e-02  1.143430e-02  -9.686443e-04  -2.702132e-02  3.916049e-02  2.633910e-02  1.281223e-01  2.716343e-02  5.320935e-02  9.534989e-02  1.492552e-01  2.549290e-02  7.417605e-03  -3.031021e-02  -1.857632e-03  -9.670051e-03  -1.177043e-02  1.076861e-02  -1.035582e-01  -1.017459e-01  -1.726489e-02  1.796491e-02  1.480858e-01  -1.348939e-02  2.131689e-02  1.400412e-02  5.594364e-01  5.366157e-02  -7.944496e-03  -1.198394e-02  1.481836e-02  5.619073e-04  1.545467e-02  -1.544412e-02  -1.098240e-01  -4.690391e-02  -5.803978e-02  2.867269e-02  -2.203922e-01  -1.026043e-01  -2.234969e-03  2.594468e-02  -5.272619e-03  -5.384703e-02  -8.771909e-02  5.809056e-02  -1.816411e-02  1.193276e-01  1.302885e-02  7.149602e-02  9.250601e-02  6.246268e-02  -1.438133e-02  -2.883273e-02  1.669815e-02  1.320603e-01  6.185290e-02  4.589849e-02  2.564023e-01  -2.949079e-02  7.955487e-02  9.187443e-02  -1.057087e-01  -7.879621e-02  4.653059e-02  -7.487869e-02  3.556263e-02  8.373017e-02  4.943258e-03  -1.674911e-02  -5.498254e-02  1.082440e-01  7.497879e-03  -4.536602e-02  -1.171861e-01  8.472607e-02  -1.540488e-02  7.703089e-02  -5.143616e-02  1.138509e-01  8.354917e-02  -2.020973e-03  4.985580e-02  5.959407e-03  7.413338e-02  1.001889e-01  6.455393e-02  3.078051e-02  -4.850368e-02  1.800309e-02  -4.080024e-02  6.617197e-02  2.018791e-02  -2.528285e-02  8.663113e-02  -9.047722e-02  -4.168345e-02  7.452968e-02  7.956465e-02  8.903389e-02  8.066051e-02  -6.135018e-02  -2.547219e-02  -1.070585e-01  -1.450324e-02  5.249705e-03  1.574684e-02  -9.904020e-02  -8.616951e-02  7.600425e-02  -1.187628e-01  -8.014393e-02  -3.714611e-02  -5.363464e-02  -3.378611e-02  7.301996e-02  2.600700e-02  4.098062e-03  -4.960543e-02  -4.698422e-03  -4.283919e-02  3.357028e-02  -1.368207e-01  3.484029e-02  4.831108e-02  -4.874307e-02  -1.215407e-01  8.387119e-02  5.611171e-02  3.532701e-02  -4.886265e-02  3.040282e-02  -3.253580e-02  -3.763257e-02  -1.437543e-01  -1.774936e-02  -4.506180e-02  6.358355e-02  8.398222e-02  -6.224722e-02  -1.772780e-02  -4.026196e-02  2.210884e-01  -6.563449e-03  5.291617e-02  -1.046301e-01  2.779400e-02  -1.080929e-01  -6.837285e-02  -8.089842e-02  -3.698308e-02  6.988436e-02  -3.335647e-02  -6.347124e-02  -7.325122e-02  1.248138e-01  3.902695e-02  2.394782e-02  3.115769e-02  -7.608873e-02  -5.028871e-02  -7.258138e-02  -2.325027e-02  -5.842040e-02  4.040048e-02  -3.594887e-02  1.439034e-02  9.422956e-02  9.341329e-02  -1.146629e-01  3.757672e-02  -6.813622e-02  -1.905559e-02  -6.215471e-02  1.695349e-01  -1.782262e-02  -8.857802e-03  5.638184e-02  -9.875920e-02  -9.335350e-03  -3.524012e-02  2.886965e-02  1.055592e-01  -1.494732e-03  4.872645e-02  -1.091830e-02  -4.755191e-02  1.038359e-01  1.530386e-02  5.343491e-02  -5.089873e-02  7.090902e-03  4.691871e-02  -1.015122e-02  -1.110499e-02  3.469244e-02  2.348693e-02  6.153652e-02  9.033307e-02  -8.121183e-02  2.475503e-03  -1.945889e-02  8.212468e-02  -3.962211e-02  -3.941294e-03  -5.641231e-02  -8.840870e-02  -1.959529e-02  1.963309e-02  1.401880e-02  -1.532442e-01  1.073567e-01  1.710274e-02  -3.348365e-02  -1.670087e-02  1.029590e-01  9.022914e-03  -2.739586e-03  3.775395e-02  -5.341673e-02  -3.851067e-02  3.013261e-02  -6.825749e-02  5.349139e-02  -4.378869e-02  -5.827865e-02  -2.110332e-02  -4.982180e-02  3.363297e-02  -2.285119e-02  1.249396e-02  1.211189e-01  1.743340e-02  4.569324e-02  1.055946e-01  -2.791284e-02  -7.745615e-02  -4.944562e-02  7.976895e-02  -1.284893e-01  -5.881059e-02  -3.213980e-03  -8.801835e-03  1.229521e-02  -5.753213e-02  3.186165e-02  1.756844e-02  -1.035247e-02  1.665625e-02  1.046467e-01  -7.632365e-02  -2.410685e-02  2.089333e-02  -7.035510e-04  -1.304939e-01  9.900978e-02  5.830406e-02  -1.084667e-01  -2.975766e-02  -2.809970e-03  5.913056e-02  4.650828e-02  8.310331e-02  -8.742828e-02  -2.596202e-02  -1.332740e-01  -1.939529e-01  4.047523e-02  5.927347e-02  -1.044475e-02  4.152688e-02  -6.608494e-02  4.301119e-02  -3.615053e-02  -1.909435e-02  -1.574823e-02  2.982595e-03  -5.947566e-02  1.923648e-02  -1.139388e-01  -4.301657e-02  3.260854e-02  3.505499e-02  2.155479e-02  5.734434e-02  -7.756113e-02  3.827912e-02  4.005394e-02  3.449416e-02  7.021169e-02  7.227060e-03  1.604654e-02  -8.311545e-03  9.709611e-02  -2.959903e-02  -3.040627e-02  1.956778e-03  -1.055020e-02  2.841698e-02  1.028060e-01  6.305733e-02  -1.287044e-01  -4.924882e-03  5.987472e-02  -1.181615e-02  -3.318562e-03  -2.859047e-02  1.085213e-02  -5.889177e-02  -4.293481e-02  3.740991e-02  -8.695608e-02  -8.344940e-02  -1.245743e-02  -9.984905e-02  2.626168e-03  -3.622839e-02  2.168075e-02  4.315600e-02  -9.133751e-02  -1.537720e-02  9.814760e-03  -5.331771e-02  8.590546e-02  2.151145e-02  -1.290555e-02  -8.507969e-03  7.953981e-02  -6.719530e-02  -5.188160e-02  3.516601e-02  -7.066341e-02  -1.770698e-02  -1.144691e-01  3.354863e-02  4.753815e-02  -3.272453e-02  1.182956e-02  -6.585798e-02  4.630057e-02  4.849916e-02  2.285231e-03  -8.825257e-02  -8.083063e-02  6.019529e-02  -1.807366e-02  -2.619439e-02  7.376796e-03  -6.784450e-03  -3.281543e-02  5.477560e-02  5.354040e-02  4.116706e-02  -7.949792e-02  1.265762e-01  8.344774e-02  1.018882e-02  -1.674588e-02  3.201400e-02  4.040718e-02  -5.944475e-02  3.821431e-02  -9.941357e-03  -3.527826e-02  -3.663280e-02  -6.484538e-02  -1.037268e-02  2.391737e-02  -4.757281e-02  -3.758980e-02  -1.478987e-02  -3.319403e-02  -4.664136e-02  -3.295755e-03  -1.791497e-02  -3.412187e-02  -6.787248e-02  2.399481e-02  -5.174402e-02  2.512168e-02  7.563309e-02  -8.607047e-02  -1.986124e-02  -8.043739e-02  -4.307788e-02  -3.176354e-03  -1.065632e-01  7.383006e-02  -2.788633e-03  2.979488e-02  1.117742e-01  -3.961053e-02  -3.014707e-02  8.348940e-03  1.107073e-01  -4.058000e-02  4.185541e-02  -4.301012e-02  -1.167594e-02  -3.690334e-02  -6.555323e-02  3.657072e-02  9.425893e-02  -9.015546e-02  -4.339289e-02  -3.390939e-02  -1.135605e-02  -5.934945e-02  3.348641e-02  -6.877237e-03  2.169799e-01  -5.421457e-02  -5.050245e-02  7.604446e-02  1.301387e-01  -2.565741e-02  -5.531619e-02  6.152283e-02  -9.763056e-02  -2.227972e-02  4.498934e-02  -8.123962e-02  7.556492e-02  3.452424e-02  -2.280208e-03  8.769147e-02  1.115016e-01  -7.042971e-02  -7.988112e-02  5.931841e-02  -1.593297e-01  -1.088714e-01  -5.897820e-02  -3.402077e-03  -2.283146e-01  2.452777e-02  1.182353e-02  4.829600e-02  1.042829e-01  1.021484e-01  5.311319e-02  2.964139e-02  1.886744e-01  2.611686e-02  3.636524e-03  -8.641105e-04  3.781258e-02  4.104685e-02  -5.136183e-02  -7.443880e-03  -5.101739e-02  -4.194991e-02  -2.389168e-02  -5.526387e-02  3.687023e-02  7.360533e-02  5.409236e-02  3.876129e-02  -1.313079e-01  -9.151237e-02  -8.431432e-02  -1.089848e-03  -1.491221e-02  -6.473978e-02  2.050320e-02  -8.182482e-02  3.486316e-02  6.022722e-02  7.164299e-02  -1.129457e-01  7.810383e-02  4.621535e-02  8.050600e-02  -5.742836e-02  1.323818e-02  2.860867e-02  2.534335e-02  4.399575e-02  1.402013e-01  -7.057843e-02  5.122230e-02  -5.109138e-02  -4.382072e-02  -9.065344e-02  -7.214165e-02  -6.539913e-03  -2.682136e-02  -4.192479e-02  -7.442561e-02  6.410477e-02  2.248639e-02  1.579734e-02  -5.386891e-02  5.088078e-02  -1.014706e-01  -1.986694e-03  2.734447e-02  -1.284906e-01  -9.207188e-02  2.555962e-03  4.778340e-02  -6.220235e-02  -5.614475e-02  2.994893e-02  -9.121577e-03  1.017779e-02  1.039353e-01  1.106985e-01  7.491855e-02  -2.948069e-02  1.923056e-01  -1.585546e-01  -2.755181e-02  -4.453726e-02  5.148276e-02  -2.174545e-02  1.906833e-02  7.067131e-02  1.377497e-01  -2.679161e-02  -4.274597e-02  -6.897930e-03  -1.694111e-01  -5.383508e-02  3.044914e-02  -2.977985e-02  4.857400e-02  4.087266e-02  3.707498e-02  -2.571141e-02  7.993617e-02  -1.598996e-02  3.967554e-02  8.701560e-02  -1.356820e-01  4.680053e-02  4.683862e-02  4.458466e-03  -1.594357e-02  6.666707e-02  -8.480600e-03  -8.505346e-02  6.457876e-02  6.359851e-02  7.270932e-02  2.047835e-02  3.244532e-02  -6.151830e-02  -3.187240e-02  9.027095e-03  -1.825656e-01  -6.791244e-03  4.682646e-02  1.508228e-02  9.102006e-02  -5.431906e-02  2.562496e-03  -1.509372e-02  -8.542152e-02  1.135510e-01  -1.184787e-01  -3.974598e-02  5.997637e-02  -1.559128e-02  -3.535830e-02  -3.430202e-02  -3.587885e-01  1.421168e-02  -4.610633e-02  3.613313e-02  5.948375e-02  -3.021169e-02  4.593714e-02  1.371824e-02  7.100619e-02  5.956377e-02  9.196050e-02  -2.656630e-02  2.293236e-02  -7.640748e-02  1.154379e-02  -4.866074e-02  -7.145087e-02  -2.854857e-02  -5.279506e-02  -8.873611e-03  9.740370e-02  -9.446815e-02  -9.117609e-02  3.496202e-02  -1.328730e-01  6.172016e-02  -2.057497e-02  3.614048e-02  -7.295128e-02  -1.135565e-01  -7.969100e-02  -9.699973e-02  -4.173005e-02  -2.537024e-02  -2.113224e-02  7.383015e-02  -1.412851e-01  9.095065e-02  5.124046e-02  -1.093635e-01  -2.503817e-01  -4.962125e-03  1.652796e-02  -1.037808e-01  6.430485e-02  1.956156e-02  -3.607357e-02  1.226739e-02  -1.278709e-01  7.177935e-02  3.740988e-02  4.696796e-02  -9.623247e-02  -9.475891e-02  -8.497039e-02  8.962011e-02  7.397287e-02  -8.553777e-02  -8.704168e-03  4.865443e-02  8.282015e-02  9.536940e-02  5.598609e-02  3.960321e-02  1.813825e-02  -6.127107e-02  -6.833277e-02  1.128574e-01  5.316154e-02  3.678063e-02  -3.895060e-02  3.841750e-02  -6.530493e-03  4.907467e-02  6.438362e-02  1.306368e-02  9.343237e-02  -1.091009e-01  -2.547150e-03  2.963680e-02  9.786148e-02  3.852065e-02  -4.201347e-02  9.678321e-02  1.404903e-01  -1.407479e-01  -3.664448e-02  -3.660138e-02  -3.753426e-02  -3.746574e-02  -5.163871e-02  -5.530442e-02  -2.879889e-02  -7.170758e-02  -6.839956e-02  7.365280e-02  -2.434069e-01  8.962136e-02  5.014871e-02  7.973012e-02  4.263635e-02  -4.574902e-02  -6.602290e-02  -2.723478e-02  -1.658203e-02  1.828260e-02  3.038969e-02  -1.062298e-02  -6.111531e-02  2.268597e-02  3.747128e-02  -1.074278e-01  1.039717e-01  1.698175e-02  -7.212280e-02  1.139592e-01  -1.291067e-02  5.908548e-02  1.435691e-02  -5.755158e-02  1.117341e-01  -5.915150e-02  -5.298544e-03  1.044270e-03  -2.190318e-02  -4.657459e-02  2.092913e-02  5.421698e-02  1.882430e-02  -2.227588e-02  -5.503165e-02  4.226020e-02  -1.717760e-01  1.408790e-01  5.410780e-02  2.264065e-02  1.835287e-01  -7.226306e-02  -5.982796e-02  -8.135963e-03  -2.218153e-01  9.002414e-02  -5.391778e-02  3.792986e-02  -4.472569e-02  4.838362e-02  -1.178641e-02  8.859140e-02  1.166443e-01  -7.273695e-02  -1.012224e-02  2.532250e-02  -6.425257e-02  3.599928e-02  -4.018331e-02  6.731217e-02  8.382582e-02  6.052829e-02  5.631939e-02  1.767517e-02  1.035920e-01  -1.211495e-01  -8.041325e-02  3.857220e-02  -9.510453e-02  1.277014e-01  2.507085e-02  9.681559e-02  1.713205e-01  -3.450575e-02  -1.625555e-02  -9.835773e-03  -2.706767e-02  -9.664103e-02  1.977851e-02  -4.087172e-02  2.435653e-02  4.372513e-02  -3.204264e-02  4.458777e-02  8.644124e-02  -3.337659e-02  -4.208105e-02  -2.419256e-02  -1.700509e-01  2.978427e-03  2.148381e-02  -1.201691e-01  -3.749130e-02  4.572270e-02  -2.619224e-02  6.462520e-02  -1.051401e-02  -7.472823e-02  4.022083e-02  -6.981622e-02  1.584253e-01  -1.019601e-01  -6.283649e-02  2.055996e-02  7.967331e-02  1.848545e-02  -2.764474e-02  4.699916e-02  1.528153e-01  1.644787e-01  4.375907e-02  2.334752e-02  -1.753921e-01  1.177628e-01  6.840350e-02  2.466604e-02  1.386871e-01  -2.779944e-02  -3.366464e-02  -4.271299e-04  1.053288e-01  8.630741e-02  8.558268e-04  -3.637137e-02  -1.456528e-02  -1.195846e-01  -5.660357e-02  3.085084e-02  -1.624763e-01  -2.526833e-02  2.883869e-02  6.273353e-02  1.364920e-01  8.242568e-03  -1.843833e-02  -5.313385e-02  -6.115536e-02  -1.685287e-02  -2.960524e-02  1.151233e-01  -2.463160e-02  -5.774555e-02  1.505327e-02  1.381841e-02  1.483310e-02  9.817336e-02  7.572003e-02  1.040270e-02  -5.566067e-03  1.851308e-03  -5.015771e-03  -8.239970e-02  4.541363e-03  -4.265905e-02  -7.180446e-03  4.696466e-02  -9.194763e-02  -8.326582e-04  4.929757e-02  1.565686e-02  -1.465730e-02  -7.744445e-02  2.746797e-02  -2.628505e-02  9.504148e-02  -6.187008e-02  -8.417163e-02  8.643865e-02  -7.913609e-02  -6.659720e-02  -5.576897e-02  5.901017e-02  -1.629430e-01  -1.243311e-01  -8.742833e-02  -1.347160e-01  7.981111e-02  -7.829319e-02  -7.205935e-02  2.663114e-02  8.627426e-02  5.472394e-02  1.844908e-02  6.289754e-02  -1.227176e-01  6.941110e-02  7.775509e-02  -5.027808e-02  5.379640e-02  7.038781e-02  7.455224e-02  8.697367e-03  4.676941e-02  -2.145295e-02  -4.216762e-03  -3.437831e-02  -7.227299e-02  1.043017e-01  3.493981e-02  -6.570075e-02  8.558823e-02  -2.897680e-02  -1.931541e-02  -6.003202e-02  6.462150e-03  -5.965246e-02  -2.134679e-02  -6.466860e-02  -2.116704e-02  -6.363215e-02  3.150016e-02  -5.460407e-02  1.026904e-01  5.519866e-02  1.396329e-02  1.047032e-01  -4.323220e-02  3.899407e-02  -4.095363e-02  -5.509532e-02  -1.737797e-01  -5.828683e-02  -1.339854e-02  -7.770951e-02  -6.898768e-03  1.923899e-02  4.215302e-02  6.396583e-02  -7.637740e-02  6.098071e-02  3.791675e-02  -5.398726e-02  5.805878e-02  -1.741392e-01  -9.114089e-02  -4.118332e-02  -7.677864e-03  5.600243e-02  -1.955674e-02  -3.324961e-02  -1.083781e-02  9.227609e-02  3.200547e-02  1.363824e-02  2.481378e-02  9.886243e-02  2.537418e-02  1.303972e-01  4.817580e-02  -4.525563e-03  -1.841125e-02  -7.918295e-03  3.248709e-02  1.332596e-01  7.498600e-02  -2.046170e-02  1.621346e-01  -4.166848e-02  2.286922e-02  1.610493e-02  7.672258e-02  7.000666e-02  -2.913775e-02  -3.256626e-02  6.236690e-02  3.164460e-02  -1.718194e-02  -1.284416e-02  5.913312e-02  -2.622553e-02  2.458568e-02  1.821726e-02  6.284958e-02  6.721275e-02  -6.677029e-02  5.925911e-02  1.025858e-02  -2.871560e-02  -3.305839e-02  4.965286e-02  2.696740e-02  3.784059e-02  1.145448e-02  -5.025050e-02  -3.845848e-03  -1.411723e-02  -4.605733e-02  3.386774e-02  1.002166e-01  5.132631e-02  -2.683063e-02  3.981426e-02  3.076315e-02  1.084980e-01  7.798506e-02  3.558075e-03  1.122614e-01  -5.518447e-02  3.186412e-02  4.539541e-02  1.511079e-02  7.867119e-02  5.831758e-02  4.657219e-02  -6.652173e-02  1.228854e-03  7.154018e-02  -2.547656e-03  7.175486e-03  8.689244e-02  5.524038e-02  6.671455e-02  -1.251063e-02  -4.161391e-02  -5.434339e-02  -7.075714e-02  -4.831592e-02  -5.221567e-02  2.273291e-02  -3.703304e-02  -4.435067e-02  1.242618e-01  3.271586e-02  1.065273e-01  -4.760897e-02  8.022880e-03  1.808659e-03  3.136322e-02  -1.452905e-01  -2.533319e-02  7.646434e-02  5.966796e-02  -1.360293e-01  -4.679121e-02  -2.372450e-02  2.171370e-02  -2.089490e-01  8.733559e-02  -1.169413e-02  -6.693956e-02  -1.031267e-01  -2.074611e-02  -3.957186e-02  7.016930e-02  3.726748e-02  1.347426e-02  5.787564e-02  -2.815663e-02  1.333973e-02  -9.954663e-02  1.720422e-02  1.982467e-02  1.877960e-01  1.974178e-02  7.520458e-02  -6.716933e-02  -4.481038e-02  6.207402e-02  -3.026543e-02  5.768713e-02  3.185031e-02  5.211878e-02  -5.196230e-02  4.858432e-02  -3.202663e-02  8.254877e-02  6.149256e-02  6.298462e-02  6.922492e-02  4.386601e-02  -5.310306e-02  5.929767e-02  -1.057777e-01  8.111348e-02  3.154962e-03  5.365419e-02  1.004105e-01  1.010316e-01  3.107600e-02  -7.203723e-02  4.681979e-02  -2.602908e-02  -3.934582e-02  2.568868e-02  2.026469e-01  1.189247e-01  5.475245e-02  -4.761804e-02  7.428608e-02  -4.255175e-02  -6.461810e-02  -9.529267e-03  1.285871e-02  -3.928227e-02  -6.926754e-02  9.406614e-02  5.275207e-02  1.597018e-01  2.596967e-02  7.564301e-02  -1.480434e-02  -4.089695e-04  2.233283e-02  -4.742687e-02  7.916143e-02  -9.103879e-02  -7.902490e-02  -2.764794e-02  -6.151277e-02  1.219271e-01  7.205474e-02  6.244011e-02  1.297949e-01  -9.930380e-02  -5.566592e-02  5.120049e-02  9.264747e-02  1.181135e-01  4.801688e-02  -7.666969e-02  -2.365885e-01  6.729662e-02  4.335469e-02  -5.413907e-03  -1.357477e-01  -2.775321e-02  1.981198e-05  -8.747175e-02  2.391213e-02  6.909061e-02  4.860732e-02  -4.777642e-02  5.838480e-02  -8.070341e-03  2.449514e-02  -1.883288e-02  1.375277e-01  -9.776805e-02  -3.685195e-02  -3.361157e-02  -1.913062e-01  -3.812153e-02  1.684065e-02  -9.499285e-03  4.327694e-02  9.145547e-02  5.335239e-02  -5.542063e-02  9.794046e-02  -4.392716e-02  1.159823e-03  2.450179e-02  -3.670927e-02  -1.392753e-01  -6.165244e-02  6.027871e-02  -4.634266e-02  -1.149268e-01  -1.712793e-02  -8.252458e-02  -1.568892e-01  -4.873700e-03  -5.685887e-02  2.105862e-02  7.827323e-02  -1.791966e-02  1.599582e-03  3.461530e-02  -1.955217e-02  -3.775417e-03  -4.045920e-02  -2.056584e-02  1.375665e-02  8.335577e-02  -1.749015e-02  3.642504e-02  -5.982469e-02  6.882374e-03  7.611775e-02  -1.566356e-01  -9.257795e-02  -1.109195e-01  -2.477571e-02  -1.001253e-01  4.220542e-02  1.174957e-02  2.712932e-02  -1.052893e-01  8.558524e-02  1.082819e-01  7.306565e-02  -9.153917e-02  7.179829e-02  -7.263523e-02  -6.649123e-02  6.233079e-02  -8.514578e-02  -9.644082e-02  -2.509973e-02  8.713337e-02  -4.555761e-02  -5.184614e-03  2.955751e-02  -3.044943e-03  -3.479920e-02  -7.840103e-03  2.103121e-02  -4.157590e-02  -1.548905e-01  -4.842393e-03  5.176766e-02  -3.839304e-02  7.531585e-02  5.085327e-02  4.754931e-02  -7.313049e-02  3.918871e-02  -6.827874e-02  -1.793156e-02  -5.477166e-02  2.570250e-02  -5.127434e-02  -2.648037e-03  1.176962e-02  -2.635509e-02  6.744786e-02  2.944420e-02  -1.827371e-02  1.480609e-01  -1.143980e-01  -3.655083e-02  -2.993980e-02  9.307378e-02  -6.652071e-02  -5.765811e-02  3.762919e-03  -1.335059e-02  2.554483e-02  -1.861449e-02  9.919607e-03  3.622547e-02  -3.306624e-02  -2.166680e-02  5.753833e-02  -1.334893e-01  -3.690454e-02  3.606140e-03  5.104588e-02  8.165427e-02  2.876226e-02  3.329615e-02  -9.762979e-02  1.076188e-01  1.087892e-01  8.485077e-02  -2.587206e-02  7.116243e-02  -5.676747e-02  -8.142107e-03  -8.808338e-02  -2.541671e-01  -1.059317e-02  -2.866131e-02  6.929451e-03  -9.083258e-02  1.107829e-02  2.432319e-02  1.740195e-02  -4.291325e-02  7.627087e-02  -8.980611e-02  -4.608975e-02  -3.233130e-02  -1.648751e-02  3.220135e-02  -2.884744e-02  8.747590e-02  -6.687087e-02  -6.095172e-02  -1.391451e-02  6.509219e-04  -8.414816e-02  -8.207247e-02  4.361212e-02  8.077919e-02  -4.733495e-02  5.035202e-02  1.588568e-02  -5.952498e-03  1.162744e-01  7.471622e-02  8.550933e-02  1.861359e-02  3.383375e-02  7.420459e-03  6.207649e-02  -1.169503e-01  -4.072873e-02  4.736032e-02  -5.487837e-02  8.725501e-02  -8.408097e-02  -4.006879e-02  1.456594e-02  8.702845e-02  5.119672e-02  5.371314e-02  9.369386e-02  -4.386787e-03  -6.492798e-02  1.357331e-02  -4.953810e-02  -6.748124e-02  1.135725e-01  8.928280e-03  8.970937e-02  7.604784e-02  6.636164e-02  3.440036e-03  -1.150206e-02  6.883606e-02  1.302812e-02  -3.398909e-03  7.193446e-02  5.282471e-02  7.996980e-02  -1.013527e-02  2.801658e-02  -6.199547e-02  -1.110748e-01  -2.125841e-02  -9.690532e-02  6.359596e-02  1.460672e-02  2.062860e-02  1.169306e-02  -7.213949e-02  -4.524921e-02  -2.093042e-02  -6.103531e-03  -1.173366e-01  1.475212e-03  -5.073969e-02  5.804318e-02  8.343398e-02  4.906078e-02  -2.623115e-02  -7.431807e-02  -1.486870e-02  3.834230e-02  3.601401e-02  1.512544e-02  -7.235548e-02  -9.199740e-02  -8.574928e-02  -4.574442e-02  2.039620e-03  6.970644e-02  1.790547e-02  5.003839e-02  -5.435908e-02  -1.265538e-01  -7.112337e-02  5.570666e-02  -1.607102e-01  -1.238730e-01  -1.440295e-02  -3.764024e-02  8.780465e-02  7.086965e-02  4.183906e-02  -5.924574e-02  1.587828e-01  4.455060e-02  4.930075e-02  7.187589e-02  2.052818e-02  -6.377651e-03  -5.673765e-02  4.988431e-02  -7.837981e-02  1.009773e-01  4.098371e-02  -3.318216e-02  -1.010063e-01  -1.545864e-01  -6.048772e-02  -1.605393e-01  -4.560691e-02  -2.875001e-02  2.602297e-02  -2.800909e-02  -1.025422e-01  -1.655983e-01  -4.947651e-02  3.417863e-02  8.353457e-02  1.125369e-01  9.942461e-03  2.518597e-02  -7.824250e-02  -5.025161e-02  -5.464276e-02  -4.623378e-02  7.264938e-02  -9.042741e-02  9.159782e-03  -1.441956e-02  4.133967e-02  -7.095011e-02  3.122711e-02  -3.758367e-02  8.297271e-02  -7.468484e-02  -2.138812e-02  -1.006035e-03  -1.570752e-01  -1.588573e-02  4.168310e-02  5.297251e-02  1.366615e-01  6.476856e-02  -3.919650e-02  5.985617e-02  -7.433400e-02  -1.177191e-01  -6.818096e-02  -5.123119e-02  -1.684141e-01  1.496290e-01  3.010663e-02  8.737490e-02  -9.766375e-02  -6.502063e-02  -5.744166e-02  5.575706e-02  1.054515e-01  4.375719e-02  6.899461e-02  -3.716966e-03  -5.944939e-03  -1.126452e-02  -4.743038e-02  -5.684360e-03  1.089622e-01  -8.459914e-02  2.037776e-02  -1.624222e-02  -6.862886e-02  -8.654187e-03  -3.210850e-02  6.461467e-03  2.844747e-02  -1.082590e-01  -6.598902e-02  2.703407e-02  -2.251511e-02  1.301342e-01  4.077772e-02  -1.894431e-02  5.249948e-02  -8.841610e-02  9.465285e-03  -1.073909e-02  1.041544e-01  7.799420e-02  2.523141e-02  -5.336291e-02  3.254672e-03  6.987707e-02  5.333656e-02  1.840393e-02  -6.407149e-02  3.008714e-02  -1.811077e-02  2.062982e-02  9.757830e-02  1.988709e-02  -5.399912e-02  -7.026953e-02  -8.541283e-03  -8.354625e-03  -7.964897e-02  -7.078743e-02  -1.895007e-01  -4.053850e-02  3.109136e-02  6.400069e-04  1.669076e-01  -3.335543e-02  -2.082146e-02  -6.217109e-03  -5.730955e-02  -1.877394e-02  2.365680e-03  1.050381e-01  1.747935e-01  -8.599932e-02  -1.868100e-02  2.141486e-03  7.374661e-02  -1.289267e-01  -9.118596e-02  3.550947e-03  -1.564710e-01  -3.718958e-02  -3.204606e-02  -5.043395e-02  -1.212317e-01  8.410700e-02  6.738323e-02  -3.456097e-02  -4.714977e-02  -4.528665e-02  -2.186134e-02  -9.794080e-02  -1.394534e-01  -8.375114e-02  1.736745e-02  -4.502816e-02  9.291535e-02  -3.538249e-02  -2.792799e-02  9.217052e-02  1.185814e-01  2.024605e-02  6.866334e-02  4.333186e-02  9.100710e-02  -1.077001e-02  -4.200656e-02  6.060752e-02  -1.413116e-01  1.093295e-01  5.067473e-02  2.740217e-02  -3.586681e-02  -2.636755e-02  -3.695939e-02  -2.782457e-02  -1.734906e-01  7.838894e-02  -4.156342e-02  6.196349e-02  -4.499055e-02  4.997769e-02  6.205569e-02  1.178170e-02  3.216502e-02  4.621369e-02  -5.149310e-02  1.241631e-02  5.588484e-03  9.334990e-02  6.904044e-02  2.171295e-02  1.035438e-01  -3.106759e-02  -3.047880e-02  5.076152e-03  3.807356e-02  -5.107674e-02  6.481439e-02  -7.756022e-02  2.836749e-02  5.202613e-02  2.609752e-02  7.510039e-03  1.954264e-01  7.050952e-02  -4.066599e-02  1.948331e-02  -1.208073e-01  -4.601968e-02  -4.371187e-03  1.059451e-02  1.842791e-01  1.100582e-01  4.486698e-02  -8.605913e-02  -2.522105e-02  2.904954e-02  4.454747e-02  -1.785798e-02  1.684761e-01  1.729975e-02  -5.105088e-02  -1.037423e-02  -8.038632e-02  -6.099885e-02  -5.396619e-02  -5.391407e-02  7.070300e-03  1.306875e-01  6.183387e-02  9.755085e-03  -1.887036e-01  -6.098706e-02  2.171420e-02  -7.546021e-02  -7.313374e-02  1.270528e-01  7.596101e-02  1.674786e-02  -3.563384e-02  -5.393228e-02  -3.542283e-02  -8.040436e-02  1.451001e-02  9.430460e-02  4.339848e-02  8.182476e-04  3.455677e-02  -8.177589e-02  -7.487059e-02  2.134479e-02  2.006423e-02  -4.808488e-02  3.635148e-02  9.061651e-02  -5.124438e-03  -9.832194e-02  -1.799046e-02  -1.215662e-01  -2.097892e-01  -5.271422e-02  3.409376e-02  5.827189e-02  8.254565e-02  -9.682368e-02  -5.998258e-02  -3.275111e-02  -2.412966e-01  -8.833215e-02  -5.601998e-02  3.534247e-02  8.024460e-02  -1.010909e-01  -6.285954e-02  9.502669e-02  -1.373666e-03  6.400862e-02  -4.951800e-02  6.974865e-02  -1.284372e-01  1.166070e-01  4.053684e-02  1.040565e-01  -9.244330e-03  -7.252884e-02  -1.565212e-02  -3.929010e-02  2.196239e-02  -4.012662e-03  -3.642664e-02  -8.551824e-02  -3.548396e-04  -7.352585e-02  4.414726e-02  -7.197713e-02  -6.700701e-03  8.125558e-02  3.032715e-02  1.799886e-02  9.565783e-02  7.110190e-02  6.444662e-02  9.383497e-02  1.172819e-02  3.188926e-02  5.369739e-02  -2.840418e-02  -5.386575e-02  -1.355354e-01  -3.138517e-02  3.534335e-02  2.423232e-01  -2.483694e-02  3.678495e-02  2.814455e-02  -2.339219e-03  -1.501211e-01  -5.710961e-02  -6.063724e-02  2.152324e-01  -9.135330e-03  -9.836992e-03  -7.907412e-02  -2.985245e-02  -4.154648e-02  1.717981e-02  5.944707e-02  1.574136e-02  7.763355e-02  -3.457738e-03  -1.908547e-02  -8.836403e-02  -2.787913e-02  3.974273e-02  -9.145422e-02  -1.075053e-01  8.169845e-02  2.025477e-02  2.380280e-02  9.843053e-02  -9.459409e-02  -7.828091e-02  5.103089e-02  -1.511469e-01  6.513020e-03  -1.973084e-02  7.450609e-03  1.442338e-02  8.761869e-03  3.582891e-02  -1.087284e-02  -4.900624e-02  -1.029785e-01  -7.180073e-02  -8.972474e-03  -1.048414e-01  -9.298018e-02  -1.184760e-02  -4.395330e-03  9.118285e-02  7.916308e-02  4.289173e-02  -7.556195e-02  1.761570e-01  2.919760e-02  3.433366e-02  3.867139e-02  -5.980401e-03  -2.610165e-02  -3.177300e-02  1.026097e-02  -4.935939e-02  2.983112e-03  -5.195584e-02  4.030684e-02  1.311048e-03  7.497405e-02  -1.263029e-02  6.056408e-02  -1.017022e-02  5.786406e-02  2.174772e-02  -6.911461e-02  4.709951e-02  -4.974026e-02  4.495762e-02  -1.067211e-01  -2.411250e-02  -1.072374e-01  1.013159e-03  1.840764e-04  7.069802e-02  -7.691359e-02  2.421113e-02  -9.632850e-02  -3.230380e-02  1.047323e-01  4.527775e-02  -1.196429e-01  1.525440e-03  6.025229e-02  -6.021962e-02  6.949717e-02  -5.294492e-02  7.805862e-03  4.764020e-02  5.454694e-02  3.389977e-02  -2.265175e-02  -4.701162e-03  6.350853e-02  1.111994e-02  3.040298e-02  -4.470047e-02  4.757856e-02  2.413620e-02  -2.571577e-02  -3.188998e-02  1.823648e-02  1.605985e-01  -1.241834e-01  -1.016761e-01  7.393984e-02  3.823744e-02  -1.291042e-01  -2.801930e-02  5.359330e-02  2.251083e-01  -3.844413e-03  -4.287534e-02  -6.820445e-03  -5.220320e-02  -7.220670e-02  -3.397419e-02  -4.152071e-02  3.140501e-02  1.003584e-01  7.381336e-02  -8.086512e-02  2.238842e-02  8.500531e-02  3.997256e-02  6.168524e-02  1.119098e-01  1.065716e-01  7.535907e-02  1.542940e-02  2.026723e-01  -2.240953e-02  4.364855e-02  -4.644080e-02  -4.355938e-02  1.197101e-01  7.495027e-03  7.499382e-03  -6.830317e-02  9.551276e-02  -5.549179e-03  6.429781e-02  4.352275e-02  5.625448e-03  -5.308632e-02  -5.361461e-02  -9.247436e-02  -8.478692e-02  3.394012e-04  -1.278536e-03  6.578987e-02  -1.292129e-02  1.820768e-02  1.210365e-01  8.186214e-02  1.547628e-03  -6.208258e-02  1.415521e-01  4.485082e-02  1.005339e-01  5.771548e-02  5.393867e-02  -2.519789e-02  4.446587e-03  -3.940007e-02  -2.657914e-02  -1.391031e-01  2.085619e-02  -3.182217e-02  3.383977e-02  1.574107e-02  8.513466e-02  3.157019e-02  -8.255398e-02  -6.251673e-02  2.811401e-02  -3.907992e-02  1.414771e-01  1.315344e-01  7.768742e-03  2.000340e-03  -4.018873e-02  3.483652e-02  6.569642e-02  -3.275448e-02  -8.674229e-03  2.455923e-03  -5.037327e-02  3.344821e-02  4.784251e-02  1.310819e-01  -1.491906e-01  -6.839377e-02  -2.916226e-03  1.597644e-02  1.212247e-01  8.175702e-02  -1.389320e-01  -8.690522e-02  -1.084370e-01  -4.238809e-02  1.232351e-03  -1.137384e-02  3.680356e-02  6.651168e-02  3.768635e-02  4.092365e-03  7.848366e-02  5.766216e-03  7.869358e-02  1.298465e-01  -4.616854e-02  -6.289621e-02  -1.018978e-01  8.569471e-02  -1.006188e-01  -1.404995e-02  -3.253690e-02  -6.496512e-02  -8.374617e-02  -4.902700e-02  2.956135e-02  -4.314750e-02  -3.629738e-02  4.393762e-02  2.966976e-02  -1.907250e-02  4.872741e-02  -1.052322e-01  -8.154160e-02  -1.394755e-01  8.366314e-02  -2.403817e-03  -1.598877e-02  -4.575679e-02  -7.625905e-02  1.543760e-02  5.111870e-02  -2.679536e-02  2.089769e-02  -3.959165e-02  1.748928e-02  3.435411e-02  -5.684123e-03  6.173167e-02  -2.427359e-02  -5.436611e-02  9.550509e-02  7.546723e-02  1.013236e-01  1.432000e-01  -6.839625e-02  -4.117832e-02  -6.627823e-02  6.606661e-02  9.695633e-03  -5.700071e-02  3.098031e-02  -7.249374e-02  1.559104e-02  2.311623e-02  2.124134e-02  1.116943e-02  -2.098552e-03  3.979556e-02  -6.393871e-02  -8.184195e-02  -9.946598e-02  -2.089252e-02  -7.212949e-02  -5.978931e-02  4.213236e-02  8.734270e-02  7.376989e-02  2.516449e-02  5.976365e-02  -7.916104e-03  -4.409936e-02  -4.802742e-02  8.721077e-02  3.966845e-02  2.472024e-02  9.624305e-02  -1.121083e-01  -1.426921e-02  3.117936e-02  1.379928e-01  -3.186779e-02  -8.274253e-02  8.290985e-02  -7.103591e-02  8.577870e-02  7.977629e-02  -3.326190e-02  1.140250e-01  2.773635e-02  5.704498e-02  1.089800e-01  -1.184857e-01  7.238770e-02  6.193622e-02  8.094303e-03  -8.828289e-03  -2.726384e-03  1.251720e-02  -3.014340e-02  -1.352323e-01  5.595518e-02  1.612588e-02  5.319015e-02  -8.494768e-02  7.195695e-02  2.889853e-02  2.054551e-04  6.241774e-03  8.748888e-02  8.980490e-03  -3.508646e-03  -4.245108e-01  -3.349077e-02  6.533940e-02  -7.654164e-02  7.040973e-02  3.612340e-02  4.964373e-02  -1.181989e-02  1.431910e-01  6.207454e-03  2.830295e-02  -5.289332e-03  -6.522205e-02  -6.586932e-03  2.100161e-02  -1.573726e-01  -2.830202e-02  -3.934297e-02  5.445838e-02  -6.152176e-02  7.153290e-02  6.004385e-02  -1.548811e-02  -4.129975e-03  -1.534097e-01  -9.088010e-02  1.530962e-03  7.386336e-02  2.521554e-02  3.135232e-02  -3.147044e-02  -1.141204e-02  -6.901574e-02  9.161460e-02  -6.409352e-03  4.883410e-02  4.348821e-02  -3.240388e-02  -3.589770e-02  5.442766e-02  1.023096e-01  -1.121897e-01  1.487771e-03  -7.779736e-02  5.436420e-03  -6.751063e-02  4.071715e-02  6.249547e-02  9.438922e-02  -5.386755e-02  9.678523e-03  -8.261926e-02  5.099362e-02  -1.529892e-02  -7.351556e-02  -4.541712e-02  -6.231614e-02  1.048794e-01  2.448142e-02  7.279006e-02  1.568578e-01  9.063631e-02  6.691519e-02  -4.888989e-02  -7.547163e-02  -9.579634e-03  -2.125274e-02  6.916049e-02  1.065504e-01  1.187171e-01  4.357825e-02  3.386243e-02  -4.913612e-02  -1.232636e-01  -2.229163e-02  6.790558e-02  1.907595e-01  -9.887709e-02  2.852549e-03  -3.208413e-02  -1.581772e-02  6.875297e-02  5.598248e-02  -8.015393e-02  5.090242e-02  -3.527343e-02  -6.527670e-02  -3.457180e-02  1.033779e-02  8.499595e-03  2.222345e-02  3.722505e-02  -9.593234e-02  2.097983e-02  -6.497232e-02  7.301744e-02  -8.900075e-02  2.193670e-03  -2.396327e-02  -1.538200e-02  -3.091307e-02  4.948417e-02  2.349442e-02  -3.893317e-02  8.357216e-02  -4.667429e-02  -5.668680e-02  7.671904e-02  -1.571181e-01  -3.030102e-02  -6.412838e-02  4.507582e-02  6.053366e-02  -8.936423e-02  -3.993646e-02  -9.155495e-02  -4.501560e-02  -5.953895e-02  -1.661977e-02  5.584495e-03  -4.988874e-02  4.736628e-02  7.021714e-04  5.166986e-02  -3.277817e-01  6.632348e-02  5.813776e-02  -2.465804e-03  7.630514e-02  5.804496e-02  -2.924379e-02  6.854086e-02  -4.828723e-02  1.428746e-02  3.768677e-02  3.721112e-02  4.767464e-02  -8.050101e-02  5.177620e-03  3.479882e-02  1.117872e-01  -6.336483e-02  -2.387371e-02  -7.853765e-03  -1.198728e-01  -7.168502e-02  3.210624e-02  1.862780e-03  1.910413e-02  -7.222717e-02  3.181519e-02  -5.654314e-02  -7.189470e-02  -5.289355e-02  3.781268e-02  -3.526134e-02  7.851502e-02  -5.781376e-02  6.688283e-02  -6.381465e-02  9.191962e-02  -1.115894e-01  -8.500582e-03  -1.039722e-02  1.037915e-01  -2.098021e-02  2.720761e-02  2.417814e-02  -7.765107e-03  6.823600e-02  -9.521718e-03  1.975956e-02  -4.273225e-02  -1.384373e-01  -6.653165e-02  -9.378423e-03  -7.906172e-03  1.857477e-02  -4.568048e-02  -8.425229e-02  -3.844613e-02  -9.567980e-02  -7.376585e-04  -1.731614e-02  -5.963517e-02  -5.281462e-02  5.893266e-02  -8.604026e-02  9.270161e-02  2.498407e-02  5.541873e-02  9.637770e-03  1.009414e-01  -4.878349e-02  -5.851608e-02  -1.029044e-02  1.110731e-02  1.605190e-02  -4.447913e-03  3.624779e-03  6.877754e-02  -3.314160e-02  1.079284e-02  -1.855726e-02  7.352950e-02  8.353194e-02  1.800529e-02  -5.027878e-02  1.164029e-01  -7.088214e-02  -5.274533e-03  -3.363320e-03  -9.536123e-02  -1.425117e-02  -3.329454e-02  2.887743e-03  -2.249674e-01  -7.039829e-02  -4.059990e-02  -3.901226e-02  3.826780e-02  -5.747963e-02  -5.875861e-02  1.451380e-02  1.485323e-01  8.013160e-02  4.657903e-02  1.067844e-01  1.680310e-01  3.992580e-02  -5.012520e-02  -7.913665e-02  -5.356312e-02  1.018467e-01  5.964761e-02  9.955810e-03  -6.010007e-02  -8.454024e-02  -3.377001e-02  -7.796345e-02  7.013053e-02  -3.000260e-02  -5.435743e-02  6.239919e-03  2.491149e-02  -2.654649e-02  2.256903e-02  -2.048880e-02  -9.031772e-02  -1.226440e-01  -5.067560e-02  -2.311837e-02  -2.104090e-01  1.268292e-02  -2.852167e-03  -3.044444e-03  1.219460e-01  -4.487677e-02  1.520374e-02  1.977029e-02  -9.015802e-02  -5.228768e-02  -5.464144e-02  -4.146366e-02  -1.663776e-01  1.981978e-02  4.207072e-02  -1.866041e-02  -5.769442e-02  5.552844e-02  8.133710e-02  -6.580987e-02  8.006030e-02  -4.087951e-02  -1.977327e-02  -9.318180e-02  -2.434452e-02  -4.808564e-02  -2.897345e-02  6.586009e-02  -9.975439e-02  -1.027351e-01  -2.372812e-02  -5.331867e-02  -2.313794e-01  4.298448e-03  2.200946e-02  -8.786552e-02  -1.047101e-01  7.919358e-02  -2.495921e-02  -5.369184e-02  -4.933206e-03  2.186267e-02  -4.711805e-02  5.690173e-02  5.341437e-02  1.390308e-01  5.750415e-02  -5.350206e-02  -9.473087e-02  5.438605e-02  5.307921e-02  -4.561200e-02  -1.001710e-01  8.107439e-02  -1.207909e-02  1.132632e-02  2.860171e-02  6.439300e-02  3.824482e-02  -2.680454e-02  1.382445e-01  3.525041e-02  5.969150e-02  7.259395e-02  -1.298578e-03  5.205363e-02  -2.663164e-02  2.682413e-02  9.106586e-02  6.446353e-02  4.161292e-02  7.717144e-02  -9.283199e-04  3.621468e-02  2.574528e-02  -1.066868e-01  -1.225649e-01  -7.782204e-02  -4.615933e-02  -2.005876e-02  8.077861e-02  5.434677e-02  4.759540e-02  -1.115625e-01  1.743106e-01  4.104008e-02  -3.044116e-02  -2.534878e-02  2.215922e-02  -6.048322e-02  -4.366895e-02  -1.353001e-03  8.945335e-02  7.865219e-02  5.379106e-03  6.000281e-03  4.508120e-02  -7.477161e-02  2.551740e-02  -7.700816e-02  -7.927116e-03  -1.086468e-01  8.538884e-04  -4.735285e-02  4.284323e-02  1.036348e-01  1.402633e-02  3.833691e-03  5.970917e-02  4.019288e-02  6.203179e-02  -5.520430e-02  -1.318388e-01  -4.777931e-02  4.365235e-02  -4.374608e-02  7.721453e-03  -6.235741e-02  -3.910244e-02  1.585944e-02  -5.038582e-02  6.033555e-02  2.284960e-02  4.419381e-02  1.856555e-01  1.985467e-02  -1.270391e-02  2.666140e-02  -3.111317e-02  -4.100668e-02  1.341427e-02  9.594433e-03  1.299273e-01  5.286529e-02  2.760856e-02  -9.377443e-03  -1.437087e-01  9.142278e-02  5.301247e-02  -7.565016e-03  1.555707e-01  -3.512611e-02  -3.655453e-02  -2.239754e-02  5.753518e-02  -1.476770e-02  -4.951831e-02  -9.197352e-02  -4.704211e-02  -1.508551e-02  -6.163217e-02  7.259846e-02  -9.870680e-02  -4.505227e-02  -7.286120e-02  -4.814449e-02  7.980503e-03  -4.568930e-02  4.627390e-02  -6.236686e-02  -7.544888e-03  5.462114e-02  -1.956557e-02  -3.014782e-02  2.668897e-02  -2.622844e-02  -2.431526e-02  -3.416159e-02  -7.224216e-02  -4.128325e-02  5.678599e-02  -1.772348e-02  -2.740831e-02  6.771207e-02  4.890120e-02  8.592505e-02  6.841470e-02  8.274081e-03  -2.636235e-02  -3.898513e-02  1.515404e-02  -1.886966e-02  -2.468414e-02  3.404463e-02  1.609871e-01  -2.064607e-02  -5.381808e-02  8.654553e-03  -6.732257e-02  7.668216e-02  5.451760e-02  7.048491e-02  5.197465e-02  -8.387742e-02  6.784108e-02  1.124603e-01  -2.040469e-01  -1.124402e-01  -3.737748e-02  1.745932e-02  -7.564764e-02  9.653886e-02  -1.758011e-02  4.602987e-02  -3.399073e-02  -4.507315e-02  5.754915e-02  -1.991562e-02  -1.335821e-02  9.160103e-02  3.751224e-02  -1.142331e-01  -1.173202e-01  5.256051e-02  -1.613838e-02  -6.580143e-03  -9.428964e-02  5.277245e-02  5.551614e-02  3.833802e-02  -4.600476e-02  -6.262282e-02  2.288998e-02  -6.897101e-02  -2.360079e-01  1.083552e-01  2.133417e-02  2.682449e-02  1.365847e-01  1.781069e-02  -5.360232e-02  4.791154e-02  -9.641924e-02  -7.663298e-02  1.277272e-03  1.163843e-02  -9.133594e-02  -1.203211e-01  -4.511297e-02  5.245742e-02  7.907792e-02  5.214350e-02  -1.999328e-03  -3.570905e-03  5.456885e-02  -3.623201e-02  5.992442e-03  5.305328e-02  -4.610739e-02  -6.109348e-02  4.203972e-02  -8.181798e-03  3.979781e-02  6.612584e-02  8.105177e-02  -7.514606e-02  5.319136e-02  1.955508e-03  -2.544509e-02  3.959863e-02  1.048380e-01  8.291480e-02  2.283914e-03  3.510880e-02  4.557876e-02  1.515582e-01  3.549621e-02  2.723045e-03  -5.856966e-02  -9.541684e-02  -3.487515e-03  -1.451419e-03  -3.796328e-02  6.660093e-02  -4.140214e-02  4.000516e-03  -2.451271e-03  5.254555e-02  -1.785272e-02  2.400982e-02  -1.151464e-01  4.344643e-02  3.309251e-02  1.365437e-02  -1.223235e-01  -5.470754e-02  -3.538256e-02  1.209860e-02  2.862253e-03  1.056378e-01  1.298388e-02  6.062375e-02  -9.657454e-02  1.002119e-01  -3.561677e-03  3.628464e-02  -2.012973e-02  2.919827e-02  5.861391e-02  1.321346e-02  1.255416e-02  -3.774823e-03  -1.925228e-02  5.262304e-02  -3.526377e-02  -3.960654e-02  4.642093e-02  -6.551867e-02  8.144333e-02  -3.518452e-02  1.531777e-03  -8.056087e-02  -2.621697e-01  -9.075405e-02  -1.926634e-02  -1.923520e-02  -5.700906e-02  6.204837e-02  3.835446e-02  -9.907236e-02  -5.336862e-02  8.678380e-02  8.342109e-02  8.006555e-02  1.945873e-01  -8.054486e-02  -2.475510e-02  -9.870948e-02  -3.591194e-02  -7.349182e-02  -5.665398e-03  -1.025566e-01  1.140957e-02  2.307351e-02  -3.045677e-02  4.069747e-02  9.419212e-02  -1.164128e-02  -9.758528e-03  -6.933457e-02  -3.133112e-02  9.247137e-03  -5.494945e-02  7.903641e-02  -2.692348e-01  4.245562e-02  4.241809e-03  -7.882366e-02  -2.794218e-03  -1.288343e-02  -7.256495e-02  5.034758e-02  -2.019668e-02  4.775826e-02  -5.387255e-02  -3.304889e-02  -3.283060e-02  2.250617e-02  6.885329e-02  -1.188888e-02  1.222216e-01  -4.066946e-02  -7.513765e-02  3.297876e-02  -1.190425e-01  -3.913507e-02  4.946247e-03  -1.067015e-01  1.698341e-02  6.428024e-02  3.618572e-02  -9.280216e-02  -4.443214e-02  8.176678e-03  -4.558516e-02  3.530364e-02  -2.800968e-02  2.914911e-02  4.256361e-02  -2.006294e-02  -9.804790e-02  -4.585041e-02  -3.495243e-02  -2.551582e-02  -1.214193e-01  3.188160e-02  -1.192109e-02  -2.731748e-02  -9.837598e-02  -5.996965e-04  -3.218257e-02  -4.313660e-03  9.847692e-03  1.120712e-02  3.686134e-02  -5.383127e-02  9.985460e-02  6.896289e-02  -1.224326e-02  2.899040e-02  -3.072260e-02  5.204408e-02  -4.454951e-02  2.868269e-02  -2.091353e-02  1.119991e-02  5.590282e-02  -2.386307e-02  3.270684e-01  1.427915e-01  2.616152e-02  4.446035e-02  -1.081295e-01  -2.503493e-02  -2.853040e-02  -6.859574e-02  -1.458698e-01  9.483068e-02  4.803115e-02  4.748276e-02  -4.437046e-02  -7.645472e-03  -2.018205e-02  2.330203e-02  -8.266894e-02  -1.102615e-01  -7.504548e-02  7.662906e-02  -9.426896e-02  5.695257e-02  4.497080e-02  -1.908090e-02  6.038473e-02  4.939672e-02  -2.599914e-02  7.729018e-02  -4.434560e-02  -9.263662e-02  -4.498047e-02  -3.043265e-02  5.388761e-02  -9.095580e-02  -4.048003e-02  -2.500446e-02  1.397065e-02  6.604692e-02  -7.316078e-03  9.149162e-02  4.298426e-02  -8.674805e-02  -6.084374e-02  1.516000e-01  -1.493588e-02  9.623663e-02  6.251681e-02  -2.572267e-02  -7.022415e-02  -3.519464e-02  1.784190e-02  6.037819e-02  7.991863e-02  6.310021e-02  -3.516448e-03  -1.190917e-02  3.729426e-02  7.471082e-02  1.372277e-02  -7.047578e-02  -1.839381e-01  9.639633e-02  6.899885e-02  -5.268063e-02  7.652048e-02  5.171735e-02  6.219609e-02  -1.251062e-01  -2.961315e-02  4.976217e-02  -6.615755e-02  3.746282e-02  6.214716e-03  -5.079306e-03  8.844373e-03  -8.656674e-02  1.084444e-02  4.011105e-02  -4.400173e-02  -8.152688e-02  -9.778900e-02  2.993074e-02  -2.737223e-03  6.703120e-02  -1.373549e-01  2.219897e-02  5.126892e-02  7.102298e-02  4.251517e-02  1.003416e-01  7.453971e-02  -4.882486e-03  -7.297769e-03  -1.231358e-02  3.941236e-02  2.373729e-02  1.368322e-02  -4.532787e-03  4.756592e-02  1.750647e-02  1.022309e-01  -8.064009e-02  -2.402274e-03  -1.037388e-01  1.356519e-01  9.505722e-03  -1.830836e-02  -6.206790e-02  -1.900316e-01  -4.808654e-02  -4.710832e-02  -1.621574e-02  1.110524e-01  8.806975e-02  5.066429e-02  4.272110e-02  4.124767e-02  9.561685e-02  8.190278e-02  1.124893e-04  1.200824e-01  -3.553550e-02  3.451834e-02  4.709394e-02  5.844799e-02  8.139023e-02  5.966801e-03  4.527129e-02  -6.736897e-02  5.581941e-02  -2.312736e-02  -2.240367e-02  4.573192e-02  -4.310676e-02  -3.350082e-02  6.232417e-02  1.148483e-01  1.249262e-01  1.841004e-02  8.732130e-02  -1.080635e-01  3.272401e-02  -6.104764e-02  3.021432e-02  -2.250587e-02  -9.728996e-02  -7.505529e-02  -2.085270e-02  2.114748e-02  -1.380187e-01  -6.064182e-02  -3.096491e-03  -4.031212e-03  4.533979e-02  7.104982e-02  -6.765350e-02  -7.039953e-02  -3.482690e-02  -6.779972e-02  7.825347e-02  5.459905e-02  -1.081878e-02  5.360352e-02  -1.194720e-02  1.082448e-01  5.479126e-02  6.647646e-02  -1.391961e-02  7.692217e-02  -9.784559e-02  -1.626622e-02  4.778339e-02  1.946891e-01  4.926876e-02  4.002037e-02  -4.163622e-02  4.633952e-02  1.714982e-01  5.529021e-02  6.144246e-03  -1.885859e-01  -8.084321e-02  -6.499495e-02  -3.178627e-02  5.207474e-02  -6.030383e-02  -5.700206e-02  -3.106777e-02  4.369824e-02  -6.167924e-02  -4.938417e-02  3.412993e-03  1.017326e-01  1.391808e-01  1.994836e-02  8.698186e-02  -1.954307e-02  4.373570e-02  -5.300311e-02  -6.633851e-02  -1.860713e-02  6.890193e-02  7.464167e-02  -4.899112e-02  5.769319e-03  -6.759673e-02  -6.251403e-02  6.962035e-02  -3.109629e-01  9.692532e-02  3.100096e-02  8.054521e-02  -5.873033e-02  -1.071895e-01  1.041428e-01  1.299269e-01  -1.945826e-02  1.124267e-01  -7.734075e-03  1.869262e-02  -1.356080e-01  1.444930e-01  3.613419e-02  7.314462e-02  -9.422265e-02  -1.310695e-02  1.551835e-02  6.285910e-02  -1.967551e-02  -1.048962e-01  -1.663369e-02  -2.904329e-03  8.320437e-03  7.321019e-02  -4.571687e-02  7.580762e-02  -6.990312e-02  -3.193573e-02  -7.494074e-02  2.602019e-02  1.243635e-02  8.830506e-02  9.649577e-02  -6.424366e-02  1.013162e-01  -7.215286e-02  -1.243097e-02  -2.231323e-03  -1.500167e-02  1.074467e-01  5.381364e-02  -7.800374e-02  -7.958176e-02  4.086046e-03  -5.527615e-03  3.141535e-02  1.763079e-02  -2.359557e-02  -7.625111e-02  -5.704442e-02  -1.004838e-01  9.733038e-02  4.133784e-03  9.781005e-04  1.308364e-01  -2.163012e-02  5.264927e-02  -2.220450e-02  1.354835e-01  5.550572e-02  -4.298064e-02  -4.591876e-02  -1.751303e-02  6.217842e-02  2.971960e-02  1.581136e-02  1.697250e-02  -2.624609e-02  1.430886e-02  6.072610e-02  -1.967427e-02  7.848736e-03  -1.971923e-03  -2.971584e-03  -1.458185e-01  6.478944e-02  8.084457e-02  -6.150695e-02  2.384921e-02  -7.136157e-02  -1.647429e-02  -1.308711e-01  -4.233798e-02  8.323062e-03  -1.672383e-02  -1.449775e-02  -1.005607e-01  -5.901434e-02  2.039316e-02  2.131144e-02  6.782763e-02  2.132298e-02  1.341756e-02  -1.351973e-01  -4.201954e-01  -7.597997e-02  9.201290e-02  1.513052e-01  -4.482534e-02  -2.593522e-02  1.697179e-02  3.733211e-02  5.239042e-02  -3.654670e-02  -2.612468e-02  4.217692e-02  -1.326526e-01  -1.203973e-02  2.858394e-02  -1.513500e-02  1.179237e-01  4.010067e-02  2.585902e-02  6.777576e-02  -1.283530e-02  -4.675826e-02  9.223959e-03  1.807569e-02  -1.315403e-01  6.103524e-04  -3.494893e-03  -9.112830e-02  4.638741e-02  9.173815e-02  5.772907e-02  2.773132e-02  5.748595e-02  -9.092262e-02  1.150955e-02  -1.425383e-02  5.364016e-02  1.358953e-01  6.827360e-02  2.628493e-02  -2.567666e-02  -5.327888e-02  -4.079309e-02  -5.252288e-02  -1.676892e-02  3.655490e-02  4.701538e-02  5.677369e-03  1.045471e-01  -4.667355e-02  -5.045232e-02  3.218970e-02  -3.758486e-01  -4.832076e-02  -6.337565e-02  -1.473954e-02  -1.409029e-01  -8.696312e-02  -6.661687e-02  -3.785940e-02  9.864422e-02  -4.044381e-02  5.871584e-03  -4.582848e-04  5.152162e-03  -3.021930e-02  -7.402810e-02  1.051115e-02  -6.147596e-02  -8.635317e-02  -1.567455e-02  -1.062176e-01  3.823663e-02  3.241024e-02  3.680969e-02  -3.358014e-02  -1.180676e-01  -8.320093e-02  -7.280129e-02  3.762165e-02  -1.104724e-02  1.458063e-02  -3.645522e-02  -4.396688e-02  8.316722e-02  7.773228e-03  5.303485e-02  -3.311394e-02  6.946573e-02  1.115675e-01  2.286287e-02  7.484721e-02  1.552954e-01  -1.593500e-02  6.860404e-02  -3.151824e-02  -3.736083e-03  4.314448e-02  7.391635e-02  3.391042e-02  3.262823e-02  -6.223594e-02  5.339725e-02  -1.232103e-02  2.405461e-04  -2.833435e-02  -7.671743e-03  2.187819e-02  3.624796e-03  -2.934727e-02  -4.032243e-02  -2.564684e-03  -1.483544e-02  -6.092861e-02  -2.196423e-02  -2.488140e-02  -2.958071e-02  -7.863078e-02  1.609381e-02  -8.567935e-03  2.220961e-03  1.291969e-02  -6.753597e-02  -1.111675e-01  1.142787e-01  -4.236201e-02  -3.305727e-02  4.821358e-02  -5.575989e-02  4.464514e-02  1.640341e-03  -5.475414e-02  -1.837970e-01  -9.299965e-03  -3.646869e-03  -8.607810e-02  -1.948567e-01  -4.537301e-02  5.683573e-02  -8.470996e-02  -8.762486e-02  7.851657e-02  -1.012134e-03  5.740796e-03  -2.081444e-02  1.027602e-01  2.160087e-02  -1.778637e-02  -7.975509e-02  -1.126429e-01  -2.930329e-02  2.979350e-02  -7.782182e-02  -1.635183e-02  -2.985990e-02  5.075355e-02  -1.218311e-01  -9.091105e-02  1.659586e-02  -7.970112e-02  -7.976200e-02  1.721752e-02  -3.732600e-02  8.156674e-02  -1.502711e-01  -6.704489e-02  2.484975e-02  -6.479899e-02  -6.457905e-02  -1.076726e-01  2.320836e-03  -8.373561e-02  5.106124e-02  -9.835483e-02  -4.417107e-02  -8.378135e-02  -1.486326e-01  8.478197e-02  7.128942e-02  2.469522e-02  3.005208e-03  -6.146086e-02  2.042918e-02  -8.823851e-02  3.317350e-02  -1.421494e-01  -6.243948e-02  -4.252435e-02  -4.240282e-02  7.186274e-02  -4.303753e-02  -8.609308e-02  -4.134838e-01  -6.395616e-02  -8.560404e-02  6.773154e-02  -8.482348e-03  -5.650234e-02  4.449708e-02  2.643351e-02  -1.171640e-02  -8.274513e-02  -7.619631e-03  -4.484578e-02  -1.482897e-01  9.745771e-02  4.406532e-02  -7.093558e-02  7.344562e-02  2.703006e-02  -2.392127e-02  1.534800e-02  2.717966e-02  -2.880583e-02  -6.540583e-02  2.289407e-02  -3.069639e-02  -6.939270e-02  -6.867783e-02  1.029352e-02  5.798991e-02  -1.316920e-01  -3.504684e-02  -6.988942e-02  -8.008238e-02  -1.253455e-02  -4.105821e-02  1.893212e-02  -2.003009e-01  -1.532186e-02  -3.600337e-02  -6.133910e-02  -4.712613e-02  4.167099e-02  -3.489565e-02  4.138601e-02  -6.279618e-02  9.842953e-02  -2.317599e-02  7.713275e-02  6.345569e-02  9.092022e-02  5.585300e-02  2.260953e-02  -9.844555e-02  3.680277e-02  -6.014771e-02  -4.830496e-02  -1.611807e-02  1.843699e-02  3.590037e-02  7.122983e-03  -9.557908e-02  4.738973e-02  -2.502479e-02  -1.087652e-02  -7.681493e-02  -7.759631e-02  -5.348812e-02  -5.876580e-02  -8.934234e-03  -6.292671e-02  -4.931965e-02  7.711715e-02  1.028743e-02  2.704200e-02  -5.617936e-02  6.338005e-02  -7.638816e-02  4.491076e-02  2.700637e-02  1.414891e-03  8.232100e-02  -4.618331e-02  3.740067e-02  3.874329e-02  1.200513e-01  9.523617e-02  -1.716323e-02  7.535283e-02  5.646484e-02  -1.142988e-01  -7.616992e-02  -2.097277e-02  9.835377e-03  2.898085e-02  4.531355e-02  -6.373592e-02  1.289453e-01  8.177769e-02  -2.157818e-02  1.286597e-01  8.831305e-02  2.191661e-02  -4.488552e-02  8.334547e-02  6.559300e-02  5.164220e-02  -2.722148e-02  6.550510e-03  -7.297052e-02  1.078860e-02  -1.512998e-02  6.199829e-02  -1.238188e-01  -8.702007e-03  -5.561280e-03  -2.869499e-02  -1.538707e-01  -9.106617e-02  -2.226940e-02  -1.349719e-01  -1.019833e-01  -7.474801e-02  -1.579179e-02  -8.748402e-02  2.433219e-02  2.931860e-02  1.824413e-02  4.016086e-02  1.394561e-01  3.840266e-02  2.883657e-02  -7.402393e-02  5.291185e-02  -1.503309e-02  6.269497e-02  -9.183186e-02  6.295094e-02  2.483106e-02  -4.491383e-02  -8.009915e-02  -6.971683e-02  -1.024864e-01  -6.292189e-02  -1.701866e-02  -2.471237e-01  3.042707e-02  -6.298462e-02  -6.854855e-03  -5.013507e-03  7.197496e-02  3.475947e-02  3.815757e-02  5.968447e-02  -1.423245e-01  -7.352757e-02  2.637887e-02  1.648344e-03  5.072400e-02  -2.826860e-02  -1.003858e-02  -1.174428e-01  5.038415e-02  2.873687e-02  1.002705e-01  -4.212959e-02  7.784760e-02  2.769527e-03  -2.648071e-02  -7.086135e-03  -7.556716e-02  -6.174161e-02  5.179118e-02  1.100385e-01  1.556754e-02  2.924863e-03  -2.492511e-02  1.590216e-01  1.232677e-01  6.164394e-02  1.927510e-02  1.458778e-01  5.688447e-02  7.337695e-02  3.612676e-02  -2.075270e-03  6.520548e-02  1.452266e-02  -2.243490e-03  4.328062e-02  9.790351e-02  7.859205e-02  5.915934e-02  -3.755582e-03  2.482918e-02  -8.630734e-03  7.306449e-02  -3.384585e-02  -2.355531e-06  -1.627967e-02  -1.173152e-03  9.577748e-02  1.389103e-01  7.932472e-02  -5.174701e-02  -2.961315e-03  -8.740985e-03  4.133417e-02  -4.480053e-02  3.051674e-02  7.332716e-02  -1.500193e-02  -8.484255e-02  -1.334409e-01  3.839771e-02  2.556166e-02  5.864481e-02  3.656281e-01  -9.196516e-02  -3.302380e-02  -2.722362e-02  -9.399819e-02  -1.227079e-01  -5.359837e-02  -7.581332e-02  -9.183465e-02  8.073901e-02  9.405665e-02  -7.994671e-02  7.497797e-02  1.410976e-01  8.204894e-02  -2.654277e-03  1.667309e-01  3.513268e-02  -5.550961e-02  7.263487e-02  -8.228244e-02  1.270616e-01  8.217304e-02  -1.155166e-02  5.409269e-03  -4.114049e-02  -1.946146e-02  2.049961e-02  3.354886e-02  6.465849e-02  -2.655143e-02  -5.287051e-02  4.189288e-03  -1.070199e-01  -1.540613e-02  -6.473137e-02  -1.144504e-01  -8.270513e-02  -6.697240e-02  -3.705651e-02  5.479195e-02  2.354017e-02  -5.258270e-02  -6.110609e-02  -2.191865e-02  -8.356567e-02  1.760041e-02  -6.653535e-02  6.511276e-02  2.500608e-02  5.440253e-02  5.238682e-03  8.127578e-02  -3.940294e-02  4.404338e-02  -3.097492e-02  7.868583e-02  -5.584033e-02  -6.030403e-02  -1.250247e-01  1.214608e-01  -3.197308e-02  -3.785666e-02  -7.901768e-02  -1.323144e-02  -3.223775e-02  -4.423917e-02  -6.911172e-02  -1.067149e-01  5.854837e-02  -9.371786e-03  -3.826918e-02  -1.866694e-01  -1.479125e-01  -4.229394e-02  2.902769e-02  1.558293e-01  -7.240209e-02  1.252480e-02  -3.069028e-02  1.615039e-02  -9.025836e-02  -1.686991e-02  5.313657e-02  5.847504e-03  -1.568064e-02  -5.522810e-02  -2.408587e-02  -2.373794e-04  -5.695881e-02  -4.744775e-02  -7.200720e-02  -6.795673e-02  -4.862311e-02  -1.133807e-02  1.214834e-01  1.403977e-01  4.886325e-02  -5.698239e-02  9.812994e-02  9.737511e-02  1.028061e-01  5.217992e-02  4.620725e-02  7.598837e-02  -5.120337e-02  -3.065960e-02  4.984481e-02  -8.174486e-02  2.717058e-02  -7.447000e-03  -5.483641e-02  -4.479367e-02  1.318353e-02  -5.655845e-02  -3.254505e-02  1.094130e-02  4.396828e-02  6.621668e-02  -3.934153e-03  7.581973e-02  -3.656568e-02  -8.325364e-02  5.460568e-02  -9.999566e-02  -4.094290e-02  3.102382e-02  -1.314853e-01  6.805013e-02  -3.757591e-02  -3.034352e-02  -1.699232e-02  2.253687e-02  -4.721432e-02  -7.673746e-02  4.790394e-02  -6.529199e-02  -1.026796e-01  -2.778076e-02  -8.641120e-02  -1.578924e-01  -1.272224e-01  -6.425383e-02  3.678864e-02  -7.541131e-02  -8.009709e-02  1.750000e-02  7.851981e-02  2.717092e-01  6.710228e-02  -1.786687e-02  3.253054e-02  -2.850755e-02  -3.845267e-02  -2.356705e-02  3.645318e-02  -3.759000e-02  4.407991e-02  -2.504120e-02  -2.573797e-04  -7.576026e-02  5.777628e-02  3.678991e-02  -4.790234e-02  5.901442e-02  -9.634986e-02  -1.244764e-02  -9.625947e-02  -5.294539e-02  5.906330e-02  -7.814161e-03  2.555739e-02  -1.085870e-01  6.036874e-02  3.116543e-02  8.903852e-03  -1.028299e-01  -6.282797e-02  -8.118606e-02  3.780752e-02  -8.381333e-02  -2.175893e-02  -7.257481e-03  -6.806040e-02  1.112913e-01  -8.193675e-02  -3.314842e-02  -1.128999e-01  8.876677e-03  1.766408e-02  -2.664769e-03  -9.783258e-02  1.213079e-02  -2.632274e-02  1.492625e-02  -3.450058e-02  -1.047169e-01  5.915825e-02  -3.552248e-02  2.087677e-02  -4.839516e-03  6.299631e-02  2.100001e-03  -1.570800e-02  -2.405978e-02  5.591509e-02  2.817970e-02  1.461932e-02  -7.906163e-02  1.183428e-01  3.079483e-02  2.315781e-04  -2.792274e-02  6.182986e-02  -5.169518e-02  6.728302e-02  -2.439605e-02  6.962617e-02  -2.800439e-02  2.769032e-02  -8.403956e-02  -2.136225e-02  3.287314e-02  2.201652e-02  1.041989e-02  3.134181e-03  -2.130712e-03  8.094953e-05  -1.009278e-02  -1.716127e-02  4.614317e-02  4.569549e-02  -8.353807e-02  -1.716280e-02  -3.982879e-02  8.805275e-02  4.016282e-02  -5.983771e-02  -3.956486e-02  -5.635505e-02  4.019336e-02  -1.237044e-02  -1.290282e-02  6.381980e-02  -3.612722e-02  -7.716917e-02  2.356818e-02  4.634670e-02  1.177588e-01  -2.980802e-03  5.449842e-02  -2.676010e-02  8.653633e-02  -6.561431e-02  -6.165892e-02  -3.925458e-02  -7.226411e-02  3.142851e-02  -3.411878e-02  5.765076e-02  1.277584e-02  -1.133406e-01  1.879703e-02  -1.624734e-02  4.724787e-04  -1.502313e-02  3.438019e-02  -2.329662e-02  -9.194554e-02  -1.865683e-02  -2.437155e-02  9.890099e-02  7.404888e-02  4.418840e-02  -1.783306e-02  -3.341431e-03  -1.365688e-01  1.288066e-02  -5.716209e-02  4.508376e-02  -5.324124e-02  -2.669832e-02  1.353827e-02  4.253295e-02  -3.143065e-03  -6.161778e-02  2.150347e-02  -1.928849e-02  -2.169096e-02  -4.389286e-02  -5.851991e-02  6.465978e-02  -6.203160e-02  -8.760282e-02  -4.661101e-02  -1.662375e-02  3.962179e-02  -7.317273e-02  -5.695659e-02  8.917862e-02  -1.429691e-01  3.827743e-04  4.583256e-02  -8.360353e-02  -2.348531e-02  1.080947e-01  7.805136e-02  2.271924e-02  -2.588200e-02  1.022679e-01  6.822177e-02  6.290399e-02  -1.016703e-03  -4.790018e-02  -1.328648e-02  -3.079404e-02  9.463216e-02  2.730605e-02  6.089146e-02  -2.077042e-02  -1.054689e-02  4.532142e-02  6.564280e-02  -8.954355e-03  1.618067e-01  -1.174595e-01  -2.423972e-02  -8.618690e-02  5.811463e-02  -6.770024e-02  -8.340108e-02  6.149418e-02  -4.191273e-02  4.530042e-02  2.617168e-02  -1.077771e-02  -1.236875e-02  -7.001030e-02  -5.478136e-02  2.440189e-02  1.789615e-01  -5.560077e-02  -5.263685e-02  5.794742e-02  -1.024195e-01  2.047537e-02  -1.019746e-02  -5.751208e-02  -1.329006e-01  -3.925144e-03  7.304882e-03  9.252149e-02  -4.160964e-01  -4.082677e-02  -5.363316e-02  5.937521e-02  8.947974e-02  -1.015703e-03  7.348226e-02  -2.998158e-02  3.927882e-02  -6.167843e-03  -3.418308e-02  -5.759726e-03  8.096343e-02  -2.395836e-02  2.546310e-02  -1.066610e-02  1.006006e-02  -1.587365e-02  -1.573368e-02  5.304410e-03  2.211100e-02  5.128860e-02  5.430669e-02  -9.615126e-02  7.935205e-02  6.998495e-02  4.592469e-02  5.366178e-02  -1.825616e-02  -1.366421e-03  5.418730e-02  1.045931e-01  -1.311118e-01  7.675910e-02  5.918034e-02  -1.047048e-01  7.660571e-02  -7.299104e-02  -1.543012e-02  9.632690e-02  -1.010992e-01  2.904384e-02  -5.090688e-02  1.252444e-01  -1.271365e-01  6.661464e-02  2.995049e-04  -7.391027e-02  2.375305e-04  4.659976e-02  7.911906e-04  9.338062e-02  9.999031e-03  9.171760e-02  8.406452e-02  8.813608e-04  1.735287e-01  7.180109e-03  -5.847105e-02  4.608189e-02  -2.737217e-02  4.537640e-02  -1.204869e-02  -9.498351e-02  5.785935e-02  1.008860e-02  -5.801037e-02  -5.531647e-02  -1.230347e-01  -3.065079e-02  -6.309844e-02  4.324721e-03  -5.452777e-02  -1.006289e-02  -6.025932e-02  3.709185e-02  -5.429899e-02  2.361797e-02  6.208287e-02  -2.789870e-02  8.962370e-02  1.598479e-01  4.713197e-02  7.670497e-02  6.686069e-02  -9.411103e-02  -3.244901e-02  3.284863e-02  3.832603e-03  -1.123054e-02  2.679932e-02  7.310187e-03  -8.122961e-02  -7.305095e-03  -5.388735e-02  2.669386e-02  -7.228407e-02  -7.714435e-02  3.548592e-02  -7.971843e-02  -5.704005e-02  7.036745e-02  -8.435365e-02  -1.469431e-01  1.869365e-01  -3.480854e-02  -6.357437e-02  -7.319937e-02  1.139078e-01  -7.168700e-03  5.017270e-02  -3.923471e-02  1.211999e-01  -2.375674e-02  -2.931834e-02  3.046594e-02  5.050795e-02  3.862405e-02  -2.673628e-02  -7.150059e-02  -7.320654e-02  6.162818e-02  4.267329e-02  9.138339e-02  -2.307335e-02  -5.257545e-02  -2.298176e-02  6.878116e-02  -2.734209e-02  -8.046938e-02  -2.596828e-02  3.651430e-02  -1.702017e-01  1.561220e-02  4.922553e-02  -1.403298e-02  1.968472e-02  4.811554e-03  5.792372e-02  1.852875e-02  -9.718627e-02  -9.642967e-03  6.790434e-02  9.263401e-02  -1.441461e-02  6.427800e-02  5.604853e-02  4.323436e-02  7.039086e-02  -4.137670e-02  4.682989e-02  4.078098e-02  1.042103e-01  -9.996580e-02  3.699335e-02  -6.387919e-02  1.075191e-02  -8.637295e-02  -7.826489e-03  -8.424190e-02  -1.143258e-01
      </Weights>
      <Biases Rows="1024" Columns="1">
        1.129211e-01  1.064149e-01  -1.048124e-01  -1.252974e-01  -8.415554e-02  -7.143188e-02  -7.090472e-02  1.309106e-01  -2.508550e-02  1.011090e-01  1.037649e-01  1.069194e-01  9.011505e-02  9.605960e-02  1.061268e-01  6.334879e-02  -1.023675e-01  -9.579825e-02  1.385470e-01  -1.393126e-01  1.422055e-01  1.281184e-01  -1.313012e-01  -1.011531e-01  1.180335e-01  1.219777e-01  -6.355326e-02  1.176925e-01  -9.405708e-02  9.457623e-02  -5.855687e-02  1.114220e-01  -1.223993e-01  1.178196e-01  1.015916e-01  -8.805444e-02  7.259541e-02  1.244329e-01  5.241459e-02  -1.056698e-01  4.835553e-02  -7.976291e-02  1.056669e-01  -1.202626e-01  9.821743e-02  -9.714103e-02  -4.068229e-02  -1.049454e-01  1.018779e-01  -2.691398e-02  1.012311e-01  1.072208e-01  9.486011e-02  7.173718e-02  1.074510e-01  -5.012436e-02  -9.393579e-02  6.281914e-02  -1.132429e-01  8.296959e-02  -3.646809e-02  -9.973976e-02  1.025366e-01  1.038383e-01  -9.504589e-02  -1.087463e-01  -6.387284e-02  7.816531e-02  -4.776156e-02  9.566268e-02  1.086231e-01  -9.874088e-03  1.317620e-01  -1.220434e-01  -7.266098e-02  -8.642154e-02  -2.298649e-02  -1.204258e-01  1.154349e-01  -9.576747e-02  -9.712393e-02  -1.068301e-01  6.783696e-02  6.179374e-02  -1.184746e-01  -1.035384e-01  1.039672e-01  9.190826e-02  1.196948e-01  -4.810819e-02  1.079960e-01  -9.203696e-03  -6.060538e-02  9.092292e-02  1.052222e-01  -8.797804e-02  -9.136053e-02  -8.600134e-02  -7.031336e-02  8.517715e-02  -1.303094e-01  -9.774403e-02  -8.598603e-02  1.261033e-01  3.891316e-02  -8.294863e-02  1.098306e-01  -1.082334e-01  1.280160e-01  -9.523153e-02  1.157594e-01  7.232856e-02  8.328748e-02  -7.595778e-02  1.365383e-01  -1.167255e-01  -1.272723e-01  1.640976e-02  -1.801814e-01  1.487415e-01  -9.656069e-02  9.811921e-02  2.741973e-03  -1.033407e-01  -6.846179e-02  -1.974586e-02  -1.156455e-01  1.208936e-01  -1.168439e-02  9.236668e-02  1.531632e-01  -8.004557e-02  -9.684353e-04  9.020904e-02  6.293697e-02  1.152079e-01  8.221095e-02  -9.334137e-02  -1.136268e-01  -1.631020e-01  -9.455331e-02  -1.083757e-01  1.172409e-01  -9.738804e-02  1.166865e-01  -9.660061e-02  -1.242614e-01  1.015694e-01  -1.155443e-01  -1.068442e-01  -9.472930e-02  -1.198259e-01  -1.362016e-01  9.092707e-02  -1.555147e-01  -9.963083e-02  -1.090720e-01  9.198862e-02  1.279913e-02  -1.098061e-01  -1.160806e-01  1.123150e-01  -1.225976e-01  -5.020017e-02  8.798423e-02  -1.368845e-02  -8.383622e-02  1.031879e-01  1.172476e-02  -6.727650e-02  8.445013e-02  -1.135157e-01  -6.377054e-02  -4.490733e-02  -1.212782e-01  -1.149268e-01  1.067902e-01  -1.097102e-01  1.111333e-01  6.744473e-02  1.024457e-01  6.867465e-02  1.551198e-01  -9.413575e-02  -9.678786e-02  -1.043544e-01  -3.929235e-02  9.296920e-02  -9.909306e-02  -2.397867e-02  1.183064e-01  -1.507792e-01  6.431389e-02  1.224556e-01  7.096236e-02  -1.039768e-01  8.207265e-02  -6.928303e-02  1.049383e-01  1.308954e-01  1.180721e-01  9.875244e-02  1.806793e-01  -2.298322e-04  -1.139107e-01  1.361157e-01  1.301362e-01  9.947900e-02  -1.307639e-01  -8.187927e-02  -1.009942e-01  -1.099116e-01  8.870187e-02  4.689305e-02  -1.228162e-01  -9.327672e-02  1.076334e-01  -5.964528e-02  1.085434e-01  8.744563e-02  3.431176e-02  -1.107959e-01  9.069745e-02  1.087930e-01  -1.275279e-01  9.358426e-02  -1.173449e-01  4.401910e-02  8.756801e-02  -1.105305e-01  7.613319e-02  -1.024250e-01  -1.250125e-01  -1.362385e-01  7.854812e-02  1.096662e-01  -4.680800e-02  -7.677291e-02  -9.601245e-03  -1.488611e-01  -9.212975e-02  -4.175716e-02  -1.132640e-01  7.229549e-02  -1.255393e-02  -5.039351e-02  6.739528e-02  1.156237e-01  -1.225460e-01  -6.488380e-02  -8.586431e-02  -1.059690e-01  1.111763e-01  -8.440030e-02  4.387426e-02  -2.543883e-02  1.997460e-02  -1.094786e-01  -7.104364e-02  4.544265e-02  1.093291e-01  -1.146099e-01  1.043395e-01  1.123775e-01  9.011254e-02  -1.038588e-01  1.240431e-01  1.250122e-01  1.209291e-01  -9.117817e-02  3.798659e-02  6.745771e-02  -1.128653e-01  8.660945e-02  6.092048e-02  1.080708e-01  9.744518e-02  -9.121517e-02  -1.227950e-01  -8.278926e-02  1.054434e-01  1.075007e-01  -7.188626e-02  -7.207738e-02  -1.028970e-01  4.445156e-02  -4.010944e-02  -9.397574e-02  -6.437781e-02  3.330254e-02  -7.764928e-02  -3.211743e-02  1.123480e-01  -1.384520e-01  -1.308703e-01  8.904569e-02  1.008665e-01  -8.249628e-02  -9.162489e-02  -1.123028e-01  -9.611027e-02  5.601507e-02  1.224679e-01  1.247557e-01  1.516608e-01  1.133860e-01  -7.574031e-02  1.089191e-01  7.562166e-02  9.626804e-02  -1.277706e-01  7.307672e-02  -1.038406e-01  -2.045508e-02  1.000026e-01  1.216918e-01  1.014306e-01  -1.245418e-01  -1.304411e-01  6.559685e-02  -1.268065e-01  -9.957416e-02  -8.543265e-02  -1.274808e-01  -8.154529e-02  -1.007077e-01  -8.839305e-02  -3.446334e-02  -9.060356e-02  -1.020810e-01  5.640481e-02  1.555643e-02  -2.141822e-02  1.018371e-01  -9.271891e-02  2.298744e-02  9.069122e-02  8.389954e-02  8.843318e-02  6.590334e-02  1.088627e-01  1.036953e-01  7.364067e-02  -1.199658e-01  8.597624e-02  -9.444797e-02  -1.120499e-01  -8.278586e-02  -7.429226e-02  -1.152505e-01  -3.773913e-03  -5.256034e-02  -9.553426e-02  1.150547e-01  8.305866e-02  9.307685e-02  -6.297293e-02  -1.078123e-01  9.402934e-02  -6.750159e-02  6.581990e-02  -8.013827e-02  -1.044898e-01  9.042425e-02  -1.096934e-01  1.160815e-01  9.706076e-02  1.594274e-01  -9.554584e-02  8.499008e-02  1.354796e-01  8.488361e-02  -1.120023e-01  -1.185765e-01  1.362581e-01  9.653565e-02  1.135870e-01  1.260015e-01  -5.905538e-02  1.044820e-01  9.109652e-02  -2.183180e-02  5.555820e-02  6.597155e-02  -9.753019e-02  -4.451198e-02  9.480266e-02  5.849890e-02  -1.232132e-01  -1.005074e-01  1.047532e-01  -7.942455e-02  9.765139e-02  6.634960e-02  1.073909e-01  -1.222898e-01  1.098026e-01  -1.140723e-01  5.695576e-02  -3.284261e-03  1.235533e-01  1.093198e-01  -9.119339e-02  -1.024250e-01  1.233948e-01  1.184056e-01  9.268210e-02  1.054546e-01  -1.196042e-01  6.323312e-02  -9.452312e-02  -1.141109e-01  1.119321e-01  -1.038128e-01  1.178788e-01  -9.822468e-02  -2.980846e-02  -1.090735e-01  1.250328e-01  -9.726339e-02  1.202062e-01  8.396430e-02  -9.518659e-02  -7.517438e-02  1.002097e-01  9.718684e-02  6.293347e-02  5.285970e-02  -3.912772e-02  -7.870837e-02  9.136229e-02  -7.447623e-02  1.051814e-01  7.764120e-02  9.514552e-02  -1.816094e-03  6.074173e-02  -8.751067e-02  -1.228774e-01  9.843045e-02  -1.125824e-01  7.810576e-02  -9.132669e-02  1.381434e-01  -3.218199e-02  -1.058415e-01  -1.115378e-02  -8.799723e-02  3.586964e-02  -1.235047e-01  -1.019863e-01  7.577908e-02  1.032797e-01  7.859272e-02  -1.154719e-01  -1.340777e-02  -1.055915e-01  1.395949e-01  4.188348e-02  9.615306e-02  4.477276e-03  -5.703148e-02  1.649543e-01  -1.168859e-01  5.491726e-02  -7.770532e-02  6.825143e-02  1.210525e-01  -6.552207e-02  1.165459e-01  1.155121e-01  4.039709e-02  1.248736e-01  2.769398e-02  -8.229082e-02  1.120991e-01  -9.735968e-02  -4.641046e-02  -6.551044e-02  -5.899689e-02  -9.515306e-02  1.134055e-01  -4.975403e-02  6.750970e-02  -8.384458e-02  1.090819e-01  -4.332829e-02  -1.230278e-01  -9.405003e-02  -1.091017e-01  -9.932642e-02  1.248008e-01  -6.711176e-02  -1.236670e-01  -1.297826e-01  1.025179e-01  1.025532e-01  -1.075960e-01  -1.021777e-01  -7.058687e-02  1.006952e-01  -1.045343e-01  -9.388885e-02  -4.248627e-03  -9.942151e-02  4.207742e-02  1.270660e-01  -1.209295e-01  -1.020759e-01  -1.196394e-01  1.066937e-01  -1.115802e-02  -7.733181e-02  1.017381e-01  -6.809095e-02  -1.106161e-01  -9.600233e-02  -5.964954e-02  -1.100340e-01  -1.353714e-01  1.572924e-01  -3.265546e-02  -7.563067e-02  3.226281e-02  1.166406e-01  -4.110334e-02  1.201069e-01  1.061810e-01  2.634971e-02  1.106428e-01  1.052129e-01  -9.224311e-02  7.817220e-02  -1.121173e-01  1.177930e-01  8.531413e-02  -1.181101e-01  -1.108066e-01  -9.197795e-02  1.004688e-01  6.912797e-03  -1.297562e-01  -8.474155e-02  -8.088846e-03  9.381352e-02  -9.699548e-02  9.104805e-02  -8.625904e-02  8.808913e-02  8.573087e-02  7.687060e-02  -1.856353e-02  4.363706e-02  1.181538e-01  9.612528e-02  9.770976e-02  -1.316983e-01  1.076985e-01  -8.296784e-02  1.183311e-01  -1.312914e-01  -1.001613e-01  1.029242e-01  9.288709e-02  1.190706e-01  1.733474e-02  -1.126627e-01  -3.684562e-02  6.584345e-02  -1.458668e-02  -6.810810e-02  1.062386e-01  1.018869e-01  -6.955866e-02  -9.992674e-02  1.123374e-01  -1.212006e-01  -9.282322e-02  -7.027797e-02  1.247950e-02  -9.983704e-02  -4.754003e-02  8.623556e-02  6.648982e-02  5.460506e-02  -1.048607e-01  1.060034e-01  1.114796e-01  4.583902e-02  1.286241e-01  1.272484e-01  1.264114e-01  -8.673327e-02  1.123965e-01  9.690581e-02  -1.001603e-01  -1.398616e-02  -1.305624e-01  1.123829e-01  1.318711e-01  1.072842e-01  -1.104787e-01  -9.175593e-02  4.010048e-02  4.116024e-02  5.624348e-02  5.135780e-02  -9.306016e-02  -8.315773e-02  5.533662e-02  -1.133266e-01  1.026434e-01  -1.040913e-01  -1.184809e-01  1.237279e-01  9.903685e-02  -7.161565e-02  -1.141344e-01  -6.888049e-02  1.058454e-01  9.251291e-02  8.797730e-02  1.001710e-01  9.529110e-02  -2.119469e-02  -1.115982e-01  -1.112239e-01  -6.697217e-02  1.003182e-01  -1.081441e-01  -5.194992e-02  1.088444e-01  7.669225e-02  1.111772e-01  -7.512686e-02  -8.303885e-02  -1.009080e-01  7.665844e-02  -9.985039e-02  -9.876659e-02  1.106070e-01  1.160488e-01  -1.082968e-01  1.030338e-01  1.176691e-01  -5.743870e-02  -5.281806e-02  8.013047e-02  1.948761e-02  7.011371e-02  -2.742897e-02  -1.183617e-01  -1.406782e-01  -9.198570e-02  -1.104060e-01  1.232689e-01  -9.519926e-02  -5.597650e-02  1.156306e-01  9.221817e-02  -1.051234e-01  -9.434695e-02  -1.047510e-01  7.142061e-02  -1.455535e-01  1.032951e-01  -1.131457e-01  1.489451e-01  -1.054538e-01  -1.084132e-01  1.183122e-01  1.350235e-01  -1.044091e-01  -1.224863e-01  1.253549e-01  1.066973e-01  -1.098643e-01  1.524614e-01  1.339550e-01  1.065243e-01  -1.039409e-01  -8.033846e-02  -9.516432e-02  1.247130e-01  -1.200084e-01  -8.345097e-02  1.171957e-01  -9.227777e-02  -4.414035e-02  -9.708152e-02  1.352072e-01  2.535373e-02  -1.121996e-01  5.694493e-02  8.034207e-02  -1.128415e-01  7.109457e-02  -6.431131e-02  -9.833019e-02  -1.190967e-01  -1.000988e-01  2.499989e-02  -1.247110e-01  -1.182091e-01  -1.318464e-01  1.244216e-01  -1.051422e-01  -8.736052e-02  -1.064364e-01  -1.105573e-01  9.789836e-02  2.678744e-02  -7.669614e-02  -1.034495e-01  4.546830e-02  -1.037824e-01  -1.203186e-01  -7.184350e-02  -4.794390e-02  -8.258587e-02  7.772380e-02  -9.707177e-02  2.726548e-02  -8.139933e-02  -1.022527e-01  -1.026824e-01  3.478149e-02  4.873457e-02  1.444894e-01  1.220062e-01  1.207802e-01  -1.135377e-01  -9.912894e-02  7.770652e-02  -1.182177e-02  -1.292902e-01  -1.045223e-01  -1.459950e-01  8.890283e-02  1.192781e-01  9.837008e-02  1.035236e-01  8.239739e-02  -4.278424e-02  6.873928e-02  1.007604e-01  8.637689e-02  8.036467e-02  1.551011e-01  -9.772636e-02  -1.452008e-01  -8.628763e-02  -2.029669e-04  -1.104680e-01  -7.651725e-02  1.646365e-02  7.305816e-02  -9.293491e-02  1.181819e-01  9.288833e-02  4.602299e-02  -1.083179e-02  -1.022427e-01  -9.293599e-02  -1.254870e-01  -1.032700e-01  -4.129766e-02  -1.334876e-01  8.356918e-02  2.631873e-02  -9.401210e-02  -1.588542e-01  3.900053e-02  1.170348e-02  1.087276e-01  1.017955e-01  -1.316668e-01  -1.227629e-01  7.748286e-02  7.802272e-02  -9.537704e-02  3.893698e-02  -1.019708e-01  -1.261451e-01  1.082813e-01  -1.242009e-01  9.221215e-02  1.295619e-01  3.804625e-02  9.921738e-02  -9.838850e-02  7.026117e-02  1.039441e-01  5.202956e-02  -1.354983e-01  9.422507e-02  -7.756727e-02  5.376320e-02  1.184062e-01  1.159251e-01  -1.223480e-01  9.141003e-02  1.336391e-01  6.641582e-02  -4.420137e-02  -7.771868e-02  2.692427e-02  -8.772123e-02  -8.924205e-02  8.144003e-02  -1.384039e-01  -9.433397e-02  8.650971e-02  -9.810869e-02  -1.066215e-01  1.149495e-01  -1.037668e-01  1.252610e-01  1.117639e-01  1.283448e-01  5.609727e-02  -8.514318e-02  1.094257e-01  1.209368e-01  1.186656e-01  -7.851169e-02  -6.439551e-02  -3.907306e-03  1.075480e-01  -1.138062e-01  -9.369805e-02  1.149703e-01  8.980713e-02  9.872513e-02  9.783433e-02  1.070863e-01  6.277259e-02  1.416672e-03  9.500737e-02  6.219459e-02  6.676293e-02  7.133252e-02  -1.068789e-01  1.340988e-01  1.037305e-01  -9.541745e-02  -1.012079e-01  -1.148737e-01  -1.077894e-01  7.398309e-02  -3.851922e-02  -1.225450e-01  -1.026174e-01  -1.172473e-01  9.929308e-02  -1.215290e-01  1.046719e-01  -1.111609e-01  -8.481745e-02  5.552088e-03  -1.088599e-01  4.164426e-03  9.120866e-02  -1.046027e-01  -1.038710e-01  -6.231407e-02  -6.985393e-02  -9.662596e-02  1.089139e-01  -2.658797e-02  1.111741e-01  -5.582345e-02  -8.840850e-02  1.501418e-02  -5.817202e-02  1.256120e-01  1.983182e-02  4.197933e-02  -1.304404e-01  -2.817811e-02  1.350661e-02  -1.198371e-01  1.225298e-01  -7.288836e-02  -8.110705e-02  -9.739144e-02  -5.424241e-02  1.188278e-01  -7.459310e-02  8.140937e-02  1.154926e-01  -8.754367e-02  -4.247214e-03  9.952950e-02  -9.731969e-02  -8.810079e-02  -8.111493e-02  -2.770210e-02  8.482078e-02  -1.164694e-02  -1.042262e-01  6.651834e-02  8.145251e-02  -1.080486e-01  1.045612e-01  -9.042407e-02  -1.076858e-01  9.123662e-02  -9.604868e-02  1.173522e-01  1.310486e-01  -9.298140e-02  -9.326747e-02  -1.834675e-02  8.516870e-02  9.721967e-02  9.906001e-02  -9.427429e-02  4.109489e-03  1.260714e-01  -1.438172e-01  4.499811e-02  -8.678973e-02  1.125256e-01  -1.203928e-01  9.185239e-02  -1.059619e-01  -9.741542e-02  -8.347159e-02  -9.991204e-02  1.916619e-02  4.197437e-02  7.256319e-02  -1.093767e-01  4.287960e-02  -1.060681e-01  -3.411336e-02  -4.903966e-02  1.506208e-01  1.066303e-01  -1.011317e-01  -1.236643e-01  -1.153689e-01  -1.261677e-01  1.066091e-01  -1.171591e-01  -8.971445e-02  -1.026735e-01  -7.248071e-02  -1.191776e-01  -1.198964e-01  9.575316e-02  -8.444224e-03  1.072318e-01  1.069350e-01  -1.113314e-01  9.295277e-02  7.152117e-02  1.104925e-01  -1.010515e-01  -1.124124e-01  1.042830e-01  1.166648e-01  9.922416e-02  -9.607431e-02  -8.383962e-02  -8.633185e-02  1.396953e-01  -8.017046e-02  -5.956243e-02  6.352790e-02  9.493268e-02  7.455567e-02  8.133038e-02  -5.145334e-02  9.316792e-02  6.268214e-02  -5.518021e-02  -8.913721e-02  7.653528e-02  -1.142656e-01  -7.056778e-02  -9.928386e-02  1.202393e-02  -7.707203e-02  1.253837e-01  -1.251754e-01  1.062522e-01  -4.163462e-02  -8.890323e-02  8.734974e-02  -9.986298e-02  -7.098185e-02  -1.227298e-01  -3.075864e-02  -1.224423e-01  1.090421e-01  6.958997e-02  -1.264177e-01  8.366999e-04  -1.184549e-01  -1.099690e-01  -1.028247e-01  1.125651e-01  -6.779888e-02  9.777895e-02  1.284164e-01  -1.032473e-01  1.085946e-01  1.634361e-01  -7.196513e-02  1.045182e-01  -3.137515e-02  -1.524833e-01  1.110729e-01  1.176940e-01  9.896666e-02  1.162635e-01  1.549178e-01  1.084676e-01  1.057991e-01  1.236344e-01  1.399506e-01  4.943326e-02
      </Biases>
    </DenseLayer>
    <DenseLayer Width="64" ActivationFunction="3">
      <Weights Rows="64" Columns="1024">
