<?xml version="1.0"?>
<MethodSetup Method="DL::DNN_CPU">
  <GeneralInfo>
    <Info name="TMVA Release" value="4.2.1 [262657]"/>
    <Info name="ROOT Release" value="6.27/01 [400129]"/>
    <Info name="Creator" value="simon"/>
    <Info name="Date" value="Tue Dec 20 18:30:58 2022"/>
    <Info name="Host" value="Linux np-muon01.physics.gla.ac.uk 5.15.0-47-lowlatency #53-Ubuntu SMP PREEMPT Fri Aug 12 15:27:13 UTC 2022 x86_64 x86_64 x86_64 GNU/Linux"/>
    <Info name="Dir" value="/home/simon/Analysis/EIC_Analysis"/>
    <Info name="Training events" value="970292"/>
    <Info name="TrainingTime" value="3.30484823e+02"/>
    <Info name="AnalysisType" value="Regression"/>
  </GeneralInfo>
  <Options>
    <Option name="V" modified="Yes">True</Option>
    <Option name="VerbosityLevel" modified="No">Verbose</Option>
    <Option name="VarTransform" modified="Yes">G,N(thetaE),D</Option>
    <Option name="H" modified="Yes">False</Option>
    <Option name="CreateMVAPdfs" modified="No">False</Option>
    <Option name="IgnoreNegWeightsInTraining" modified="No">False</Option>
    <Option name="InputLayout" modified="No">0|0|0</Option>
    <Option name="BatchLayout" modified="No">0|0|0</Option>
    <Option name="Layout" modified="Yes">TANH|200,TANH|200,TANH|100,TANH|50,LINEAR</Option>
    <Option name="ErrorStrategy" modified="Yes">SUMOFSQUARES</Option>
    <Option name="WeightInitialization" modified="Yes">XAVIERUNIFORM</Option>
    <Option name="RandomSeed" modified="No">0</Option>
    <Option name="ValidationSize" modified="No">20%</Option>
    <Option name="Architecture" modified="Yes">GPU</Option>
    <Option name="TrainingStrategy" modified="Yes">LearningRate=2e-4,Momentum=0.0,MaxEpochs=4000,DropConfig=0.0,DropRepetitions=2,ConvergenceSteps=200,BatchSize=200,TestRepetitions=5,Regularization=L2,Optimizer=Adam</Option>
  </Options>
  <Variables NVar="4">
    <Variable VarIndex="0" Expression="real_cut[0].fCoordinates.fY" Label="real_cut[0].fCoordinates.fY" Title="real_position_y" Unit="units" Internal="real_cut_0_.fCoordinates.fY" Type="F" Min="-4.08702750e+06" Max="2.42444940e+07"/>
    <Variable VarIndex="1" Expression="real_cut[0].fCoordinates.fZ" Label="real_cut[0].fCoordinates.fZ" Title="real_position_z" Unit="units" Internal="real_cut_0_.fCoordinates.fZ" Type="F" Min="-6.87859840e+07" Max="6.17687936e+08"/>
    <Variable VarIndex="2" Expression="real_vector[0].fCoordinates.fX" Label="real_vector[0].fCoordinates.fX" Title="real_vector.x" Unit="units" Internal="real_vector_0_.fCoordinates.fX" Type="F" Min="-9.99834955e-01" Max="9.99729097e-01"/>
    <Variable VarIndex="3" Expression="real_vector[0].fCoordinates.fY" Label="real_vector[0].fCoordinates.fY" Title="real_vector.y" Unit="units" Internal="real_vector_0_.fCoordinates.fY" Type="F" Min="-9.99710858e-01" Max="9.99904037e-01"/>
  </Variables>
  <Spectators NSpec="2">
    <Spectator SpecIndex="0" Expression="eE" Label="eE" Title="eE" Unit="" Internal="eE" Type="F" Min="7.95708060e-01" Max="1.79967995e+01"/>
    <Spectator SpecIndex="1" Expression="logQ2" Label="logQ2" Title="logQ2" Unit="" Internal="logQ2" Type="F" Min="-8.50816727e+00" Max="-1.42205775e+00"/>
  </Spectators>
  <Classes NClass="1">
    <Class Name="Regression" Index="0"/>
  </Classes>
  <Targets NTrgt="4">
    <Target TargetIndex="0" Expression="eE" Label="eE" Title="eE" Unit="" Internal="eE" Type="F" Min="7.95708060e-01" Max="1.79967995e+01"/>
    <Target TargetIndex="1" Expression="thetaE" Label="thetaE" Title="thetaE" Unit="" Internal="thetaE" Type="F" Min="3.20617460e-06" Max="1.08794579e-02"/>
    <Target TargetIndex="2" Expression="cos(phiV)" Label="cos(phiV)" Title="cos(phiV)" Unit="" Internal="cos_phiV_" Type="F" Min="-1.00000000e+00" Max="1.00000000e+00"/>
    <Target TargetIndex="3" Expression="sin(phiV)" Label="sin(phiV)" Title="sin(phiV)" Unit="" Internal="sin_phiV_" Type="F" Min="-1.00000000e+00" Max="1.00000000e+00"/>
  </Targets>
  <Transformations NTransformations="3">
    <Transform Name="Gauss" FlatOrGauss="Gauss">
      <Selection>
        <Input NInputs="4">
          <Input Type="Variable" Label="real_cut[0].fCoordinates.fY" Expression="real_cut[0].fCoordinates.fY"/>
          <Input Type="Variable" Label="real_cut[0].fCoordinates.fZ" Expression="real_cut[0].fCoordinates.fZ"/>
          <Input Type="Variable" Label="real_vector[0].fCoordinates.fX" Expression="real_vector[0].fCoordinates.fX"/>
          <Input Type="Variable" Label="real_vector[0].fCoordinates.fY" Expression="real_vector[0].fCoordinates.fY"/>
        </Input>
        <Output NOutputs="4">
          <Output Type="Variable" Label="real_cut[0].fCoordinates.fY" Expression="real_cut[0].fCoordinates.fY"/>
          <Output Type="Variable" Label="real_cut[0].fCoordinates.fZ" Expression="real_cut[0].fCoordinates.fZ"/>
          <Output Type="Variable" Label="real_vector[0].fCoordinates.fX" Expression="real_vector[0].fCoordinates.fX"/>
          <Output Type="Variable" Label="real_vector[0].fCoordinates.fY" Expression="real_vector[0].fCoordinates.fY"/>
        </Output>
      </Selection>
      <Variable VarIndex="0">
        <CumulativePDF_cls0>
          <PDF Name="GaussTransform var0 cls0" MinNSmooth="0" MaxNSmooth="0" InterpolMethod="1" KDE_type="0" KDE_iter="1" KDE_border="1" KDE_finefactor="0.0000000000000000e+00">
            <Histogram Name="Cumulative_Var0_cls0_original" NBins="1998" XMin="-4.0870275000000000e+06" XMax="2.4244494000000000e+07" HasEquidistantBins="0">
              4.94840206e-04 9.93284862e-04 1.49366050e-03 1.99429365e-03 2.49479804e-03 2.99530244e-03 3.49580683e-03 3.99631122e-03 4.49681561e-03 4.99732001e-03 5.49782440e-03 5.99832879e-03 6.49883272e-03 6.99933711e-03 7.49984151e-03 8.00034590e-03 8.50085076e-03 9.00135469e-03 9.50185955e-03 1.00023635e-02 1.05028674e-02 1.10033723e-02 1.15038762e-02 1.20043810e-02 1.25048850e-02 1.30053898e-02 1.35058938e-02 1.40063986e-02 1.45069025e-02 1.50074074e-02 1.55079113e-02 1.60084162e-02 1.65089201e-02 1.70094240e-02 1.75099298e-02 1.80104338e-02 1.85109377e-02 1.90114416e-02 1.95119455e-02 2.00124513e-02 2.05129553e-02 2.10134592e-02 2.15139631e-02 2.20144689e-02 2.25149728e-02 2.30154768e-02 2.35159807e-02 2.40164865e-02 2.45169904e-02 2.50174943e-02 2.55179983e-02 2.60185041e-02 2.65190080e-02 2.70195119e-02 2.75200158e-02 2.80205198e-02 2.85210256e-02 2.90215295e-02 2.95220334e-02 3.00225373e-02 3.05230431e-02 3.10235471e-02 3.15240510e-02 3.20245549e-02 3.25250588e-02 3.30255628e-02 3.35260704e-02 3.40265743e-02 3.45270783e-02 3.50275822e-02 3.55280861e-02 3.60285901e-02 3.65290940e-02 3.70295979e-02 3.75301018e-02 3.80306095e-02 3.85311134e-02 3.90316173e-02 3.95321213e-02 4.00326252e-02 4.05331291e-02 4.10336331e-02 4.15341370e-02 4.20346446e-02 4.25351486e-02 4.30356525e-02 4.35361564e-02 4.40366603e-02 4.45371643e-02 4.50376682e-02 4.55381721e-02 4.60386761e-02 4.65391837e-02 4.70396876e-02 4.75401916e-02 4.80406955e-02 4.85411994e-02 4.90417033e-02 4.95422073e-02 5.00427112e-02 5.05432189e-02 5.10437228e-02 5.15442267e-02 5.20447306e-02 5.25452346e-02 5.30457385e-02 5.35462424e-02 5.40467463e-02 5.45472503e-02 5.50477579e-02 5.55482619e-02 5.60487658e-02 5.65492697e-02 5.70497736e-02 5.75502776e-02 5.80507815e-02 5.85512854e-02 5.90517931e-02 5.95522970e-02 6.00528009e-02 6.05533049e-02 6.10538088e-02 6.15543127e-02 6.20548166e-02 6.25553206e-02 6.30558282e-02 6.35563284e-02 6.40568361e-02 6.45573363e-02 6.50578439e-02 6.55583516e-02 6.60588518e-02 6.65593594e-02 6.70598596e-02 6.75603673e-02 6.80608675e-02 6.85613751e-02 6.90618753e-02 6.95623830e-02 7.00628906e-02 7.05633909e-02 7.10638985e-02 7.15643987e-02 7.20649064e-02 7.25654066e-02 7.30659142e-02 7.35664144e-02 7.40669221e-02 7.45674297e-02 7.50679299e-02 7.55684376e-02 7.60689378e-02 7.65694454e-02 7.70699456e-02 7.75704533e-02 7.80709609e-02 7.85714611e-02 7.90719688e-02 7.95724690e-02 8.00729766e-02 8.05734769e-02 8.10739845e-02 8.15744847e-02 8.20749924e-02 8.25755000e-02 8.30760002e-02 8.35765079e-02 8.40770081e-02 8.45775157e-02 8.50780159e-02 8.55785236e-02 8.60790238e-02 8.65795314e-02 8.70800391e-02 8.75805393e-02 8.80810469e-02 8.85815471e-02 8.90820548e-02 8.95825550e-02 9.00830626e-02 9.05835629e-02 9.10840705e-02 9.15845782e-02 9.20850784e-02 9.25855860e-02 9.30860862e-02 9.35865939e-02 9.40870941e-02 9.45876017e-02 9.50881094e-02 9.55886096e-02 9.60891172e-02 9.65896174e-02 9.70901251e-02 9.75906253e-02 9.80911329e-02 9.85916331e-02 9.90921408e-02 9.95926484e-02 1.00093149e-01 1.00593656e-01 1.01094157e-01 1.01594664e-01 1.02095164e-01 1.02595672e-01 1.03096172e-01 1.03596680e-01 1.04097188e-01 1.04597688e-01 1.05098195e-01 1.05598696e-01 1.06099203e-01 1.06599703e-01 1.07100211e-01 1.07600711e-01 1.08101219e-01 1.08601727e-01 1.09102227e-01 1.09602734e-01 1.10103235e-01 1.10603742e-01 1.11104243e-01 1.11604750e-01 1.12105258e-01 1.12605758e-01 1.13106266e-01 1.13606766e-01 1.14107274e-01 1.14607774e-01 1.15108281e-01 1.15608782e-01 1.16109289e-01 1.16609797e-01 1.17110297e-01 1.17610805e-01 1.18111305e-01 1.18611813e-01 1.19112313e-01 1.19612820e-01 1.20113321e-01 1.20613828e-01 1.21114336e-01 1.21614836e-01 1.22115344e-01 1.22615844e-01 1.23116352e-01 1.23616852e-01 1.24117360e-01 1.24617860e-01 1.25118375e-01 1.25618875e-01 1.26119375e-01 1.26619875e-01 1.27120391e-01 1.27620891e-01 1.28121391e-01 1.28621891e-01 1.29122406e-01 1.29622906e-01 1.30123407e-01 1.30623922e-01 1.31124422e-01 1.31624922e-01 1.32125422e-01 1.32625937e-01 1.33126438e-01 1.33626938e-01 1.34127453e-01 1.34627953e-01 1.35128453e-01 1.35628954e-01 1.36129469e-01 1.36629969e-01 1.37130469e-01 1.37630984e-01 1.38131484e-01 1.38631985e-01 1.39132485e-01 1.39633000e-01 1.40133500e-01 1.40634000e-01 1.41134501e-01 1.41635016e-01 1.42135516e-01 1.42636016e-01 1.43136531e-01 1.43637031e-01 1.44137532e-01 1.44638032e-01 1.45138547e-01 1.45639047e-01 1.46139547e-01 1.46640062e-01 1.47140563e-01 1.47641063e-01 1.48141563e-01 1.48642078e-01 1.49142578e-01 1.49643078e-01 1.50143579e-01 1.50644094e-01 1.51144594e-01 1.51645094e-01 1.52145609e-01 1.52646109e-01 1.53146610e-01 1.53647110e-01 1.54147625e-01 1.54648125e-01 1.55148625e-01 1.55649140e-01 1.56149641e-01 1.56650141e-01 1.57150641e-01 1.57651156e-01 1.58151656e-01 1.58652157e-01 1.59152672e-01 1.59653172e-01 1.60153672e-01 1.60654172e-01 1.61154687e-01 1.61655188e-01 1.62155688e-01 1.62656188e-01 1.63156703e-01 1.63657203e-01 1.64157704e-01 1.64658219e-01 1.65158719e-01 1.65659219e-01 1.66159719e-01 1.66660234e-01 1.67160735e-01 1.67661235e-01 1.68161750e-01 1.68662250e-01 1.69162750e-01 1.69663250e-01 1.70163766e-01 1.70664266e-01 1.71164766e-01 1.71665281e-01 1.72165781e-01 1.72666281e-01 1.73166782e-01 1.73667297e-01 1.74167797e-01 1.74668297e-01 1.75168797e-01 1.75669312e-01 1.76169813e-01 1.76670313e-01 1.77170828e-01 1.77671328e-01 1.78171828e-01 1.78672329e-01 1.79172844e-01 1.79673344e-01 1.80173844e-01 1.80674359e-01 1.81174859e-01 1.81675360e-01 1.82175860e-01 1.82676375e-01 1.83176875e-01 1.83677375e-01 1.84177876e-01 1.84678391e-01 1.85178891e-01 1.85679391e-01 1.86179906e-01 1.86680406e-01 1.87180907e-01 1.87681407e-01 1.88181922e-01 1.88682422e-01 1.89182922e-01 1.89683437e-01 1.90183938e-01 1.90684438e-01 1.91184938e-01 1.91685453e-01 1.92185953e-01 1.92686453e-01 1.93186969e-01 1.93687469e-01 1.94187969e-01 1.94688469e-01 1.95188984e-01 1.95689484e-01 1.96189985e-01 1.96690485e-01 1.97191000e-01 1.97691500e-01 1.98192000e-01 1.98692515e-01 1.99193016e-01 1.99693516e-01 2.00194016e-01 2.00694531e-01 2.01195031e-01 2.01695532e-01 2.02196047e-01 2.02696547e-01 2.03197047e-01 2.03697547e-01 2.04198062e-01 2.04698563e-01 2.05199063e-01 2.05699578e-01 2.06200078e-01 2.06700578e-01 2.07201079e-01 2.07701594e-01 2.08202094e-01 2.08702594e-01 2.09203094e-01 2.09703609e-01 2.10204110e-01 2.10704610e-01 2.11205125e-01 2.11705625e-01 2.12206125e-01 2.12706625e-01 2.13207141e-01 2.13707641e-01 2.14208141e-01 2.14708656e-01 2.15209156e-01 2.15709656e-01 2.16210157e-01 2.16710672e-01 2.17211172e-01 2.17711672e-01 2.18212187e-01 2.18712687e-01 2.19213188e-01 2.19713688e-01 2.20214203e-01 2.20714703e-01 2.21215203e-01 2.21715704e-01 2.22216219e-01 2.22716719e-01 2.23217219e-01 2.23717734e-01 2.24218234e-01 2.24718735e-01 2.25219235e-01 2.25719750e-01 2.26220250e-01 2.26720750e-01 2.27221265e-01 2.27721766e-01 2.28222266e-01 2.28722766e-01 2.29223281e-01 2.29723781e-01 2.30224282e-01 2.30724782e-01 2.31225297e-01 2.31725797e-01 2.32226297e-01 2.32726812e-01 2.33227313e-01 2.33727813e-01 2.34228313e-01 2.34728828e-01 2.35229328e-01 2.35729828e-01 2.36230344e-01 2.36730844e-01 2.37231344e-01 2.37731844e-01 2.38232359e-01 2.38732859e-01 2.39233360e-01 2.39733875e-01 2.40234375e-01 2.40734875e-01 2.41235375e-01 2.41735891e-01 2.42236391e-01 2.42736891e-01 2.43237391e-01 2.43737906e-01 2.44238406e-01 2.44738907e-01 2.45239422e-01 2.45739922e-01 2.46240422e-01 2.46740922e-01 2.47241437e-01 2.47741938e-01 2.48242438e-01 2.48742953e-01 2.49243453e-01 2.49743953e-01 2.50244468e-01 2.50744969e-01 2.51245469e-01 2.51745969e-01 2.52246469e-01 2.52746969e-01 2.53247499e-01 2.53748000e-01 2.54248500e-01 2.54749000e-01 2.55249500e-01 2.55750000e-01 2.56250501e-01 2.56751031e-01 2.57251531e-01 2.57752031e-01 2.58252531e-01 2.58753031e-01 2.59253532e-01 2.59754032e-01 2.60254532e-01 2.60755062e-01 2.61255562e-01 2.61756063e-01 2.62256563e-01 2.62757063e-01 2.63257563e-01 2.63758063e-01 2.64258593e-01 2.64759094e-01 2.65259594e-01 2.65760094e-01 2.66260594e-01 2.66761094e-01 2.67261595e-01 2.67762125e-01 2.68262625e-01 2.68763125e-01 2.69263625e-01 2.69764125e-01 2.70264626e-01 2.70765126e-01 2.71265656e-01 2.71766156e-01 2.72266656e-01 2.72767156e-01 2.73267657e-01 2.73768157e-01 2.74268657e-01 2.74769187e-01 2.75269687e-01 2.75770187e-01 2.76270688e-01 2.76771188e-01 2.77271688e-01 2.77772188e-01 2.78272718e-01 2.78773218e-01 2.79273719e-01 2.79774219e-01 2.80274719e-01 2.80775219e-01 2.81275719e-01 2.81776220e-01 2.82276750e-01 2.82777250e-01 2.83277750e-01 2.83778250e-01 2.84278750e-01 2.84779251e-01 2.85279751e-01 2.85780281e-01 2.86280781e-01 2.86781281e-01 2.87281781e-01 2.87782282e-01 2.88282782e-01 2.88783282e-01 2.89283812e-01 2.89784312e-01 2.90284812e-01 2.90785313e-01 2.91285813e-01 2.91786313e-01 2.92286813e-01 2.92787343e-01 2.93287843e-01 2.93788344e-01 2.94288844e-01 2.94789344e-01 2.95289844e-01 2.95790344e-01 2.96290874e-01 2.96791375e-01 2.97291875e-01 2.97792375e-01 2.98292875e-01 2.98793375e-01 2.99293876e-01 2.99794406e-01 3.00294906e-01 3.00795406e-01 3.01295906e-01 3.01796407e-01 3.02296907e-01 3.02797407e-01 3.03297937e-01 3.03798437e-01 3.04298937e-01 3.04799438e-01 3.05299938e-01 3.05800438e-01 3.06300938e-01 3.06801438e-01 3.07301968e-01 3.07802469e-01 3.08302969e-01 3.08803469e-01 3.09303969e-01 3.09804469e-01 3.10304970e-01 3.10805500e-01 3.11306000e-01 3.11806500e-01 3.12307000e-01 3.12807500e-01 3.13308001e-01 3.13808501e-01 3.14309031e-01 3.14809531e-01 3.15310031e-01 3.15810531e-01 3.16311032e-01 3.16811532e-01 3.17312032e-01 3.17812562e-01 3.18313062e-01 3.18813562e-01 3.19314063e-01 3.19814563e-01 3.20315063e-01 3.20815563e-01 3.21316093e-01 3.21816593e-01 3.22317094e-01 3.22817594e-01 3.23318094e-01 3.23818594e-01 3.24319094e-01 3.24819624e-01 3.25320125e-01 3.25820625e-01 3.26321125e-01 3.26821625e-01 3.27322125e-01 3.27822626e-01 3.28323126e-01 3.28823656e-01 3.29324156e-01 3.29824656e-01 3.30325156e-01 3.30825657e-01 3.31326157e-01 3.31826657e-01 3.32327187e-01 3.32827687e-01 3.33328187e-01 3.33828688e-01 3.34329188e-01 3.34829688e-01 3.35330188e-01 3.35830718e-01 3.36331218e-01 3.36831719e-01 3.37332219e-01 3.37832719e-01 3.38333219e-01 3.38833719e-01 3.39334249e-01 3.39834750e-01 3.40335250e-01 3.40835750e-01 3.41336250e-01 3.41836751e-01 3.42337251e-01 3.42837781e-01 3.43338281e-01 3.43838781e-01 3.44339281e-01 3.44839782e-01 3.45340282e-01 3.45840782e-01 3.46341312e-01 3.46841812e-01 3.47342312e-01 3.47842813e-01 3.48343313e-01 3.48843813e-01 3.49344313e-01 3.49844813e-01 3.50345343e-01 3.50845844e-01 3.51346344e-01 3.51846844e-01 3.52347344e-01 3.52847844e-01 3.53348345e-01 3.53848875e-01 3.54349375e-01 3.54849875e-01 3.55350375e-01 3.55850875e-01 3.56351376e-01 3.56851876e-01 3.57352406e-01 3.57852906e-01 3.58353406e-01 3.58853906e-01 3.59354407e-01 3.59854907e-01 3.60355407e-01 3.60855937e-01 3.61356437e-01 3.61856937e-01 3.62357438e-01 3.62857938e-01 3.63358438e-01 3.63858938e-01 3.64359468e-01 3.64859968e-01 3.65360469e-01 3.65860969e-01 3.66361469e-01 3.66861969e-01 3.67362469e-01 3.67862999e-01 3.68363500e-01 3.68864000e-01 3.69364500e-01 3.69865000e-01 3.70365500e-01 3.70866001e-01 3.71366531e-01 3.71867031e-01 3.72367531e-01 3.72868031e-01 3.73368531e-01 3.73869032e-01 3.74369532e-01 3.74870032e-01 3.75370562e-01 3.75871062e-01 3.76371562e-01 3.76872063e-01 3.77372563e-01 3.77873063e-01 3.78373563e-01 3.78874093e-01 3.79374593e-01 3.79875094e-01 3.80375594e-01 3.80876094e-01 3.81376594e-01 3.81877095e-01 3.82377625e-01 3.82878125e-01 3.83378625e-01 3.83879125e-01 3.84379625e-01 3.84880126e-01 3.85380626e-01 3.85881156e-01 3.86381656e-01 3.86882156e-01 3.87382656e-01 3.87883157e-01 3.88383657e-01 3.88884157e-01 3.89384687e-01 3.89885187e-01 3.90385687e-01 3.90886188e-01 3.91386688e-01 3.91887188e-01 3.92387688e-01 3.92888218e-01 3.93388718e-01 3.93889219e-01 3.94389719e-01 3.94890219e-01 3.95390719e-01 3.95891219e-01 3.96391720e-01 3.96892250e-01 3.97392750e-01 3.97893250e-01 3.98393750e-01 3.98894250e-01 3.99394751e-01 3.99895251e-01 4.00395781e-01 4.00896281e-01 4.01396781e-01 4.01897281e-01 4.02397782e-01 4.02898282e-01 4.03398782e-01 4.03899312e-01 4.04399812e-01 4.04900312e-01 4.05400813e-01 4.05901313e-01 4.06401813e-01 4.06902313e-01 4.07402843e-01 4.07903343e-01 4.08403844e-01 4.08904344e-01 4.09404844e-01 4.09905344e-01 4.10405844e-01 4.10906374e-01 4.11406875e-01 4.11907375e-01 4.12407875e-01 4.12908375e-01 4.13408875e-01 4.13909376e-01 4.14409906e-01 4.14910406e-01 4.15410906e-01 4.15911406e-01 4.16411906e-01 4.16912407e-01 4.17412907e-01 4.17913437e-01 4.18413937e-01 4.18914437e-01 4.19414937e-01 4.19915438e-01 4.20415938e-01 4.20916438e-01 4.21416938e-01 4.21917468e-01 4.22417969e-01 4.22918469e-01 4.23418969e-01 4.23919469e-01 4.24419969e-01 4.24920470e-01 4.25421000e-01 4.25921500e-01 4.26422000e-01 4.26922500e-01 4.27423000e-01 4.27923501e-01 4.28424001e-01 4.28924531e-01 4.29425031e-01 4.29925531e-01 4.30426031e-01 4.30926532e-01 4.31427032e-01 4.31927532e-01 4.32428062e-01 4.32928562e-01 4.33429062e-01 4.33929563e-01 4.34430063e-01 4.34930563e-01 4.35431063e-01 4.35931593e-01 4.36432093e-01 4.36932594e-01 4.37433094e-01 4.37933594e-01 4.38434094e-01 4.38934594e-01 4.39435124e-01 4.39935625e-01 4.40436125e-01 4.40936625e-01 4.41437125e-01 4.41937625e-01 4.42438126e-01 4.42938626e-01 4.43439156e-01 4.43939656e-01 4.44440156e-01 4.44940656e-01 4.45441157e-01 4.45941657e-01 4.46442157e-01 4.46942687e-01 4.47443187e-01 4.47943687e-01 4.48444188e-01 4.48944688e-01 4.49445188e-01 4.49945688e-01 4.50446218e-01 4.50946718e-01 4.51447219e-01 4.51947719e-01 4.52448219e-01 4.52948719e-01 4.53449219e-01 4.53949749e-01 4.54450250e-01 4.54950750e-01 4.55451250e-01 4.55951750e-01 4.56452250e-01 4.56952751e-01 4.57453281e-01 4.57953781e-01 4.58454281e-01 4.58954781e-01 4.59455281e-01 4.59955782e-01 4.60456282e-01 4.60956812e-01 4.61457312e-01 4.61957812e-01 4.62458313e-01 4.62958813e-01 4.63459313e-01 4.63959813e-01 4.64460313e-01 4.64960843e-01 4.65461344e-01 4.65961844e-01 4.66462344e-01 4.66962844e-01 4.67463344e-01 4.67963845e-01 4.68464375e-01 4.68964875e-01 4.69465375e-01 4.69965875e-01 4.70466375e-01 4.70966876e-01 4.71467376e-01 4.71967906e-01 4.72468406e-01 4.72968906e-01 4.73469406e-01 4.73969907e-01 4.74470407e-01 4.74970907e-01 4.75471437e-01 4.75971937e-01 4.76472437e-01 4.76972938e-01 4.77473438e-01 4.77973938e-01 4.78474438e-01 4.78974968e-01 4.79475468e-01 4.79975969e-01 4.80476469e-01 4.80976969e-01 4.81477469e-01 4.81977969e-01 4.82478499e-01 4.82979000e-01 4.83479500e-01 4.83980000e-01 4.84480500e-01 4.84981000e-01 4.85481501e-01 4.85982031e-01 4.86482531e-01 4.86983031e-01 4.87483531e-01 4.87984031e-01 4.88484532e-01 4.88985032e-01 4.89485532e-01 4.89986062e-01 4.90486562e-01 4.90987062e-01 4.91487563e-01 4.91988063e-01 4.92488563e-01 4.92989063e-01 4.93489593e-01 4.93990093e-01 4.94490594e-01 4.94991094e-01 4.95491594e-01 4.95992094e-01 4.96492594e-01 4.96993124e-01 4.97493625e-01 4.97994125e-01 4.98494625e-01 4.98995125e-01 4.99495625e-01 4.99996126e-01 5.00496626e-01 5.00997126e-01 5.01497626e-01 5.01998127e-01 5.02498686e-01 5.02999187e-01 5.03499687e-01 5.04000187e-01 5.04500687e-01 5.05001187e-01 5.05501688e-01 5.06002188e-01 5.06502688e-01 5.07003188e-01 5.07503688e-01 5.08004189e-01 5.08504689e-01 5.09005189e-01 5.09505749e-01 5.10006249e-01 5.10506749e-01 5.11007249e-01 5.11507750e-01 5.12008250e-01 5.12508750e-01 5.13009250e-01 5.13509750e-01 5.14010251e-01 5.14510751e-01 5.15011251e-01 5.15511751e-01 5.16012251e-01 5.16512811e-01 5.17013311e-01 5.17513812e-01 5.18014312e-01 5.18514812e-01 5.19015312e-01 5.19515812e-01 5.20016313e-01 5.20516813e-01 5.21017313e-01 5.21517813e-01 5.22018313e-01 5.22518814e-01 5.23019314e-01 5.23519814e-01 5.24020374e-01 5.24520874e-01 5.25021374e-01 5.25521874e-01 5.26022375e-01 5.26522875e-01 5.27023375e-01 5.27523875e-01 5.28024375e-01 5.28524876e-01 5.29025376e-01 5.29525876e-01 5.30026376e-01 5.30526876e-01 5.31027436e-01 5.31527936e-01 5.32028437e-01 5.32528937e-01 5.33029437e-01 5.33529937e-01 5.34030437e-01 5.34530938e-01 5.35031438e-01 5.35531938e-01 5.36032438e-01 5.36532938e-01 5.37033439e-01 5.37533939e-01 5.38034499e-01 5.38534999e-01 5.39035499e-01 5.39535999e-01 5.40036500e-01 5.40537000e-01 5.41037500e-01 5.41538000e-01 5.42038500e-01 5.42539001e-01 5.43039501e-01 5.43540001e-01 5.44040501e-01 5.44541001e-01 5.45041502e-01 5.45542061e-01 5.46042562e-01 5.46543062e-01 5.47043562e-01 5.47544062e-01 5.48044562e-01 5.48545063e-01 5.49045563e-01 5.49546063e-01 5.50046563e-01 5.50547063e-01 5.51047564e-01 5.51548064e-01 5.52048564e-01 5.52549124e-01 5.53049624e-01 5.53550124e-01 5.54050624e-01 5.54551125e-01 5.55051625e-01 5.55552125e-01 5.56052625e-01 5.56553125e-01 5.57053626e-01 5.57554126e-01 5.58054626e-01 5.58555126e-01 5.59055626e-01 5.59556186e-01 5.60056686e-01 5.60557187e-01 5.61057687e-01 5.61558187e-01 5.62058687e-01 5.62559187e-01 5.63059688e-01 5.63560188e-01 5.64060688e-01 5.64561188e-01 5.65061688e-01 5.65562189e-01 5.66062689e-01 5.66563189e-01 5.67063749e-01 5.67564249e-01 5.68064749e-01 5.68565249e-01 5.69065750e-01 5.69566250e-01 5.70066750e-01 5.70567250e-01 5.71067750e-01 5.71568251e-01 5.72068751e-01 5.72569251e-01 5.73069751e-01 5.73570251e-01 5.74070811e-01 5.74571311e-01 5.75071812e-01 5.75572312e-01 5.76072812e-01 5.76573312e-01 5.77073812e-01 5.77574313e-01 5.78074813e-01 5.78575313e-01 5.79075813e-01 5.79576313e-01 5.80076814e-01 5.80577314e-01 5.81077874e-01 5.81578374e-01 5.82078874e-01 5.82579374e-01 5.83079875e-01 5.83580375e-01 5.84080875e-01 5.84581375e-01 5.85081875e-01 5.85582376e-01 5.86082876e-01 5.86583376e-01 5.87083876e-01 5.87584376e-01 5.88084936e-01 5.88585436e-01 5.89085937e-01 5.89586437e-01 5.90086937e-01 5.90587437e-01 5.91087937e-01 5.91588438e-01 5.92088938e-01 5.92589438e-01 5.93089938e-01 5.93590438e-01 5.94090939e-01 5.94591439e-01 5.95091939e-01 5.95592499e-01 5.96092999e-01 5.96593499e-01 5.97093999e-01 5.97594500e-01 5.98095000e-01 5.98595500e-01 5.99096000e-01 5.99596500e-01 6.00097001e-01 6.00597501e-01 6.01098001e-01 6.01598501e-01 6.02099001e-01 6.02599561e-01 6.03100061e-01 6.03600562e-01 6.04101062e-01 6.04601562e-01 6.05102062e-01 6.05602562e-01 6.06103063e-01 6.06603563e-01 6.07104063e-01 6.07604563e-01 6.08105063e-01 6.08605564e-01 6.09106064e-01 6.09606624e-01 6.10107124e-01 6.10607624e-01 6.11108124e-01 6.11608624e-01 6.12109125e-01 6.12609625e-01 6.13110125e-01 6.13610625e-01 6.14111125e-01 6.14611626e-01 6.15112126e-01 6.15612626e-01 6.16113126e-01 6.16613626e-01 6.17114186e-01 6.17614686e-01 6.18115187e-01 6.18615687e-01 6.19116187e-01 6.19616687e-01 6.20117188e-01 6.20617688e-01 6.21118188e-01 6.21618688e-01 6.22119188e-01 6.22619689e-01 6.23120189e-01 6.23620689e-01 6.24121249e-01 6.24621749e-01 6.25122249e-01 6.25622749e-01 6.26123250e-01 6.26623750e-01 6.27124250e-01 6.27624750e-01 6.28125250e-01 6.28625751e-01 6.29126251e-01 6.29626751e-01 6.30127251e-01 6.30627751e-01 6.31128311e-01 6.31628811e-01 6.32129312e-01 6.32629812e-01 6.33130312e-01 6.33630812e-01 6.34131312e-01 6.34631813e-01 6.35132313e-01 6.35632813e-01 6.36133313e-01 6.36633813e-01 6.37134314e-01 6.37634814e-01 6.38135314e-01 6.38635874e-01 6.39136374e-01 6.39636874e-01 6.40137374e-01 6.40637875e-01 6.41138375e-01 6.41638875e-01 6.42139375e-01 6.42639875e-01 6.43140376e-01 6.43640876e-01 6.44141376e-01 6.44641876e-01 6.45142376e-01 6.45642936e-01 6.46143436e-01 6.46643937e-01 6.47144437e-01 6.47644937e-01 6.48145437e-01 6.48645937e-01 6.49146438e-01 6.49646938e-01 6.50147438e-01 6.50647938e-01 6.51148438e-01 6.51648939e-01 6.52149439e-01 6.52649999e-01 6.53150499e-01 6.53650999e-01 6.54151499e-01 6.54651999e-01 6.55152500e-01 6.55653000e-01 6.56153500e-01 6.56654000e-01 6.57154500e-01 6.57655001e-01 6.58155501e-01 6.58656001e-01 6.59156501e-01 6.59657001e-01 6.60157561e-01 6.60658062e-01 6.61158562e-01 6.61659062e-01 6.62159562e-01 6.62660062e-01 6.63160563e-01 6.63661063e-01 6.64161563e-01 6.64662063e-01 6.65162563e-01 6.65663064e-01 6.66163564e-01 6.66664064e-01 6.67164624e-01 6.67665124e-01 6.68165624e-01 6.68666124e-01 6.69166625e-01 6.69667125e-01 6.70167625e-01 6.70668125e-01 6.71168625e-01 6.71669126e-01 6.72169626e-01 6.72670126e-01 6.73170626e-01 6.73671126e-01 6.74171686e-01 6.74672186e-01 6.75172687e-01 6.75673187e-01 6.76173687e-01 6.76674187e-01 6.77174687e-01 6.77675188e-01 6.78175688e-01 6.78676188e-01 6.79176688e-01 6.79677188e-01 6.80177689e-01 6.80678189e-01 6.81178689e-01 6.81679249e-01 6.82179749e-01 6.82680249e-01 6.83180749e-01 6.83681250e-01 6.84181750e-01 6.84682250e-01 6.85182750e-01 6.85683250e-01 6.86183751e-01 6.86684251e-01 6.87184751e-01 6.87685251e-01 6.88185751e-01 6.88686311e-01 6.89186811e-01 6.89687312e-01 6.90187812e-01 6.90688312e-01 6.91188812e-01 6.91689312e-01 6.92189813e-01 6.92690313e-01 6.93190813e-01 6.93691313e-01 6.94191813e-01 6.94692314e-01 6.95192814e-01 6.95693374e-01 6.96193874e-01 6.96694374e-01 6.97194874e-01 6.97695374e-01 6.98195875e-01 6.98696375e-01 6.99196875e-01 6.99697375e-01 7.00197875e-01 7.00698376e-01 7.01198876e-01 7.01699376e-01 7.02199876e-01 7.02700436e-01 7.03200936e-01 7.03701437e-01 7.04201937e-01 7.04702437e-01 7.05202937e-01 7.05703437e-01 7.06203938e-01 7.06704438e-01 7.07204938e-01 7.07705438e-01 7.08205938e-01 7.08706439e-01 7.09206939e-01 7.09707439e-01 7.10207999e-01 7.10708499e-01 7.11208999e-01 7.11709499e-01 7.12210000e-01 7.12710500e-01 7.13211000e-01 7.13711500e-01 7.14212000e-01 7.14712501e-01 7.15213001e-01 7.15713501e-01 7.16214001e-01 7.16714501e-01 7.17215061e-01 7.17715561e-01 7.18216062e-01 7.18716562e-01 7.19217062e-01 7.19717562e-01 7.20218062e-01 7.20718563e-01 7.21219063e-01 7.21719563e-01 7.22220063e-01 7.22720563e-01 7.23221064e-01 7.23721564e-01 7.24222124e-01 7.24722624e-01 7.25223124e-01 7.25723624e-01 7.26224124e-01 7.26724625e-01 7.27225125e-01 7.27725625e-01 7.28226125e-01 7.28726625e-01 7.29227126e-01 7.29727626e-01 7.30228126e-01 7.30728626e-01 7.31229126e-01 7.31729686e-01 7.32230186e-01 7.32730687e-01 7.33231187e-01 7.33731687e-01 7.34232187e-01 7.34732687e-01 7.35233188e-01 7.35733688e-01 7.36234188e-01 7.36734688e-01 7.37235188e-01 7.37735689e-01 7.38236189e-01 7.38736749e-01 7.39237249e-01 7.39737749e-01 7.40238249e-01 7.40738750e-01 7.41239250e-01 7.41739750e-01 7.42240250e-01 7.42740750e-01 7.43241251e-01 7.43741751e-01 7.44242251e-01 7.44742751e-01 7.45243251e-01 7.45743811e-01 7.46244311e-01 7.46744812e-01 7.47245312e-01 7.47745812e-01 7.48246312e-01 7.48746812e-01 7.49247313e-01 7.49747813e-01 7.50248313e-01 7.50748813e-01 7.51249313e-01 7.51749814e-01 7.52250314e-01 7.52750814e-01 7.53251374e-01 7.53751874e-01 7.54252374e-01 7.54752874e-01 7.55253375e-01 7.55753875e-01 7.56254375e-01 7.56754875e-01 7.57255375e-01 7.57755876e-01 7.58256376e-01 7.58756876e-01 7.59257376e-01 7.59757876e-01 7.60258436e-01 7.60758936e-01 7.61259437e-01 7.61759937e-01 7.62260437e-01 7.62760937e-01 7.63261437e-01 7.63761938e-01 7.64262438e-01 7.64762938e-01 7.65263438e-01 7.65763938e-01 7.66264439e-01 7.66764939e-01 7.67265499e-01 7.67765999e-01 7.68266499e-01 7.68766999e-01 7.69267499e-01 7.69768000e-01 7.70268500e-01 7.70769000e-01 7.71269500e-01 7.71770000e-01 7.72270501e-01 7.72771001e-01 7.73271501e-01 7.73772001e-01 7.74272501e-01 7.74773061e-01 7.75273561e-01 7.75774062e-01 7.76274562e-01 7.76775062e-01 7.77275562e-01 7.77776062e-01 7.78276563e-01 7.78777063e-01 7.79277563e-01 7.79778063e-01 7.80278563e-01 7.80779064e-01 7.81279564e-01 7.81780124e-01 7.82280624e-01 7.82781124e-01 7.83281624e-01 7.83782125e-01 7.84282625e-01 7.84783125e-01 7.85283625e-01 7.85784125e-01 7.86284626e-01 7.86785126e-01 7.87285626e-01 7.87786126e-01 7.88286626e-01 7.88787186e-01 7.89287686e-01 7.89788187e-01 7.90288687e-01 7.90789187e-01 7.91289687e-01 7.91790187e-01 7.92290688e-01 7.92791188e-01 7.93291688e-01 7.93792188e-01 7.94292688e-01 7.94793189e-01 7.95293689e-01 7.95794189e-01 7.96294749e-01 7.96795249e-01 7.97295749e-01 7.97796249e-01 7.98296750e-01 7.98797250e-01 7.99297750e-01 7.99798250e-01 8.00298750e-01 8.00799251e-01 8.01299751e-01 8.01800251e-01 8.02300751e-01 8.02801251e-01 8.03301811e-01 8.03802311e-01 8.04302812e-01 8.04803312e-01 8.05303812e-01 8.05804312e-01 8.06304812e-01 8.06805313e-01 8.07305813e-01 8.07806313e-01 8.08306813e-01 8.08807313e-01 8.09307814e-01 8.09808314e-01 8.10308874e-01 8.10809374e-01 8.11309874e-01 8.11810374e-01 8.12310874e-01 8.12811375e-01 8.13311875e-01 8.13812375e-01 8.14312875e-01 8.14813375e-01 8.15313876e-01 8.15814376e-01 8.16314876e-01 8.16815376e-01 8.17315936e-01 8.17816436e-01 8.18316936e-01 8.18817437e-01 8.19317937e-01 8.19818437e-01 8.20318937e-01 8.20819438e-01 8.21319938e-01 8.21820438e-01 8.22320938e-01 8.22821438e-01 8.23321939e-01 8.23822439e-01 8.24322939e-01 8.24823499e-01 8.25323999e-01 8.25824499e-01 8.26324999e-01 8.26825500e-01 8.27326000e-01 8.27826500e-01 8.28327000e-01 8.28827500e-01 8.29328001e-01 8.29828501e-01 8.30329001e-01 8.30829501e-01 8.31330001e-01 8.31830561e-01 8.32331061e-01 8.32831562e-01 8.33332062e-01 8.33832562e-01 8.34333062e-01 8.34833562e-01 8.35334063e-01 8.35834563e-01 8.36335063e-01 8.36835563e-01 8.37336063e-01 8.37836564e-01 8.38337064e-01 8.38837624e-01 8.39338124e-01 8.39838624e-01 8.40339124e-01 8.40839624e-01 8.41340125e-01 8.41840625e-01 8.42341125e-01 8.42841625e-01 8.43342125e-01 8.43842626e-01 8.44343126e-01 8.44843626e-01 8.45344126e-01 8.45844626e-01 8.46345186e-01 8.46845686e-01 8.47346187e-01 8.47846687e-01 8.48347187e-01 8.48847687e-01 8.49348187e-01 8.49848688e-01 8.50349188e-01 8.50849688e-01 8.51350188e-01 8.51850688e-01 8.52351189e-01 8.52851689e-01 8.53352249e-01 8.53852749e-01 8.54353249e-01 8.54853749e-01 8.55354249e-01 8.55854750e-01 8.56355250e-01 8.56855750e-01 8.57356250e-01 8.57856750e-01 8.58357251e-01 8.58857751e-01 8.59358251e-01 8.59858751e-01 8.60359311e-01 8.60859811e-01 8.61360312e-01 8.61860812e-01 8.62361312e-01 8.62861812e-01 8.63362312e-01 8.63862813e-01 8.64363313e-01 8.64863813e-01 8.65364313e-01 8.65864813e-01 8.66365314e-01 8.66865814e-01 8.67366314e-01 8.67866874e-01 8.68367374e-01 8.68867874e-01 8.69368374e-01 8.69868875e-01 8.70369375e-01 8.70869875e-01 8.71370375e-01 8.71870875e-01 8.72371376e-01 8.72871876e-01 8.73372376e-01 8.73872876e-01 8.74373376e-01 8.74873936e-01 8.75374436e-01 8.75874937e-01 8.76375437e-01 8.76875937e-01 8.77376437e-01 8.77876937e-01 8.78377438e-01 8.78877938e-01 8.79378438e-01 8.79878938e-01 8.80379438e-01 8.80879939e-01 8.81380439e-01 8.81880999e-01 8.82381499e-01 8.82881999e-01 8.83382499e-01 8.83882999e-01 8.84383500e-01 8.84884000e-01 8.85384500e-01 8.85885000e-01 8.86385500e-01 8.86886001e-01 8.87386501e-01 8.87887001e-01 8.88387501e-01 8.88888001e-01 8.89388561e-01 8.89889061e-01 8.90389562e-01 8.90890062e-01 8.91390562e-01 8.91891062e-01 8.92391562e-01 8.92892063e-01 8.93392563e-01 8.93893063e-01 8.94393563e-01 8.94894063e-01 8.95394564e-01 8.95895064e-01 8.96395624e-01 8.96896124e-01 8.97396624e-01 8.97897124e-01 8.98397624e-01 8.98898125e-01 8.99398625e-01 8.99899125e-01 9.00399625e-01 9.00900126e-01 9.01400626e-01 9.01901126e-01 9.02401626e-01 9.02902126e-01 9.03402686e-01 9.03903186e-01 9.04403687e-01 9.04904187e-01 9.05404687e-01 9.05905187e-01 9.06405687e-01 9.06906188e-01 9.07406688e-01 9.07907188e-01 9.08407688e-01 9.08908188e-01 9.09408689e-01 9.09909189e-01 9.10409689e-01 9.10910249e-01 9.11410749e-01 9.11911249e-01 9.12411749e-01 9.12912250e-01 9.13412750e-01 9.13913250e-01 9.14413750e-01 9.14914250e-01 9.15414751e-01 9.15915251e-01 9.16415751e-01 9.16916251e-01 9.17416751e-01 9.17917311e-01 9.18417811e-01 9.18918312e-01 9.19418812e-01 9.19919312e-01 9.20419812e-01 9.20920312e-01 9.21420813e-01 9.21921313e-01 9.22421813e-01 9.22922313e-01 9.23422813e-01 9.23923314e-01 9.24423814e-01 9.24924374e-01 9.25424874e-01 9.25925374e-01 9.26425874e-01 9.26926374e-01 9.27426875e-01 9.27927375e-01 9.28427875e-01 9.28928375e-01 9.29428875e-01 9.29929376e-01 9.30429876e-01 9.30930376e-01 9.31430876e-01 9.31931376e-01 9.32431936e-01 9.32932436e-01 9.33432937e-01 9.33933437e-01 9.34433937e-01 9.34934437e-01 9.35434937e-01 9.35935438e-01 9.36435938e-01 9.36936438e-01 9.37436938e-01 9.37937438e-01 9.38437939e-01 9.38938439e-01 9.39438999e-01 9.39939499e-01 9.40439999e-01 9.40940499e-01 9.41441000e-01 9.41941500e-01 9.42442000e-01 9.42942500e-01 9.43443000e-01 9.43943501e-01 9.44444001e-01 9.44944501e-01 9.45445001e-01 9.45945501e-01 9.46446061e-01 9.46946561e-01 9.47447062e-01 9.47947562e-01 9.48448062e-01 9.48948562e-01 9.49449062e-01 9.49949563e-01 9.50450063e-01 9.50950563e-01 9.51451063e-01 9.51951563e-01 9.52452064e-01 9.52952564e-01 9.53453124e-01 9.53953624e-01 9.54454124e-01 9.54954624e-01 9.55455124e-01 9.55955625e-01 9.56456125e-01 9.56956625e-01 9.57457125e-01 9.57957625e-01 9.58458126e-01 9.58958626e-01 9.59459126e-01 9.59959626e-01 9.60460126e-01 9.60960686e-01 9.61461186e-01 9.61961687e-01 9.62462187e-01 9.62962687e-01 9.63463187e-01 9.63963687e-01 9.64464188e-01 9.64964688e-01 9.65465188e-01 9.65965688e-01 9.66466188e-01 9.66966689e-01 9.67467189e-01 9.67967749e-01 9.68468249e-01 9.68968749e-01 9.69469249e-01 9.69969749e-01 9.70470250e-01 9.70970750e-01 9.71471250e-01 9.71971750e-01 9.72472250e-01 9.72972751e-01 9.73473251e-01 9.73973751e-01 9.74474251e-01 9.74974811e-01 9.75475311e-01 9.75975811e-01 9.76476312e-01 9.76976812e-01 9.77477312e-01 9.77977812e-01 9.78478312e-01 9.78978813e-01 9.79479313e-01 9.79979813e-01 9.80480313e-01 9.80980814e-01 9.81481314e-01 9.81981814e-01 9.82482374e-01 9.82982874e-01 9.83483374e-01 9.83983874e-01 9.84484375e-01 9.84984875e-01 9.85485375e-01 9.85985875e-01 9.86486375e-01 9.86986876e-01 9.87487376e-01 9.87987876e-01 9.88488376e-01 9.88988876e-01 9.89489436e-01 9.89989936e-01 9.90490437e-01 9.90990937e-01 9.91491437e-01 9.91991937e-01 9.92492437e-01 9.92992938e-01 9.93493438e-01 9.93993938e-01 9.94494438e-01 9.94994938e-01 9.95495439e-01 9.95995939e-01 9.96496499e-01 9.96996999e-01 9.97497499e-01 9.97997999e-01 9.98498499e-01 9.98999000e-01 9.99499500e-01 1.00000000e+00 
            </Histogram>
            <HistogramBinning NBins="1998">
              -4.08702750e+06 -4.08702750e+06 -6.98005420e+03 -3.40991138e+03 -2.23469434e+03 -1.66120886e+03 -1.34086804e+03 -1.10300574e+03 -9.35780518e+02 -8.13886230e+02 -7.11419678e+02 -6.33071899e+02 -5.66529602e+02 -5.18358398e+02 -4.69536682e+02 -4.30433685e+02 -3.95022858e+02 -3.63893982e+02 -3.37815002e+02 -3.12658447e+02 -2.93457275e+02 -2.73944153e+02 -2.55822952e+02 -2.39310974e+02 -2.24610214e+02 -2.09310654e+02 -1.94400238e+02 -1.81742493e+02 -1.70070526e+02 -1.58492493e+02 -1.48488876e+02 -1.37183945e+02 -1.26920715e+02 -1.17694023e+02 -1.08779526e+02 -1.00035019e+02 -9.11435165e+01 -8.38271561e+01 -7.66017227e+01 -6.95365372e+01 -6.33561974e+01 -5.75436935e+01 -5.27726173e+01 -4.80886688e+01 -4.40387383e+01 -4.05264435e+01 -3.76922150e+01 -3.54969559e+01 -3.39366531e+01 -3.29609184e+01 -3.22293930e+01 -3.15658112e+01 -3.08922310e+01 -3.03333473e+01 -2.97521420e+01 -2.92111301e+01 -2.87013130e+01 -2.81788177e+01 -2.76865215e+01 -2.71944675e+01 -2.67514381e+01 -2.63340321e+01 -2.59050655e+01 -2.54872627e+01 -2.50657234e+01 -2.46771488e+01 -2.42994595e+01 -2.39609547e+01 -2.35916767e+01 -2.32461796e+01 -2.29040298e+01 -2.25820274e+01 -2.22732754e+01 -2.19764576e+01 -2.16770725e+01 -2.14135418e+01 -2.11176929e+01 -2.08360748e+01 -2.05655899e+01 -2.03062592e+01 -2.00441208e+01 -1.97786903e+01 -1.95380230e+01 -1.92984161e+01 -1.90649071e+01 -1.88261890e+01 -1.85895176e+01 -1.83635139e+01 -1.81485786e+01 -1.79304276e+01 -1.77255154e+01 -1.75157509e+01 -1.72949886e+01 -1.70898342e+01 -1.68983345e+01 -1.67218571e+01 -1.65193100e+01 -1.63123684e+01 -1.61154785e+01 -1.59337854e+01 -1.57503681e+01 -1.55824928e+01 -1.54124460e+01 -1.52456512e+01 -1.50871325e+01 -1.49158220e+01 -1.47500525e+01 -1.45798550e+01 -1.44147758e+01 -1.42519712e+01 -1.40966692e+01 -1.39499388e+01 -1.38107395e+01 -1.36741695e+01 -1.35435438e+01 -1.34039907e+01 -1.32658148e+01 -1.31291714e+01 -1.30025320e+01 -1.28670950e+01 -1.27373915e+01 -1.25979528e+01 -1.24669647e+01 -1.23395815e+01 -1.22156086e+01 -1.20895405e+01 -1.19657383e+01 -1.18504648e+01 -1.17354460e+01 -1.16250458e+01 -1.15132008e+01 -1.14058189e+01 -1.12870178e+01 -1.11786861e+01 -1.10833397e+01 -1.09728765e+01 -1.08650713e+01 -1.07578793e+01 -1.06620970e+01 -1.05654688e+01 -1.04644012e+01 -1.03691139e+01 -1.02645874e+01 -1.01727438e+01 -1.00840235e+01 -9.99202061e+00 -9.90954494e+00 -9.82056427e+00 -9.73439312e+00 -9.64940643e+00 -9.56269169e+00 -9.47311020e+00 -9.38809776e+00 -9.29888248e+00 -9.21415997e+00 -9.13134003e+00 -9.04637623e+00 -8.96957207e+00 -8.89462662e+00 -8.81427383e+00 -8.73579121e+00 -8.65684414e+00 -8.58443642e+00 -8.51120090e+00 -8.43323135e+00 -8.35953140e+00 -8.28634548e+00 -8.21805859e+00 -8.14754009e+00 -8.08095360e+00 -8.01277733e+00 -7.94648743e+00 -7.87870216e+00 -7.81227207e+00 -7.74151087e+00 -7.67883587e+00 -7.61060953e+00 -7.54915524e+00 -7.48864222e+00 -7.42514420e+00 -7.36012745e+00 -7.29836988e+00 -7.24087763e+00 -7.17584419e+00 -7.12099123e+00 -7.06395483e+00 -7.00856018e+00 -6.95626450e+00 -6.90233231e+00 -6.84910965e+00 -6.79617786e+00 -6.74119139e+00 -6.68585825e+00 -6.63228798e+00 -6.57895660e+00 -6.52767944e+00 -6.47615862e+00 -6.42558861e+00 -6.37643337e+00 -6.32510662e+00 -6.27610970e+00 -6.22671318e+00 -6.17909765e+00 -6.12878799e+00 -6.08417845e+00 -6.04029226e+00 -5.99598217e+00 -5.95105982e+00 -5.90628338e+00 -5.86394167e+00 -5.81907320e+00 -5.77304888e+00 -5.72825480e+00 -5.68630648e+00 -5.64667559e+00 -5.60378933e+00 -5.55939865e+00 -5.51545763e+00 -5.47532558e+00 -5.43082666e+00 -5.39144707e+00 -5.35379982e+00 -5.31512547e+00 -5.27512264e+00 -5.23347569e+00 -5.19435501e+00 -5.15432692e+00 -5.11689806e+00 -5.07998848e+00 -5.04188967e+00 -5.00617599e+00 -4.96980810e+00 -4.93199158e+00 -4.89365435e+00 -4.85630894e+00 -4.82207918e+00 -4.78742552e+00 -4.75691843e+00 -4.72416973e+00 -4.69066954e+00 -4.65835238e+00 -4.62420082e+00 -4.58785439e+00 -4.55632257e+00 -4.52409935e+00 -4.49154091e+00 -4.45932198e+00 -4.43050623e+00 -4.39898634e+00 -4.36763668e+00 -4.33556414e+00 -4.30314922e+00 -4.27153683e+00 -4.24307823e+00 -4.21128130e+00 -4.18218470e+00 -4.15244627e+00 -4.12235546e+00 -4.09247637e+00 -4.06324434e+00 -4.03417492e+00 -4.00543070e+00 -3.97984910e+00 -3.95068264e+00 -3.92316389e+00 -3.89650822e+00 -3.86852837e+00 -3.84124494e+00 -3.81470156e+00 -3.79039216e+00 -3.76482916e+00 -3.73882413e+00 -3.71342325e+00 -3.68687654e+00 -3.66241050e+00 -3.63628817e+00 -3.61179614e+00 -3.58702970e+00 -3.56258965e+00 -3.53734636e+00 -3.51176000e+00 -3.48805976e+00 -3.46439958e+00 -3.44135690e+00 -3.41774750e+00 -3.39602447e+00 -3.37317014e+00 -3.35168552e+00 -3.32831120e+00 -3.30702567e+00 -3.28488708e+00 -3.26411700e+00 -3.24225664e+00 -3.22056389e+00 -3.19857216e+00 -3.17665935e+00 -3.15649796e+00 -3.13518643e+00 -3.11551619e+00 -3.09283996e+00 -3.07275033e+00 -3.05195832e+00 -3.03304219e+00 -3.01314235e+00 -2.99414468e+00 -2.97544098e+00 -2.95734715e+00 -2.93724704e+00 -2.91811609e+00 -2.90037942e+00 -2.88170528e+00 -2.86353755e+00 -2.84562945e+00 -2.82656217e+00 -2.80931783e+00 -2.79117656e+00 -2.77306819e+00 -2.75519657e+00 -2.73725462e+00 -2.71835423e+00 -2.70149779e+00 -2.68411660e+00 -2.66770530e+00 -2.65151453e+00 -2.63500595e+00 -2.61803174e+00 -2.60002732e+00 -2.58296800e+00 -2.56599641e+00 -2.54900026e+00 -2.53233266e+00 -2.51710773e+00 -2.50184703e+00 -2.48701549e+00 -2.47227597e+00 -2.45600867e+00 -2.44063926e+00 -2.42556953e+00 -2.41128159e+00 -2.39640236e+00 -2.38059258e+00 -2.36541080e+00 -2.35114717e+00 -2.33730149e+00 -2.32285190e+00 -2.30949807e+00 -2.29556847e+00 -2.28185773e+00 -2.26819491e+00 -2.25386834e+00 -2.24049211e+00 -2.22776937e+00 -2.21435285e+00 -2.20132518e+00 -2.18874407e+00 -2.17558217e+00 -2.16289520e+00 -2.15002131e+00 -2.13700962e+00 -2.12453556e+00 -2.11317086e+00 -2.10105228e+00 -2.08928680e+00 -2.07705474e+00 -2.06482196e+00 -2.05303025e+00 -2.04090810e+00 -2.02923131e+00 -2.01749372e+00 -2.00673223e+00 -1.99580884e+00 -1.98370063e+00 -1.97251856e+00 -1.96067762e+00 -1.94971693e+00 -1.93888676e+00 -1.92674637e+00 -1.91641569e+00 -1.90536761e+00 -1.89551187e+00 -1.88545001e+00 -1.87491739e+00 -1.86419868e+00 -1.85356307e+00 -1.84367537e+00 -1.83334517e+00 -1.82369328e+00 -1.81389534e+00 -1.80405390e+00 -1.79396152e+00 -1.78486061e+00 -1.77461398e+00 -1.76516330e+00 -1.75550139e+00 -1.74591219e+00 -1.73644233e+00 -1.72734547e+00 -1.71887243e+00 -1.70997632e+00 -1.70095754e+00 -1.69178855e+00 -1.68269157e+00 -1.67427278e+00 -1.66578472e+00 -1.65689886e+00 -1.64889598e+00 -1.64070892e+00 -1.63283432e+00 -1.62480342e+00 -1.61685765e+00 -1.60813880e+00 -1.60104549e+00 -1.59380841e+00 -1.58554327e+00 -1.57818735e+00 -1.57035410e+00 -1.56247175e+00 -1.55502486e+00 -1.54753947e+00 -1.53928864e+00 -1.53231704e+00 -1.52492642e+00 -1.51760089e+00 -1.51022351e+00 -1.50337791e+00 -1.49649572e+00 -1.48950744e+00 -1.48265553e+00 -1.47581124e+00 -1.46870923e+00 -1.46195412e+00 -1.45501781e+00 -1.44832397e+00 -1.44115019e+00 -1.43505561e+00 -1.42868257e+00 -1.42240202e+00 -1.41601634e+00 -1.40948415e+00 -1.40310311e+00 -1.39655697e+00 -1.39017642e+00 -1.38418758e+00 -1.37828565e+00 -1.37239027e+00 -1.36611664e+00 -1.35971975e+00 -1.35372829e+00 -1.34803355e+00 -1.34230578e+00 -1.33661079e+00 -1.33092868e+00 -1.32516944e+00 -1.31912804e+00 -1.31322098e+00 -1.30755115e+00 -1.30202103e+00 -1.29695308e+00 -1.29138958e+00 -1.28582799e+00 -1.28048182e+00 -1.27507198e+00 -1.26976681e+00 -1.26444602e+00 -1.25934923e+00 -1.25372016e+00 -1.24834669e+00 -1.24328661e+00 -1.23807192e+00 -1.23271143e+00 -1.22777748e+00 -1.22250450e+00 -1.21729171e+00 -1.21264017e+00 -1.20772457e+00 -1.20263100e+00 -1.19790339e+00 -1.19313061e+00 -1.18828785e+00 -1.18338060e+00 -1.17852926e+00 -1.17401314e+00 -1.16935599e+00 -1.16482484e+00 -1.16004360e+00 -1.15552926e+00 -1.15102065e+00 -1.14630675e+00 -1.14175439e+00 -1.13726974e+00 -1.13310182e+00 -1.12893987e+00 -1.12456632e+00 -1.12022078e+00 -1.11579084e+00 -1.11179709e+00 -1.10753131e+00 -1.10315514e+00 -1.09856665e+00 -1.09448373e+00 -1.09030795e+00 -1.08639872e+00 -1.08249772e+00 -1.07850194e+00 -1.07453167e+00 -1.07046461e+00 -1.06675029e+00 -1.06270301e+00 -1.05880523e+00 -1.05466318e+00 -1.05063212e+00 -1.04651284e+00 -1.04255605e+00 -1.03882885e+00 -1.03497314e+00 -1.03132260e+00 -1.02729785e+00 -1.02350795e+00 -1.01987600e+00 -1.01638639e+00 -1.01284027e+00 -1.00911570e+00 -1.00535715e+00 -1.00180936e+00 -9.98010159e-01 -9.94639933e-01 -9.91008878e-01 -9.87570822e-01 -9.83879030e-01 -9.80261505e-01 -9.76626873e-01 -9.73276556e-01 -9.69754517e-01 -9.66101706e-01 -9.63048935e-01 -9.59572256e-01 -9.56404269e-01 -9.53040361e-01 -9.49574232e-01 -9.46067631e-01 -9.42651033e-01 -9.39620912e-01 -9.36144173e-01 -9.32810426e-01 -9.29233074e-01 -9.26077783e-01 -9.23045218e-01 -9.19541419e-01 -9.16064680e-01 -9.13058162e-01 -9.09628272e-01 -9.06293690e-01 -9.03164327e-01 -8.99870574e-01 -8.96865666e-01 -8.93289864e-01 -8.90042186e-01 -8.87089849e-01 -8.83854210e-01 -8.80492687e-01 -8.77499402e-01 -8.74331474e-01 -8.71057391e-01 -8.67786825e-01 -8.64923298e-01 -8.62085998e-01 -8.59221816e-01 -8.56344402e-01 -8.53485286e-01 -8.50423157e-01 -8.47370923e-01 -8.44288945e-01 -8.41202497e-01 -8.38149905e-01 -8.35197568e-01 -8.32408965e-01 -8.29625905e-01 -8.26779425e-01 -8.23691487e-01 -8.20679128e-01 -8.17828357e-01 -8.15055549e-01 -8.12232494e-01 -8.09540868e-01 -8.06676030e-01 -8.03572118e-01 -8.00696313e-01 -7.97878623e-01 -7.95131087e-01 -7.92177618e-01 -7.89556146e-01 -7.86729515e-01 -7.83929646e-01 -7.81053841e-01 -7.78225303e-01 -7.75220215e-01 -7.72658348e-01 -7.69806385e-01 -7.67215490e-01 -7.64533937e-01 -7.61815608e-01 -7.59294510e-01 -7.56805182e-01 -7.53922760e-01 -7.51436472e-01 -7.48877645e-01 -7.46240318e-01 -7.43434906e-01 -7.40819156e-01 -7.38223851e-01 -7.35736489e-01 -7.33112156e-01 -7.30640888e-01 -7.28066266e-01 -7.25529671e-01 -7.23137081e-01 -7.20385194e-01 -7.17874944e-01 -7.15294600e-01 -7.12694824e-01 -7.09956408e-01 -7.07546473e-01 -7.04989314e-01 -7.02465653e-01 -7.00102389e-01 -6.97635889e-01 -6.95101023e-01 -6.92728221e-01 -6.90277219e-01 -6.88007653e-01 -6.85449958e-01 -6.83084369e-01 -6.80649698e-01 -6.78282917e-01 -6.75840914e-01 -6.73374116e-01 -6.71080470e-01 -6.68638170e-01 -6.66117668e-01 -6.63643420e-01 -6.61230087e-01 -6.58804953e-01 -6.56499207e-01 -6.54136539e-01 -6.51946783e-01 -6.49567425e-01 -6.47209287e-01 -6.45036399e-01 -6.42684937e-01 -6.40245795e-01 -6.37945116e-01 -6.35711253e-01 -6.33325219e-01 -6.30958378e-01 -6.28437042e-01 -6.26026213e-01 -6.23882473e-01 -6.21549904e-01 -6.19344473e-01 -6.16881430e-01 -6.14694953e-01 -6.12547398e-01 -6.10268235e-01 -6.07960880e-01 -6.05776906e-01 -6.03580296e-01 -6.01408958e-01 -5.99099636e-01 -5.96793950e-01 -5.94647229e-01 -5.92547178e-01 -5.90485036e-01 -5.88364422e-01 -5.86057484e-01 -5.84021389e-01 -5.81734419e-01 -5.79393685e-01 -5.77261269e-01 -5.75002611e-01 -5.72904110e-01 -5.70822895e-01 -5.68721950e-01 -5.66340446e-01 -5.64266980e-01 -5.62086582e-01 -5.59877813e-01 -5.57818115e-01 -5.55716038e-01 -5.53508759e-01 -5.51262617e-01 -5.49211800e-01 -5.47256827e-01 -5.45154929e-01 -5.42883456e-01 -5.40878236e-01 -5.38828909e-01 -5.36748827e-01 -5.34641087e-01 -5.32661617e-01 -5.30532181e-01 -5.28574407e-01 -5.26427746e-01 -5.24371266e-01 -5.22319019e-01 -5.20182312e-01 -5.17965436e-01 -5.15864074e-01 -5.13905406e-01 -5.11979222e-01 -5.09922087e-01 -5.07808506e-01 -5.05702019e-01 -5.03638148e-01 -5.01547158e-01 -4.99657005e-01 -4.97547716e-01 -4.95612919e-01 -4.93635476e-01 -4.91537720e-01 -4.89549845e-01 -4.87581044e-01 -4.85643238e-01 -4.83581305e-01 -4.81477737e-01 -4.79396671e-01 -4.77233559e-01 -4.75145191e-01 -4.73100454e-01 -4.71141160e-01 -4.69147950e-01 -4.67183739e-01 -4.65318680e-01 -4.63344008e-01 -4.61343944e-01 -4.59487855e-01 -4.57501292e-01 -4.55523342e-01 -4.53617036e-01 -4.51792896e-01 -4.49796647e-01 -4.47820961e-01 -4.45764720e-01 -4.43744481e-01 -4.41757590e-01 -4.39785630e-01 -4.38006222e-01 -4.36092347e-01 -4.34228927e-01 -4.32181865e-01 -4.30447012e-01 -4.28444058e-01 -4.26378161e-01 -4.24481839e-01 -4.22486275e-01 -4.20677960e-01 -4.18659717e-01 -4.16683465e-01 -4.14822549e-01 -4.12938327e-01 -4.11179632e-01 -4.09233481e-01 -4.07390475e-01 -4.05506015e-01 -4.03544009e-01 -4.01671350e-01 -3.99722815e-01 -3.97695720e-01 -3.95909131e-01 -3.94145578e-01 -3.92288446e-01 -3.90367985e-01 -3.88531208e-01 -3.86825055e-01 -3.85133952e-01 -3.83342415e-01 -3.81484807e-01 -3.79732668e-01 -3.77980411e-01 -3.76318336e-01 -3.74507874e-01 -3.72746646e-01 -3.70995790e-01 -3.69268715e-01 -3.67495924e-01 -3.65684956e-01 -3.63847733e-01 -3.62162262e-01 -3.60167742e-01 -3.58404607e-01 -3.56661558e-01 -3.54755104e-01 -3.52860898e-01 -3.51194352e-01 -3.49392712e-01 -3.47643793e-01 -3.45797151e-01 -3.43865782e-01 -3.42064828e-01 -3.40235114e-01 -3.38424236e-01 -3.36484134e-01 -3.34825307e-01 -3.32951337e-01 -3.31113994e-01 -3.29285979e-01 -3.27452511e-01 -3.25551271e-01 -3.23778808e-01 -3.21943074e-01 -3.20184439e-01 -3.18403631e-01 -3.16700578e-01 -3.15058947e-01 -3.13299954e-01 -3.11437935e-01 -3.09729695e-01 -3.07987452e-01 -3.06218863e-01 -3.04501384e-01 -3.02815616e-01 -3.00987095e-01 -2.99191833e-01 -2.97376215e-01 -2.95473605e-01 -2.93700665e-01 -2.92000473e-01 -2.90251255e-01 -2.88565397e-01 -2.86811471e-01 -2.85216510e-01 -2.83382058e-01 -2.81702667e-01 -2.80077815e-01 -2.78316170e-01 -2.76596189e-01 -2.74941176e-01 -2.73204654e-01 -2.71474272e-01 -2.69826144e-01 -2.68204629e-01 -2.66562223e-01 -2.64861971e-01 -2.63067126e-01 -2.61312753e-01 -2.59806514e-01 -2.58219481e-01 -2.56413698e-01 -2.54756242e-01 -2.53140926e-01 -2.51384795e-01 -2.49578089e-01 -2.47820064e-01 -2.46192306e-01 -2.44507313e-01 -2.42937192e-01 -2.41044074e-01 -2.39257842e-01 -2.37593591e-01 -2.35918656e-01 -2.34174907e-01 -2.32423648e-01 -2.30802312e-01 -2.29208857e-01 -2.27491453e-01 -2.25730985e-01 -2.23998755e-01 -2.22358868e-01 -2.20727101e-01 -2.19042957e-01 -2.17500061e-01 -2.15813980e-01 -2.14194790e-01 -2.12611064e-01 -2.10959509e-01 -2.09251195e-01 -2.07624421e-01 -2.05926150e-01 -2.04388008e-01 -2.02740014e-01 -2.01207712e-01 -1.99472055e-01 -1.97750703e-01 -1.95982471e-01 -1.94318116e-01 -1.92825437e-01 -1.91150516e-01 -1.89502880e-01 -1.87720701e-01 -1.85950473e-01 -1.84268802e-01 -1.82639539e-01 -1.80898964e-01 -1.79282844e-01 -1.77684739e-01 -1.76024035e-01 -1.74404442e-01 -1.72753155e-01 -1.71030313e-01 -1.69323370e-01 -1.67613059e-01 -1.66040048e-01 -1.64400116e-01 -1.62713423e-01 -1.61060348e-01 -1.59355879e-01 -1.57730445e-01 -1.55957624e-01 -1.54365301e-01 -1.52583897e-01 -1.51000947e-01 -1.49266064e-01 -1.47645339e-01 -1.45981371e-01 -1.44343629e-01 -1.42642558e-01 -1.40849069e-01 -1.39356017e-01 -1.37598202e-01 -1.35798588e-01 -1.34225801e-01 -1.32654592e-01 -1.30981073e-01 -1.29278094e-01 -1.27692148e-01 -1.26064733e-01 -1.24512143e-01 -1.22906387e-01 -1.21266581e-01 -1.19616590e-01 -1.17959648e-01 -1.16169594e-01 -1.14595711e-01 -1.12875417e-01 -1.11294411e-01 -1.09696068e-01 -1.08044781e-01 -1.06360026e-01 -1.04721725e-01 -1.03142299e-01 -1.01463035e-01 -9.99325365e-02 -9.83718112e-02 -9.66503993e-02 -9.49500054e-02 -9.33885574e-02 -9.17672366e-02 -9.01202261e-02 -8.85058120e-02 -8.69897902e-02 -8.53762031e-02 -8.38273913e-02 -8.22260678e-02 -8.06586742e-02 -7.90178999e-02 -7.74275139e-02 -7.57837668e-02 -7.42316246e-02 -7.26375729e-02 -7.09801763e-02 -6.93238154e-02 -6.76396117e-02 -6.60292432e-02 -6.43498003e-02 -6.28553554e-02 -6.12654723e-02 -5.96409887e-02 -5.80429621e-02 -5.64496219e-02 -5.47708534e-02 -5.32864369e-02 -5.16305007e-02 -5.00225425e-02 -4.82966304e-02 -4.66755778e-02 -4.50122058e-02 -4.33159843e-02 -4.17191312e-02 -4.01166342e-02 -3.84371467e-02 -3.68181318e-02 -3.52800116e-02 -3.36850733e-02 -3.20974439e-02 -3.06143295e-02 -2.90459339e-02 -2.73250174e-02 -2.56989766e-02 -2.40982398e-02 -2.24956200e-02 -2.09589694e-02 -1.92338824e-02 -1.77135561e-02 -1.61747504e-02 -1.45804146e-02 -1.28866946e-02 -1.12219853e-02 -9.71776154e-03 -8.10692366e-03 -6.50089746e-03 -5.02176303e-03 -3.37111554e-03 -1.76856888e-03 -1.01508806e-04 1.56227418e-03 3.13661713e-03 4.76620952e-03 6.34421874e-03 7.88862817e-03 9.41718742e-03 1.11029949e-02 1.27684660e-02 1.43437805e-02 1.59054212e-02 1.73700396e-02 1.90558881e-02 2.07831375e-02 2.23409664e-02 2.39180885e-02 2.55539753e-02 2.71376483e-02 2.87457202e-02 3.03687118e-02 3.19676064e-02 3.34941708e-02 3.50696743e-02 3.66896279e-02 3.83995399e-02 3.99270691e-02 4.14744280e-02 4.31014970e-02 4.48137112e-02 4.64357063e-02 4.80187051e-02 4.95379977e-02 5.11263199e-02 5.26639074e-02 5.43216355e-02 5.59474677e-02 5.77274598e-02 5.93734235e-02 6.10313043e-02 6.26599416e-02 6.41967654e-02 6.56764880e-02 6.74050227e-02 6.90853298e-02 7.06545338e-02 7.23300129e-02 7.39591792e-02 7.56254271e-02 7.71569610e-02 7.87029415e-02 8.03956240e-02 8.18007067e-02 8.34401846e-02 8.51171166e-02 8.68232548e-02 8.82489532e-02 8.99104849e-02 9.14516151e-02 9.30680782e-02 9.45922807e-02 9.62432325e-02 9.78663564e-02 9.94830728e-02 1.01015024e-01 1.02642126e-01 1.04297638e-01 1.05952479e-01 1.07653320e-01 1.09241948e-01 1.10894047e-01 1.12489797e-01 1.14086501e-01 1.15585059e-01 1.17224082e-01 1.18877791e-01 1.20435849e-01 1.22157536e-01 1.23785838e-01 1.25355318e-01 1.26996860e-01 1.28575444e-01 1.30321383e-01 1.32021874e-01 1.33629575e-01 1.35265172e-01 1.37009799e-01 1.38663635e-01 1.40277892e-01 1.41899213e-01 1.43516570e-01 1.45102620e-01 1.46777660e-01 1.48551062e-01 1.50237232e-01 1.51885182e-01 1.53532863e-01 1.55173481e-01 1.56799302e-01 1.58530220e-01 1.60111755e-01 1.61714867e-01 1.63241044e-01 1.64932266e-01 1.66569963e-01 1.68242455e-01 1.69847548e-01 1.71425015e-01 1.73080131e-01 1.74647659e-01 1.76377445e-01 1.78096101e-01 1.79710165e-01 1.81300640e-01 1.83006346e-01 1.84720129e-01 1.86325133e-01 1.87927738e-01 1.89506114e-01 1.91128358e-01 1.92830056e-01 1.94443375e-01 1.96198240e-01 1.97795123e-01 1.99372396e-01 2.01095060e-01 2.02712849e-01 2.04365462e-01 2.06065834e-01 2.07749158e-01 2.09337220e-01 2.11146653e-01 2.12924212e-01 2.14581385e-01 2.16120541e-01 2.17822418e-01 2.19573334e-01 2.21262872e-01 2.22897455e-01 2.24812210e-01 2.26634353e-01 2.28237540e-01 2.29829177e-01 2.31632262e-01 2.33387470e-01 2.34994471e-01 2.36788064e-01 2.38551497e-01 2.40120351e-01 2.41923153e-01 2.43605152e-01 2.45255843e-01 2.46857792e-01 2.48663262e-01 2.50269920e-01 2.52135098e-01 2.53856272e-01 2.55519271e-01 2.57112950e-01 2.58807063e-01 2.60479718e-01 2.62255102e-01 2.63967425e-01 2.65623033e-01 2.67234385e-01 2.68965900e-01 2.70649850e-01 2.72415459e-01 2.74129361e-01 2.75786877e-01 2.77480245e-01 2.79226094e-01 2.80901700e-01 2.82680511e-01 2.84438550e-01 2.86059529e-01 2.87772208e-01 2.89501429e-01 2.91155070e-01 2.92907894e-01 2.94669181e-01 2.96441764e-01 2.98153162e-01 2.99955636e-01 3.01725417e-01 3.03352863e-01 3.05254221e-01 3.07094812e-01 3.08828175e-01 3.10576648e-01 3.12222093e-01 3.13861728e-01 3.15517545e-01 3.17271024e-01 3.18953216e-01 3.20720524e-01 3.22561860e-01 3.24234992e-01 3.25972646e-01 3.27726185e-01 3.29374313e-01 3.31173897e-01 3.32944512e-01 3.34714919e-01 3.36582214e-01 3.38356555e-01 3.40196192e-01 3.41943115e-01 3.43694627e-01 3.45574647e-01 3.47394645e-01 3.49056929e-01 3.50773335e-01 3.52444410e-01 3.54187518e-01 3.56104672e-01 3.57828230e-01 3.59825939e-01 3.61579508e-01 3.63362759e-01 3.65098447e-01 3.66808653e-01 3.68626356e-01 3.70420367e-01 3.72279763e-01 3.74163508e-01 3.76150757e-01 3.77848387e-01 3.79751056e-01 3.81556422e-01 3.83268028e-01 3.85115981e-01 3.86843771e-01 3.88699353e-01 3.90674502e-01 3.92649800e-01 3.94475549e-01 3.96342367e-01 3.98301631e-01 4.00226712e-01 4.02142674e-01 4.03877467e-01 4.05617028e-01 4.07600671e-01 4.09634918e-01 4.11461771e-01 4.13480401e-01 4.15383518e-01 4.17311698e-01 4.19199944e-01 4.21001405e-01 4.22877550e-01 4.24851000e-01 4.26828384e-01 4.28654253e-01 4.30544525e-01 4.32628363e-01 4.34681773e-01 4.36541706e-01 4.38508093e-01 4.40517217e-01 4.42474812e-01 4.44383740e-01 4.46350813e-01 4.48241562e-01 4.50234532e-01 4.52103525e-01 4.54123348e-01 4.56009775e-01 4.57811534e-01 4.59730387e-01 4.61786687e-01 4.63768661e-01 4.65792090e-01 4.67839330e-01 4.69705880e-01 4.71662641e-01 4.73670155e-01 4.75733191e-01 4.77733761e-01 4.79630649e-01 4.81714368e-01 4.83771861e-01 4.85685736e-01 4.87683833e-01 4.89602238e-01 4.91656780e-01 4.93794233e-01 4.95801270e-01 4.97863859e-01 4.99905974e-01 5.02002835e-01 5.04005015e-01 5.06044686e-01 5.07995248e-01 5.10148764e-01 5.12059212e-01 5.14135718e-01 5.16062737e-01 5.17990172e-01 5.20008922e-01 5.21998107e-01 5.23946226e-01 5.25911689e-01 5.27899206e-01 5.29997349e-01 5.32169163e-01 5.34189880e-01 5.36261082e-01 5.38408339e-01 5.40507734e-01 5.42596936e-01 5.44696033e-01 5.46848118e-01 5.48858404e-01 5.51020920e-01 5.53235590e-01 5.55282235e-01 5.57357609e-01 5.59563935e-01 5.61595500e-01 5.63530385e-01 5.65588117e-01 5.67694724e-01 5.69801748e-01 5.72063506e-01 5.74211419e-01 5.76517403e-01 5.78769207e-01 5.80795646e-01 5.82926810e-01 5.85211694e-01 5.87254703e-01 5.89404941e-01 5.91574609e-01 5.93772888e-01 5.95983088e-01 5.98153472e-01 6.00487769e-01 6.02746248e-01 6.04970098e-01 6.07176900e-01 6.09377325e-01 6.11626208e-01 6.13879025e-01 6.16252422e-01 6.18329942e-01 6.20556056e-01 6.22810483e-01 6.24964297e-01 6.27265811e-01 6.29683971e-01 6.32106245e-01 6.34369731e-01 6.36532903e-01 6.38798177e-01 6.41162455e-01 6.43459201e-01 6.46004319e-01 6.48345232e-01 6.50457144e-01 6.52745605e-01 6.55073464e-01 6.57482445e-01 6.59776390e-01 6.62196755e-01 6.64672613e-01 6.67036831e-01 6.69547260e-01 6.72054172e-01 6.74418807e-01 6.76848590e-01 6.79230392e-01 6.81806147e-01 6.84157073e-01 6.86495483e-01 6.88889146e-01 6.91282153e-01 6.93854332e-01 6.96485639e-01 6.98910177e-01 7.01567411e-01 7.04342663e-01 7.07012951e-01 7.09568501e-01 7.12251246e-01 7.14787841e-01 7.17377841e-01 7.19971478e-01 7.22403526e-01 7.24935949e-01 7.27580488e-01 7.29980469e-01 7.32524276e-01 7.35275865e-01 7.37929702e-01 7.40366757e-01 7.43265390e-01 7.45864570e-01 7.48508811e-01 7.50915825e-01 7.53537118e-01 7.56238878e-01 7.59032190e-01 7.61655211e-01 7.64578819e-01 7.67211437e-01 7.69933164e-01 7.72766709e-01 7.75486231e-01 7.78146327e-01 7.80938804e-01 7.83594131e-01 7.86471665e-01 7.89409101e-01 7.92113483e-01 7.95091987e-01 7.98080981e-01 8.00908983e-01 8.03959727e-01 8.06802750e-01 8.09763789e-01 8.12735856e-01 8.15419555e-01 8.18374991e-01 8.21324468e-01 8.24425995e-01 8.27442586e-01 8.30403030e-01 8.33499432e-01 8.36393356e-01 8.39248300e-01 8.42430890e-01 8.45408499e-01 8.48497033e-01 8.51389825e-01 8.54401708e-01 8.57419252e-01 8.60296130e-01 8.63388062e-01 8.66551161e-01 8.69575083e-01 8.72534156e-01 8.75608802e-01 8.78643155e-01 8.81763160e-01 8.84771645e-01 8.88156116e-01 8.91352117e-01 8.94449532e-01 8.97806227e-01 9.00882363e-01 9.03942883e-01 9.07102942e-01 9.10355687e-01 9.13606346e-01 9.16859746e-01 9.20112669e-01 9.23263252e-01 9.26508069e-01 9.29848731e-01 9.33067501e-01 9.36257601e-01 9.39701617e-01 9.43074346e-01 9.46430087e-01 9.49664295e-01 9.53395784e-01 9.56811547e-01 9.60247993e-01 9.63633537e-01 9.67212081e-01 9.70751047e-01 9.74236131e-01 9.77800965e-01 9.81355488e-01 9.85134006e-01 9.88833666e-01 9.92572665e-01 9.96141195e-01 1.00007737e+00 1.00378728e+00 1.00750446e+00 1.01096952e+00 1.01466227e+00 1.01849437e+00 1.02215290e+00 1.02602232e+00 1.02954185e+00 1.03338778e+00 1.03755510e+00 1.04114330e+00 1.04518807e+00 1.04913723e+00 1.05301797e+00 1.05660570e+00 1.06030428e+00 1.06432545e+00 1.06818318e+00 1.07207441e+00 1.07630312e+00 1.08035147e+00 1.08442199e+00 1.08832896e+00 1.09245133e+00 1.09682882e+00 1.10100830e+00 1.10520530e+00 1.10950589e+00 1.11371744e+00 1.11790812e+00 1.12230480e+00 1.12668550e+00 1.13092899e+00 1.13549125e+00 1.13991582e+00 1.14460993e+00 1.14905310e+00 1.15374422e+00 1.15837932e+00 1.16298223e+00 1.16749001e+00 1.17199540e+00 1.17644429e+00 1.18112719e+00 1.18544793e+00 1.19036365e+00 1.19544816e+00 1.20037103e+00 1.20478010e+00 1.20966303e+00 1.21497202e+00 1.21991014e+00 1.22523189e+00 1.23005652e+00 1.23501611e+00 1.24002075e+00 1.24512887e+00 1.25037265e+00 1.25572431e+00 1.26085091e+00 1.26669621e+00 1.27200663e+00 1.27729344e+00 1.28302693e+00 1.28875828e+00 1.29434919e+00 1.29965734e+00 1.30489397e+00 1.31074619e+00 1.31592464e+00 1.32151961e+00 1.32692611e+00 1.33265340e+00 1.33805132e+00 1.34375000e+00 1.34949982e+00 1.35565460e+00 1.36195850e+00 1.36753285e+00 1.37363613e+00 1.37988901e+00 1.38608360e+00 1.39209437e+00 1.39831686e+00 1.40404940e+00 1.41011691e+00 1.41616535e+00 1.42301202e+00 1.42929924e+00 1.43548930e+00 1.44141197e+00 1.44765306e+00 1.45449400e+00 1.46100855e+00 1.46785474e+00 1.47436404e+00 1.48126519e+00 1.48786318e+00 1.49496102e+00 1.50182414e+00 1.50881910e+00 1.51589549e+00 1.52246523e+00 1.52984917e+00 1.53764439e+00 1.54562569e+00 1.55318737e+00 1.56131649e+00 1.56932628e+00 1.57665825e+00 1.58462286e+00 1.59199250e+00 1.59981215e+00 1.60744703e+00 1.61534131e+00 1.62347543e+00 1.63143075e+00 1.63992751e+00 1.64800191e+00 1.65603805e+00 1.66455770e+00 1.67352426e+00 1.68264723e+00 1.69117928e+00 1.70053411e+00 1.70992386e+00 1.71919608e+00 1.72904789e+00 1.73863935e+00 1.74743462e+00 1.75743413e+00 1.76600122e+00 1.77512562e+00 1.78499079e+00 1.79469597e+00 1.80386186e+00 1.81387317e+00 1.82439661e+00 1.83445561e+00 1.84518027e+00 1.85619032e+00 1.86682856e+00 1.87670517e+00 1.88716519e+00 1.89810014e+00 1.90852618e+00 1.91919386e+00 1.92953074e+00 1.94123197e+00 1.95280421e+00 1.96369457e+00 1.97428560e+00 1.98573637e+00 1.99596703e+00 2.00655627e+00 2.01830864e+00 2.03100467e+00 2.04346800e+00 2.05706406e+00 2.06948352e+00 2.08101988e+00 2.09263778e+00 2.10620975e+00 2.11820722e+00 2.13121176e+00 2.14493895e+00 2.15672302e+00 2.17002010e+00 2.18369961e+00 2.19709039e+00 2.21029115e+00 2.22551799e+00 2.23958111e+00 2.25356746e+00 2.26788020e+00 2.28175879e+00 2.29673505e+00 2.31112432e+00 2.32561851e+00 2.33906651e+00 2.35419559e+00 2.36967874e+00 2.38365769e+00 2.39769411e+00 2.41346169e+00 2.42860818e+00 2.44461632e+00 2.45972896e+00 2.47467542e+00 2.49004865e+00 2.50736332e+00 2.52283454e+00 2.53908134e+00 2.55583477e+00 2.57181716e+00 2.58778739e+00 2.60479569e+00 2.62186623e+00 2.63808274e+00 2.65571737e+00 2.67268586e+00 2.68903732e+00 2.70648837e+00 2.72354531e+00 2.74133825e+00 2.75879574e+00 2.77604723e+00 2.79428768e+00 2.81209779e+00 2.83143091e+00 2.85017657e+00 2.86795068e+00 2.88597250e+00 2.90482831e+00 2.92256641e+00 2.94059825e+00 2.95985150e+00 2.97860932e+00 2.99694395e+00 3.01699591e+00 3.03905487e+00 3.06056118e+00 3.08066344e+00 3.10041475e+00 3.12148309e+00 3.14204097e+00 3.16241717e+00 3.18448639e+00 3.20487571e+00 3.22658491e+00 3.24755573e+00 3.26889014e+00 3.28886557e+00 3.31149054e+00 3.33490705e+00 3.35771084e+00 3.38109994e+00 3.40222192e+00 3.42573023e+00 3.44824314e+00 3.47306991e+00 3.49697924e+00 3.52297592e+00 3.54681468e+00 3.57205868e+00 3.59573150e+00 3.62126589e+00 3.64436865e+00 3.67019439e+00 3.69439411e+00 3.72046113e+00 3.74406910e+00 3.76996040e+00 3.79717875e+00 3.82259274e+00 3.85146451e+00 3.87558246e+00 3.90283847e+00 3.93003058e+00 3.95643759e+00 3.98054099e+00 4.01004791e+00 4.03907108e+00 4.06765461e+00 4.09848452e+00 4.12699604e+00 4.15970707e+00 4.18992949e+00 4.22055435e+00 4.24942493e+00 4.27891827e+00 4.31152725e+00 4.34192705e+00 4.37268353e+00 4.40445948e+00 4.43379164e+00 4.46563768e+00 4.50006151e+00 4.53297186e+00 4.56959867e+00 4.60338593e+00 4.63785124e+00 4.67245722e+00 4.70573902e+00 4.73863649e+00 4.76969051e+00 4.80677080e+00 4.84291363e+00 4.87676144e+00 4.91177797e+00 4.94804955e+00 4.98489094e+00 5.02457571e+00 5.06319809e+00 5.10040474e+00 5.13495111e+00 5.17460346e+00 5.21092892e+00 5.25530624e+00 5.29357576e+00 5.33590078e+00 5.37504196e+00 5.41782618e+00 5.45706749e+00 5.49816227e+00 5.54049063e+00 5.58367348e+00 5.62665224e+00 5.66745329e+00 5.71260691e+00 5.75714874e+00 5.80025339e+00 5.84571266e+00 5.89200497e+00 5.93707752e+00 5.98191166e+00 6.03097677e+00 6.07644224e+00 6.12138414e+00 6.16997194e+00 6.21844149e+00 6.26560879e+00 6.31254721e+00 6.36400557e+00 6.41178036e+00 6.46074009e+00 6.51360607e+00 6.56573153e+00 6.61779976e+00 6.67302895e+00 6.72707748e+00 6.78188372e+00 6.83659029e+00 6.89610767e+00 6.95720768e+00 7.01508808e+00 7.07339764e+00 7.12992191e+00 7.18647671e+00 7.24508858e+00 7.30514383e+00 7.36923981e+00 7.43315458e+00 7.49082947e+00 7.55547619e+00 7.62164497e+00 7.68600702e+00 7.75061750e+00 7.81840992e+00 7.88703060e+00 7.95390558e+00 8.01417255e+00 8.08245087e+00 8.14480019e+00 8.21919346e+00 8.28840828e+00 8.35690022e+00 8.42766285e+00 8.50786972e+00 8.58485603e+00 8.65698528e+00 8.73483944e+00 8.81085014e+00 8.88850975e+00 8.96567249e+00 9.05055809e+00 9.12645817e+00 9.20347977e+00 9.28724670e+00 9.37244606e+00 9.45764065e+00 9.54329872e+00 9.63695240e+00 9.72580433e+00 9.81119537e+00 9.90775299e+00 9.99536324e+00 1.00900850e+01 1.01846218e+01 1.02780390e+01 1.03704386e+01 1.04695759e+01 1.05722141e+01 1.06729908e+01 1.07752342e+01 1.08784399e+01 1.09866199e+01 1.10970821e+01 1.12169142e+01 1.13349123e+01 1.14423294e+01 1.15599918e+01 1.16781340e+01 1.17941227e+01 1.19155655e+01 1.20372305e+01 1.21665707e+01 1.23046818e+01 1.24304848e+01 1.25591230e+01 1.26964970e+01 1.28273582e+01 1.29720335e+01 1.31114092e+01 1.32482519e+01 1.33855047e+01 1.35255194e+01 1.36654949e+01 1.38046217e+01 1.39471731e+01 1.40984669e+01 1.42458563e+01 1.43912392e+01 1.45462151e+01 1.47113943e+01 1.48674402e+01 1.50393324e+01 1.52003956e+01 1.53687172e+01 1.55508852e+01 1.57317514e+01 1.59019299e+01 1.60745735e+01 1.62590714e+01 1.64662781e+01 1.66584911e+01 1.68546886e+01 1.70523224e+01 1.72625732e+01 1.74677525e+01 1.76835785e+01 1.78940353e+01 1.81284428e+01 1.83600197e+01 1.85992298e+01 1.88534527e+01 1.90728455e+01 1.93368473e+01 1.96112671e+01 1.98626347e+01 2.01365948e+01 2.03891544e+01 2.06864643e+01 2.09813805e+01 2.12541904e+01 2.15641422e+01 2.18707752e+01 2.21734486e+01 2.24560986e+01 2.27845192e+01 2.30986309e+01 2.34546528e+01 2.38184376e+01 2.41633911e+01 2.45312176e+01 2.49240265e+01 2.53285561e+01 2.57156048e+01 2.61441612e+01 2.65667171e+01 2.69949226e+01 2.74716244e+01 2.79367504e+01 2.84337139e+01 2.89384689e+01 2.94212513e+01 2.99821777e+01 3.05799294e+01 3.12091675e+01 3.18851891e+01 3.26326447e+01 3.35245171e+01 3.49664421e+01 3.74305916e+01 4.03949356e+01 4.40944748e+01 4.87479782e+01 5.39200592e+01 6.00496864e+01 6.68204651e+01 7.43485489e+01 8.20590744e+01 9.02857513e+01 9.89958496e+01 1.07961670e+02 1.17046875e+02 1.27272720e+02 1.37355759e+02 1.48111038e+02 1.60097107e+02 1.71683624e+02 1.85222992e+02 1.98381439e+02 2.12505905e+02 2.28749756e+02 2.45611771e+02 2.63761993e+02 2.83294922e+02 3.05545135e+02 3.30752930e+02 3.58746704e+02 3.88696777e+02 4.25906738e+02 4.65247620e+02 5.13496948e+02 5.72267212e+02 6.42342163e+02 7.25764160e+02 8.34931030e+02 9.67288269e+02 1.15985596e+03 1.41832581e+03 1.82953845e+03 2.64401416e+03 4.40245801e+03 1.39477510e+04 2.42444940e+07 
            </HistogramBinning>
          </PDF>
        </CumulativePDF_cls0>
      </Variable>
      <Variable VarIndex="1">
        <CumulativePDF_cls0>
          <PDF Name="GaussTransform var1 cls0" MinNSmooth="0" MaxNSmooth="0" InterpolMethod="1" KDE_type="0" KDE_iter="1" KDE_border="1" KDE_finefactor="0.0000000000000000e+00">
            <Histogram Name="Cumulative_Var1_cls0_original" NBins="1998" XMin="-6.8785984000000000e+07" XMax="6.1768793600000000e+08" HasEquidistantBins="0">
              4.94851556e-04 9.93307680e-04 1.49369473e-03 1.99433928e-03 2.49485509e-03 2.99537089e-03 3.49588669e-03 3.99640249e-03 4.49691853e-03 4.99743409e-03 5.49795013e-03 5.99846570e-03 6.49898173e-03 6.99949730e-03 7.50001334e-03 8.00052937e-03 8.50104541e-03 9.00156051e-03 9.50207654e-03 1.00025926e-02 1.05031086e-02 1.10036237e-02 1.15041398e-02 1.20046558e-02 1.25051718e-02 1.30056869e-02 1.35062030e-02 1.40067190e-02 1.45072350e-02 1.50077511e-02 1.55082662e-02 1.60087831e-02 1.65092982e-02 1.70098133e-02 1.75103303e-02 1.80108454e-02 1.85113605e-02 1.90118775e-02 1.95123926e-02 2.00129095e-02 2.05134246e-02 2.10139398e-02 2.15144567e-02 2.20149718e-02 2.25154888e-02 2.30160039e-02 2.35165190e-02 2.40170360e-02 2.45175511e-02 2.50180662e-02 2.55185831e-02 2.60190982e-02 2.65196152e-02 2.70201303e-02 2.75206454e-02 2.80211624e-02 2.85216775e-02 2.90221944e-02 2.95227095e-02 3.00232247e-02 3.05237416e-02 3.10242567e-02 3.15247737e-02 3.20252888e-02 3.25258039e-02 3.30263190e-02 3.35268378e-02 3.40273529e-02 3.45278680e-02 3.50283831e-02 3.55288982e-02 3.60294133e-02 3.65299322e-02 3.70304473e-02 3.75309624e-02 3.80314775e-02 3.85319926e-02 3.90325114e-02 3.95330265e-02 4.00335416e-02 4.05340567e-02 4.10345718e-02 4.15350907e-02 4.20356058e-02 4.25361209e-02 4.30366360e-02 4.35371511e-02 4.40376699e-02 4.45381850e-02 4.50387001e-02 4.55392152e-02 4.60397303e-02 4.65402491e-02 4.70407642e-02 4.75412793e-02 4.80417944e-02 4.85423096e-02 4.90428247e-02 4.95433435e-02 5.00438586e-02 5.05443737e-02 5.10448888e-02 5.15454039e-02 5.20459227e-02 5.25464378e-02 5.30469529e-02 5.35474680e-02 5.40479831e-02 5.45485020e-02 5.50490171e-02 5.55495322e-02 5.60500473e-02 5.65505624e-02 5.70510812e-02 5.75515963e-02 5.80521114e-02 5.85526265e-02 5.90531416e-02 5.95536605e-02 6.00541756e-02 6.05546907e-02 6.10552058e-02 6.15557209e-02 6.20562360e-02 6.25567511e-02 6.30572662e-02 6.35577887e-02 6.40583038e-02 6.45588189e-02 6.50593340e-02 6.55598491e-02 6.60603642e-02 6.65608793e-02 6.70613945e-02 6.75619096e-02 6.80624247e-02 6.85629398e-02 6.90634623e-02 6.95639774e-02 7.00644925e-02 7.05650076e-02 7.10655227e-02 7.15660378e-02 7.20665529e-02 7.25670680e-02 7.30675831e-02 7.35680982e-02 7.40686208e-02 7.45691359e-02 7.50696510e-02 7.55701661e-02 7.60706812e-02 7.65711963e-02 7.70717114e-02 7.75722265e-02 7.80727416e-02 7.85732567e-02 7.90737793e-02 7.95742944e-02 8.00748095e-02 8.05753246e-02 8.10758397e-02 8.15763548e-02 8.20768699e-02 8.25773850e-02 8.30779001e-02 8.35784152e-02 8.40789303e-02 8.45794529e-02 8.50799680e-02 8.55804831e-02 8.60809982e-02 8.65815133e-02 8.70820284e-02 8.75825435e-02 8.80830586e-02 8.85835737e-02 8.90840888e-02 8.95846114e-02 9.00851265e-02 9.05856416e-02 9.10861567e-02 9.15866718e-02 9.20871869e-02 9.25877020e-02 9.30882171e-02 9.35887322e-02 9.40892473e-02 9.45897698e-02 9.50902849e-02 9.55908000e-02 9.60913152e-02 9.65918303e-02 9.70923454e-02 9.75928605e-02 9.80933756e-02 9.85938907e-02 9.90944058e-02 9.95949209e-02 1.00095443e-01 1.00595959e-01 1.01096474e-01 1.01596989e-01 1.02097504e-01 1.02598019e-01 1.03098534e-01 1.03599049e-01 1.04099564e-01 1.04600079e-01 1.05100602e-01 1.05601117e-01 1.06101632e-01 1.06602147e-01 1.07102662e-01 1.07603177e-01 1.08103693e-01 1.08604208e-01 1.09104723e-01 1.09605238e-01 1.10105753e-01 1.10606275e-01 1.11106791e-01 1.11607306e-01 1.12107821e-01 1.12608336e-01 1.13108851e-01 1.13609366e-01 1.14109881e-01 1.14610396e-01 1.15110911e-01 1.15611434e-01 1.16111949e-01 1.16612464e-01 1.17112979e-01 1.17613494e-01 1.18114009e-01 1.18614525e-01 1.19115040e-01 1.19615555e-01 1.20116070e-01 1.20616592e-01 1.21117108e-01 1.21617623e-01 1.22118138e-01 1.22618653e-01 1.23119168e-01 1.23619683e-01 1.24120198e-01 1.24620713e-01 1.25121236e-01 1.25621751e-01 1.26122266e-01 1.26622781e-01 1.27123296e-01 1.27623811e-01 1.28124326e-01 1.28624842e-01 1.29125357e-01 1.29625872e-01 1.30126387e-01 1.30626902e-01 1.31127417e-01 1.31627932e-01 1.32128447e-01 1.32628962e-01 1.33129478e-01 1.33630008e-01 1.34130523e-01 1.34631038e-01 1.35131553e-01 1.35632068e-01 1.36132583e-01 1.36633098e-01 1.37133613e-01 1.37634128e-01 1.38134643e-01 1.38635159e-01 1.39135674e-01 1.39636189e-01 1.40136704e-01 1.40637219e-01 1.41137734e-01 1.41638249e-01 1.42138764e-01 1.42639279e-01 1.43139794e-01 1.43640310e-01 1.44140840e-01 1.44641355e-01 1.45141870e-01 1.45642385e-01 1.46142900e-01 1.46643415e-01 1.47143930e-01 1.47644445e-01 1.48144960e-01 1.48645476e-01 1.49145991e-01 1.49646506e-01 1.50147021e-01 1.50647536e-01 1.51148051e-01 1.51648566e-01 1.52149081e-01 1.52649596e-01 1.53150111e-01 1.53650627e-01 1.54151142e-01 1.54651672e-01 1.55152187e-01 1.55652702e-01 1.56153217e-01 1.56653732e-01 1.57154247e-01 1.57654762e-01 1.58155277e-01 1.58655792e-01 1.59156308e-01 1.59656823e-01 1.60157338e-01 1.60657853e-01 1.61158368e-01 1.61658883e-01 1.62159398e-01 1.62659913e-01 1.63160428e-01 1.63660944e-01 1.64161459e-01 1.64661974e-01 1.65162504e-01 1.65663019e-01 1.66163534e-01 1.66664049e-01 1.67164564e-01 1.67665079e-01 1.68165594e-01 1.68666109e-01 1.69166625e-01 1.69667140e-01 1.70167655e-01 1.70668170e-01 1.71168685e-01 1.71669200e-01 1.72169715e-01 1.72670230e-01 1.73170745e-01 1.73671484e-01 1.74172714e-01 1.74674228e-01 1.75175458e-01 1.75676197e-01 1.76176712e-01 1.76677227e-01 1.77177742e-01 1.77678257e-01 1.78178772e-01 1.78679287e-01 1.79179803e-01 1.79680318e-01 1.80180833e-01 1.80681348e-01 1.81181863e-01 1.81682378e-01 1.82182893e-01 1.82683408e-01 1.83183923e-01 1.83684438e-01 1.84184954e-01 1.84685469e-01 1.85185984e-01 1.85686499e-01 1.86187029e-01 1.86687544e-01 1.87188059e-01 1.87688574e-01 1.88189089e-01 1.88689604e-01 1.89190120e-01 1.89690635e-01 1.90191150e-01 1.90691665e-01 1.91192180e-01 1.91692695e-01 1.92193210e-01 1.92693725e-01 1.93194240e-01 1.93694755e-01 1.94195271e-01 1.94695786e-01 1.95196301e-01 1.95696816e-01 1.96197346e-01 1.96697861e-01 1.97198376e-01 1.97698891e-01 1.98199406e-01 1.98699921e-01 1.99200436e-01 1.99700952e-01 2.00201467e-01 2.00701982e-01 2.01202497e-01 2.01703012e-01 2.02203527e-01 2.02704042e-01 2.03204557e-01 2.03705072e-01 2.04205588e-01 2.04706103e-01 2.05206618e-01 2.05707133e-01 2.06207648e-01 2.06708178e-01 2.07208693e-01 2.07709208e-01 2.08209723e-01 2.08710238e-01 2.09210753e-01 2.09711269e-01 2.10211784e-01 2.10712299e-01 2.11212814e-01 2.11713329e-01 2.12213844e-01 2.12714359e-01 2.13214874e-01 2.13715389e-01 2.14215904e-01 2.14716420e-01 2.15216935e-01 2.15717450e-01 2.16217965e-01 2.16718480e-01 2.17219010e-01 2.17719525e-01 2.18220040e-01 2.18720555e-01 2.19221070e-01 2.19721586e-01 2.20222101e-01 2.20722616e-01 2.21223131e-01 2.21723646e-01 2.22224161e-01 2.22724676e-01 2.23225191e-01 2.23725706e-01 2.24226221e-01 2.24726737e-01 2.25227252e-01 2.25727767e-01 2.26228282e-01 2.26728797e-01 2.27229312e-01 2.27729842e-01 2.28230357e-01 2.28730872e-01 2.29231387e-01 2.29731902e-01 2.30232418e-01 2.30732933e-01 2.31233448e-01 2.31733963e-01 2.32234478e-01 2.32734993e-01 2.33235508e-01 2.33736023e-01 2.34236538e-01 2.34737054e-01 2.35237360e-01 2.35737145e-01 2.36236632e-01 2.36736462e-01 2.37236887e-01 2.37737536e-01 2.38238096e-01 2.38738611e-01 2.39239126e-01 2.39739642e-01 2.40240157e-01 2.40740672e-01 2.41241187e-01 2.41741702e-01 2.42242217e-01 2.42742732e-01 2.43243247e-01 2.43743762e-01 2.44244024e-01 2.44743764e-01 2.45243251e-01 2.45742738e-01 2.46242478e-01 2.46742740e-01 2.47243255e-01 2.47743770e-01 2.48244286e-01 2.48744801e-01 2.49245316e-01 2.49745831e-01 2.50246346e-01 2.50746876e-01 2.51247376e-01 2.51747906e-01 2.52248406e-01 2.52748936e-01 2.53249437e-01 2.53749967e-01 2.54250467e-01 2.54750997e-01 2.55251497e-01 2.55752027e-01 2.56252557e-01 2.56753057e-01 2.57253587e-01 2.57754087e-01 2.58254617e-01 2.58755118e-01 2.59255648e-01 2.59756148e-01 2.60256678e-01 2.60757178e-01 2.61257708e-01 2.61758208e-01 2.62258738e-01 2.62759238e-01 2.63259768e-01 2.63760269e-01 2.64260799e-01 2.64761299e-01 2.65261829e-01 2.65762329e-01 2.66262859e-01 2.66763389e-01 2.67263860e-01 2.67764241e-01 2.68264830e-01 2.68766046e-01 2.69267589e-01 2.69768834e-01 2.70269573e-01 2.70770073e-01 2.71270603e-01 2.71771103e-01 2.72271633e-01 2.72772133e-01 2.73272663e-01 2.73773164e-01 2.74273694e-01 2.74774194e-01 2.75274724e-01 2.75775224e-01 2.76275754e-01 2.76776254e-01 2.77276784e-01 2.77777284e-01 2.78277814e-01 2.78778344e-01 2.79279172e-01 2.79780656e-01 2.80282438e-01 2.80784249e-01 2.81285733e-01 2.81786561e-01 2.82287091e-01 2.82787591e-01 2.83288121e-01 2.83788651e-01 2.84289151e-01 2.84789681e-01 2.85290182e-01 2.85790712e-01 2.86291212e-01 2.86791742e-01 2.87292242e-01 2.87792772e-01 2.88293272e-01 2.88793802e-01 2.89294302e-01 2.89794832e-01 2.90295333e-01 2.90795863e-01 2.91296363e-01 2.91796893e-01 2.92297393e-01 2.92797923e-01 2.93298423e-01 2.93798953e-01 2.94299483e-01 2.94799984e-01 2.95300514e-01 2.95801014e-01 2.96301544e-01 2.96802044e-01 2.97302574e-01 2.97803074e-01 2.98303604e-01 2.98804104e-01 2.99304634e-01 2.99805135e-01 3.00305665e-01 3.00806165e-01 3.01306695e-01 3.01807195e-01 3.02307725e-01 3.02808225e-01 3.03308755e-01 3.03809255e-01 3.04309785e-01 3.04810315e-01 3.05310816e-01 3.05811346e-01 3.06311846e-01 3.06812376e-01 3.07312876e-01 3.07813406e-01 3.08313906e-01 3.08814436e-01 3.09314936e-01 3.09815466e-01 3.10315967e-01 3.10816497e-01 3.11316997e-01 3.11817527e-01 3.12318027e-01 3.12818557e-01 3.13319057e-01 3.13819587e-01 3.14320087e-01 3.14820617e-01 3.15321147e-01 3.15821648e-01 3.16322178e-01 3.16822678e-01 3.17323208e-01 3.17823708e-01 3.18324238e-01 3.18824738e-01 3.19325268e-01 3.19825768e-01 3.20326298e-01 3.20826799e-01 3.21327329e-01 3.21827829e-01 3.22328359e-01 3.22828859e-01 3.23329389e-01 3.23829889e-01 3.24330419e-01 3.24830920e-01 3.25331450e-01 3.25831980e-01 3.26332480e-01 3.26833010e-01 3.27333510e-01 3.27834040e-01 3.28334540e-01 3.28835070e-01 3.29335570e-01 3.29836100e-01 3.30336601e-01 3.30837131e-01 3.31337631e-01 3.31838161e-01 3.32338661e-01 3.32839191e-01 3.33339691e-01 3.33840221e-01 3.34340721e-01 3.34841251e-01 3.35341781e-01 3.35842282e-01 3.36343318e-01 3.36844414e-01 3.37344527e-01 3.37844610e-01 3.38345110e-01 3.38845640e-01 3.39346141e-01 3.39846671e-01 3.40347171e-01 3.40847701e-01 3.41348201e-01 3.41848731e-01 3.42349231e-01 3.42849761e-01 3.43350291e-01 3.43850791e-01 3.44351321e-01 3.44851822e-01 3.45352352e-01 3.45852852e-01 3.46353382e-01 3.46853882e-01 3.47354412e-01 3.47854912e-01 3.48355442e-01 3.48855942e-01 3.49356472e-01 3.49856973e-01 3.50357503e-01 3.50858003e-01 3.51358533e-01 3.51859033e-01 3.52359563e-01 3.52860063e-01 3.53360593e-01 3.53861123e-01 3.54361624e-01 3.54861677e-01 3.55360717e-01 3.55859131e-01 3.56358141e-01 3.56858194e-01 3.57358724e-01 3.57859224e-01 3.58359754e-01 3.58860254e-01 3.59360784e-01 3.59861284e-01 3.60361814e-01 3.60862315e-01 3.61362845e-01 3.61863345e-01 3.62363875e-01 3.62864375e-01 3.63364905e-01 3.63865405e-01 3.64365935e-01 3.64866436e-01 3.65366966e-01 3.65867496e-01 3.66367996e-01 3.66868526e-01 3.67369026e-01 3.67869556e-01 3.68370056e-01 3.68870586e-01 3.69371086e-01 3.69871616e-01 3.70372117e-01 3.70872647e-01 3.71373147e-01 3.71873677e-01 3.72374177e-01 3.72874707e-01 3.73375207e-01 3.73875737e-01 3.74376237e-01 3.74876767e-01 3.75377268e-01 3.75877798e-01 3.76378328e-01 3.76878828e-01 3.77379358e-01 3.77879858e-01 3.78380388e-01 3.78880888e-01 3.79381418e-01 3.79881918e-01 3.80382448e-01 3.80882949e-01 3.81383479e-01 3.81883979e-01 3.82384509e-01 3.82885009e-01 3.83385539e-01 3.83886039e-01 3.84386569e-01 3.84887069e-01 3.85387599e-01 3.85888100e-01 3.86388630e-01 3.86889160e-01 3.87389660e-01 3.87890190e-01 3.88390690e-01 3.88891220e-01 3.89391720e-01 3.89892250e-01 3.90392751e-01 3.90893281e-01 3.91393781e-01 3.91894311e-01 3.92394811e-01 3.92895341e-01 3.93395841e-01 3.93896371e-01 3.94396871e-01 3.94897401e-01 3.95397663e-01 3.95897388e-01 3.96396875e-01 3.96896362e-01 3.97395849e-01 3.97895604e-01 3.98395866e-01 3.98896366e-01 3.99396896e-01 3.99897397e-01 4.00397927e-01 4.00898427e-01 4.01398957e-01 4.01899457e-01 4.02399987e-01 4.02900517e-01 4.03401017e-01 4.03901547e-01 4.04402047e-01 4.04902577e-01 4.05403078e-01 4.05903608e-01 4.06404108e-01 4.06904638e-01 4.07405138e-01 4.07905668e-01 4.08406168e-01 4.08906698e-01 4.09407198e-01 4.09907728e-01 4.10408318e-01 4.10908937e-01 4.11409527e-01 4.11910057e-01 4.12410557e-01 4.12910819e-01 4.13410574e-01 4.13910061e-01 4.14409548e-01 4.14909035e-01 4.15408760e-01 4.15909022e-01 4.16409552e-01 4.16910052e-01 4.17410582e-01 4.17911083e-01 4.18411613e-01 4.18912113e-01 4.19412643e-01 4.19913143e-01 4.20413673e-01 4.20914173e-01 4.21414703e-01 4.21915203e-01 4.22415733e-01 4.22916234e-01 4.23416764e-01 4.23917264e-01 4.24417794e-01 4.24918294e-01 4.25418824e-01 4.25919324e-01 4.26419646e-01 4.26919430e-01 4.27418917e-01 4.27918732e-01 4.28419173e-01 4.28919822e-01 4.29420382e-01 4.29920882e-01 4.30421412e-01 4.30921912e-01 4.31422442e-01 4.31922942e-01 4.32423472e-01 4.32923973e-01 4.33424503e-01 4.33925003e-01 4.34425533e-01 4.34926063e-01 4.35426563e-01 4.35927093e-01 4.36427593e-01 4.36928123e-01 4.37428623e-01 4.37929153e-01 4.38429654e-01 4.38930184e-01 4.39430684e-01 4.39931214e-01 4.40431714e-01 4.40932244e-01 4.41432744e-01 4.41933274e-01 4.42433774e-01 4.42934304e-01 4.43434805e-01 4.43935335e-01 4.44435835e-01 4.44936365e-01 4.45436895e-01 4.45937395e-01 4.46437925e-01 4.46938425e-01 4.47438955e-01 4.47939456e-01 4.48439986e-01 4.48940486e-01 4.49440956e-01 4.49941605e-01 4.50442821e-01 4.50944364e-01 4.51445609e-01 4.51946348e-01 4.52446848e-01 4.52947378e-01 4.53447878e-01 4.53948408e-01 4.54448909e-01 4.54949439e-01 4.55449939e-01 4.55950469e-01 4.56450969e-01 4.56951499e-01 4.57451999e-01 4.57952529e-01 4.58453029e-01 4.58953559e-01 4.59454060e-01 4.59954590e-01 4.60455090e-01 4.60955620e-01 4.61456120e-01 4.61956650e-01 4.62457180e-01 4.62957948e-01 4.63459313e-01 4.63961035e-01 4.64462399e-01 4.64963168e-01 4.65463698e-01 4.65964198e-01 4.66464728e-01 4.66964781e-01 4.67463940e-01 4.67963308e-01 4.68463957e-01 4.68964845e-01 4.69464988e-01 4.69965369e-01 4.70467061e-01 4.70968902e-01 4.71469879e-01 4.71970409e-01 4.72470909e-01 4.72971439e-01 4.73471940e-01 4.73972470e-01 4.74472970e-01 4.74973500e-01 4.75474000e-01 4.75974530e-01 4.76474792e-01 4.76974517e-01 4.77474004e-01 4.77973491e-01 4.78472978e-01 4.78972465e-01 4.79471952e-01 4.79971439e-01 4.80470926e-01 4.80970681e-01 4.81470942e-01 4.81971443e-01 4.82471973e-01 4.82972473e-01 4.83473003e-01 4.83973503e-01 4.84474033e-01 4.84974533e-01 4.85475063e-01 4.85975564e-01 4.86476094e-01 4.86976594e-01 4.87477124e-01 4.87977624e-01 4.88478154e-01 4.88978654e-01 4.89479184e-01 4.89979714e-01 4.90480214e-01 4.90980744e-01 4.91481036e-01 4.91980821e-01 4.92480308e-01 4.92980123e-01 4.93480563e-01 4.93981212e-01 4.94481772e-01 4.94982272e-01 4.95482802e-01 4.95983303e-01 4.96483833e-01 4.96984333e-01 4.97484863e-01 4.97985393e-01 4.98485893e-01 4.98986423e-01 4.99486923e-01 4.99987453e-01 5.00487983e-01 5.00988483e-01 5.01488984e-01 5.01989484e-01 5.02490044e-01 5.02990544e-01 5.03491044e-01 5.03991544e-01 5.04491866e-01 5.04991651e-01 5.05491138e-01 5.05990982e-01 5.06491363e-01 5.06991923e-01 5.07492423e-01 5.07992923e-01 5.08493483e-01 5.08993983e-01 5.09494483e-01 5.09994984e-01 5.10495543e-01 5.10996044e-01 5.11496544e-01 5.11997104e-01 5.12497604e-01 5.12998104e-01 5.13498604e-01 5.13999164e-01 5.14499664e-01 5.15000165e-01 5.15500665e-01 5.16001225e-01 5.16501725e-01 5.17002225e-01 5.17502725e-01 5.18003285e-01 5.18503785e-01 5.19004285e-01 5.19504786e-01 5.20005345e-01 5.20505846e-01 5.21006346e-01 5.21506846e-01 5.22007406e-01 5.22507906e-01 5.23008406e-01 5.23508966e-01 5.24009466e-01 5.24509966e-01 5.25010467e-01 5.25511026e-01 5.26011527e-01 5.26512027e-01 5.27012527e-01 5.27513087e-01 5.28013587e-01 5.28514087e-01 5.29014587e-01 5.29515147e-01 5.30015647e-01 5.30516148e-01 5.31016648e-01 5.31517208e-01 5.32017708e-01 5.32518208e-01 5.33018768e-01 5.33519268e-01 5.34019768e-01 5.34520268e-01 5.35020828e-01 5.35521328e-01 5.36021829e-01 5.36522329e-01 5.37022889e-01 5.37523389e-01 5.38023889e-01 5.38524389e-01 5.39024949e-01 5.39525449e-01 5.40025949e-01 5.40526450e-01 5.41027009e-01 5.41527510e-01 5.42028010e-01 5.42528510e-01 5.43029070e-01 5.43529570e-01 5.44030070e-01 5.44530630e-01 5.45031130e-01 5.45531631e-01 5.46032131e-01 5.46532691e-01 5.47033191e-01 5.47533691e-01 5.48034191e-01 5.48534751e-01 5.49035251e-01 5.49535751e-01 5.50036252e-01 5.50536811e-01 5.51037312e-01 5.51537812e-01 5.52038312e-01 5.52538872e-01 5.53039372e-01 5.53539872e-01 5.54040432e-01 5.54540932e-01 5.55041432e-01 5.55541933e-01 5.56042492e-01 5.56542993e-01 5.57043493e-01 5.57543993e-01 5.58044553e-01 5.58545053e-01 5.59045553e-01 5.59546053e-01 5.60046613e-01 5.60547113e-01 5.61047614e-01 5.61548114e-01 5.62048674e-01 5.62549174e-01 5.63049674e-01 5.63550234e-01 5.64050734e-01 5.64551234e-01 5.65051734e-01 5.65552294e-01 5.66052794e-01 5.66553295e-01 5.67053795e-01 5.67554355e-01 5.68054855e-01 5.68555355e-01 5.69055855e-01 5.69556415e-01 5.70056915e-01 5.70557415e-01 5.71057916e-01 5.71558475e-01 5.72058976e-01 5.72559476e-01 5.73059976e-01 5.73560536e-01 5.74061036e-01 5.74561536e-01 5.75062096e-01 5.75562596e-01 5.76063097e-01 5.76563597e-01 5.77064157e-01 5.77564657e-01 5.78065157e-01 5.78565657e-01 5.79066217e-01 5.79566717e-01 5.80067217e-01 5.80567718e-01 5.81068277e-01 5.81568778e-01 5.82069278e-01 5.82569778e-01 5.83070338e-01 5.83570838e-01 5.84071338e-01 5.84571898e-01 5.85072398e-01 5.85572898e-01 5.86073399e-01 5.86573958e-01 5.87074459e-01 5.87574959e-01 5.88075459e-01 5.88576019e-01 5.89076519e-01 5.89577019e-01 5.90077519e-01 5.90578079e-01 5.91078579e-01 5.91579080e-01 5.92079580e-01 5.92580140e-01 5.93080640e-01 5.93581140e-01 5.94081640e-01 5.94582200e-01 5.95082700e-01 5.95583200e-01 5.96083760e-01 5.96584260e-01 5.97084761e-01 5.97585261e-01 5.98085821e-01 5.98586321e-01 5.99086821e-01 5.99587321e-01 6.00087881e-01 6.00588381e-01 6.01088881e-01 6.01589382e-01 6.02089942e-01 6.02590442e-01 6.03090942e-01 6.03591442e-01 6.04092002e-01 6.04592502e-01 6.05093002e-01 6.05593562e-01 6.06094062e-01 6.06594563e-01 6.07095063e-01 6.07595623e-01 6.08096123e-01 6.08596623e-01 6.09097123e-01 6.09597683e-01 6.10098183e-01 6.10598683e-01 6.11099184e-01 6.11599743e-01 6.12100244e-01 6.12600744e-01 6.13101244e-01 6.13601804e-01 6.14102304e-01 6.14602804e-01 6.15103304e-01 6.15603864e-01 6.16104364e-01 6.16604865e-01 6.17105424e-01 6.17605925e-01 6.18106425e-01 6.18606925e-01 6.19107485e-01 6.19607985e-01 6.20108485e-01 6.20608985e-01 6.21109545e-01 6.21610045e-01 6.22110546e-01 6.22611046e-01 6.23111606e-01 6.23612106e-01 6.24112606e-01 6.24613106e-01 6.25113666e-01 6.25614166e-01 6.26114666e-01 6.26615226e-01 6.27115726e-01 6.27616227e-01 6.28116727e-01 6.28617287e-01 6.29117787e-01 6.29618287e-01 6.30118787e-01 6.30619347e-01 6.31119847e-01 6.31620347e-01 6.32120848e-01 6.32621408e-01 6.33121908e-01 6.33622408e-01 6.34122908e-01 6.34623468e-01 6.35123968e-01 6.35624468e-01 6.36124969e-01 6.36625528e-01 6.37126029e-01 6.37626529e-01 6.38127089e-01 6.38627589e-01 6.39128089e-01 6.39628589e-01 6.40129149e-01 6.40629649e-01 6.41130149e-01 6.41630650e-01 6.42131209e-01 6.42631710e-01 6.43132210e-01 6.43632710e-01 6.44133270e-01 6.44633770e-01 6.45134270e-01 6.45634770e-01 6.46135330e-01 6.46635830e-01 6.47136331e-01 6.47636890e-01 6.48137391e-01 6.48637891e-01 6.49138391e-01 6.49638951e-01 6.50139451e-01 6.50639951e-01 6.51140451e-01 6.51641011e-01 6.52141511e-01 6.52642012e-01 6.53142512e-01 6.53643072e-01 6.54143572e-01 6.54644072e-01 6.55144572e-01 6.55645132e-01 6.56145632e-01 6.56646132e-01 6.57146692e-01 6.57647192e-01 6.58147693e-01 6.58648193e-01 6.59148753e-01 6.59649253e-01 6.60149753e-01 6.60650253e-01 6.61150813e-01 6.61651313e-01 6.62151814e-01 6.62652314e-01 6.63152874e-01 6.63653374e-01 6.64153874e-01 6.64654374e-01 6.65154934e-01 6.65655434e-01 6.66155934e-01 6.66656435e-01 6.67156994e-01 6.67657495e-01 6.68157995e-01 6.68658555e-01 6.69159055e-01 6.69659555e-01 6.70160055e-01 6.70660615e-01 6.71161115e-01 6.71661615e-01 6.72162116e-01 6.72662675e-01 6.73163176e-01 6.73663676e-01 6.74164176e-01 6.74664736e-01 6.75165236e-01 6.75665736e-01 6.76166236e-01 6.76666796e-01 6.77167296e-01 6.77667797e-01 6.78168356e-01 6.78668857e-01 6.79169357e-01 6.79669857e-01 6.80170417e-01 6.80670917e-01 6.81171417e-01 6.81671917e-01 6.82172477e-01 6.82672977e-01 6.83173478e-01 6.83673978e-01 6.84174538e-01 6.84675038e-01 6.85175538e-01 6.85676038e-01 6.86176598e-01 6.86677098e-01 6.87177598e-01 6.87678099e-01 6.88178658e-01 6.88679159e-01 6.89179659e-01 6.89680219e-01 6.90180719e-01 6.90681219e-01 6.91181719e-01 6.91682279e-01 6.92182779e-01 6.92683280e-01 6.93183780e-01 6.93684340e-01 6.94184840e-01 6.94685340e-01 6.95185840e-01 6.95686400e-01 6.96186900e-01 6.96687400e-01 6.97187901e-01 6.97688460e-01 6.98188961e-01 6.98689461e-01 6.99190021e-01 6.99690521e-01 7.00191021e-01 7.00691521e-01 7.01192081e-01 7.01692581e-01 7.02193081e-01 7.02693582e-01 7.03194141e-01 7.03694642e-01 7.04195142e-01 7.04695642e-01 7.05196202e-01 7.05696702e-01 7.06197202e-01 7.06697702e-01 7.07198262e-01 7.07698762e-01 7.08199263e-01 7.08699763e-01 7.09200323e-01 7.09700823e-01 7.10201323e-01 7.10701883e-01 7.11202383e-01 7.11702883e-01 7.12203383e-01 7.12703943e-01 7.13204443e-01 7.13704944e-01 7.14205444e-01 7.14706004e-01 7.15206504e-01 7.15707004e-01 7.16207504e-01 7.16708064e-01 7.17208564e-01 7.17709064e-01 7.18209565e-01 7.18710124e-01 7.19210625e-01 7.19711125e-01 7.20211685e-01 7.20712185e-01 7.21212685e-01 7.21713185e-01 7.22213745e-01 7.22714245e-01 7.23214746e-01 7.23715246e-01 7.24215806e-01 7.24716306e-01 7.25216806e-01 7.25717306e-01 7.26217866e-01 7.26718366e-01 7.27218866e-01 7.27719367e-01 7.28219926e-01 7.28720427e-01 7.29220927e-01 7.29721427e-01 7.30221987e-01 7.30722487e-01 7.31222987e-01 7.31723547e-01 7.32224047e-01 7.32724547e-01 7.33225048e-01 7.33725607e-01 7.34226108e-01 7.34726608e-01 7.35227108e-01 7.35727668e-01 7.36228168e-01 7.36728668e-01 7.37229168e-01 7.37729728e-01 7.38230228e-01 7.38730729e-01 7.39231229e-01 7.39731789e-01 7.40232289e-01 7.40732789e-01 7.41233349e-01 7.41733849e-01 7.42234349e-01 7.42734849e-01 7.43235409e-01 7.43735909e-01 7.44236410e-01 7.44736910e-01 7.45237470e-01 7.45737970e-01 7.46238470e-01 7.46738970e-01 7.47239530e-01 7.47740030e-01 7.48240530e-01 7.48741031e-01 7.49241590e-01 7.49742091e-01 7.50242591e-01 7.50743151e-01 7.51243651e-01 7.51744151e-01 7.52244651e-01 7.52745211e-01 7.53245711e-01 7.53746212e-01 7.54246712e-01 7.54747272e-01 7.55247772e-01 7.55748272e-01 7.56248772e-01 7.56749332e-01 7.57249832e-01 7.57750332e-01 7.58250833e-01 7.58751392e-01 7.59251893e-01 7.59752393e-01 7.60252893e-01 7.60753453e-01 7.61253953e-01 7.61754453e-01 7.62255013e-01 7.62755513e-01 7.63256013e-01 7.63756514e-01 7.64257073e-01 7.64757574e-01 7.65258074e-01 7.65758574e-01 7.66259134e-01 7.66759634e-01 7.67260134e-01 7.67760634e-01 7.68261194e-01 7.68761694e-01 7.69262195e-01 7.69762695e-01 7.70263255e-01 7.70763755e-01 7.71264255e-01 7.71764815e-01 7.72265315e-01 7.72765815e-01 7.73266315e-01 7.73766875e-01 7.74267375e-01 7.74767876e-01 7.75268376e-01 7.75768936e-01 7.76269436e-01 7.76769936e-01 7.77270436e-01 7.77770996e-01 7.78271496e-01 7.78771996e-01 7.79272497e-01 7.79773057e-01 7.80273557e-01 7.80774057e-01 7.81274557e-01 7.81775117e-01 7.82275617e-01 7.82776117e-01 7.83276677e-01 7.83777177e-01 7.84277678e-01 7.84778178e-01 7.85278738e-01 7.85779238e-01 7.86279738e-01 7.86780238e-01 7.87280798e-01 7.87781298e-01 7.88281798e-01 7.88782299e-01 7.89282858e-01 7.89783359e-01 7.90283859e-01 7.90784359e-01 7.91284919e-01 7.91785419e-01 7.92285919e-01 7.92786479e-01 7.93286979e-01 7.93787479e-01 7.94287980e-01 7.94788539e-01 7.95289040e-01 7.95789540e-01 7.96290040e-01 7.96790600e-01 7.97291100e-01 7.97791600e-01 7.98292100e-01 7.98792660e-01 7.99293160e-01 7.99793661e-01 8.00294161e-01 8.00794721e-01 8.01295221e-01 8.01795721e-01 8.02296221e-01 8.02796781e-01 8.03297281e-01 8.03797781e-01 8.04298341e-01 8.04798841e-01 8.05299342e-01 8.05799842e-01 8.06300402e-01 8.06800902e-01 8.07301402e-01 8.07801902e-01 8.08302462e-01 8.08802962e-01 8.09303463e-01 8.09803963e-01 8.10304523e-01 8.10805023e-01 8.11305523e-01 8.11806023e-01 8.12306583e-01 8.12807083e-01 8.13307583e-01 8.13808143e-01 8.14308643e-01 8.14809144e-01 8.15309644e-01 8.15810204e-01 8.16310704e-01 8.16811204e-01 8.17311704e-01 8.17812264e-01 8.18312764e-01 8.18813264e-01 8.19313765e-01 8.19814324e-01 8.20314825e-01 8.20815325e-01 8.21315825e-01 8.21816385e-01 8.22316885e-01 8.22817385e-01 8.23317945e-01 8.23818445e-01 8.24318945e-01 8.24819446e-01 8.25320005e-01 8.25820506e-01 8.26321006e-01 8.26821506e-01 8.27322066e-01 8.27822566e-01 8.28323066e-01 8.28823566e-01 8.29324126e-01 8.29824626e-01 8.30325127e-01 8.30825627e-01 8.31326187e-01 8.31826687e-01 8.32327187e-01 8.32827687e-01 8.33328247e-01 8.33828747e-01 8.34329247e-01 8.34829807e-01 8.35330307e-01 8.35830808e-01 8.36331308e-01 8.36831868e-01 8.37332368e-01 8.37832868e-01 8.38333368e-01 8.38833928e-01 8.39334428e-01 8.39834929e-01 8.40335429e-01 8.40835989e-01 8.41336489e-01 8.41836989e-01 8.42337489e-01 8.42838049e-01 8.43338549e-01 8.43839049e-01 8.44339609e-01 8.44840109e-01 8.45340610e-01 8.45841110e-01 8.46341670e-01 8.46842170e-01 8.47342670e-01 8.47843170e-01 8.48343730e-01 8.48844230e-01 8.49344730e-01 8.49845231e-01 8.50345790e-01 8.50846291e-01 8.51346791e-01 8.51847291e-01 8.52347851e-01 8.52848351e-01 8.53348851e-01 8.53849351e-01 8.54349911e-01 8.54850411e-01 8.55350912e-01 8.55851471e-01 8.56351972e-01 8.56852472e-01 8.57352972e-01 8.57853532e-01 8.58354032e-01 8.58854532e-01 8.59355032e-01 8.59855592e-01 8.60356092e-01 8.60856593e-01 8.61357093e-01 8.61857653e-01 8.62358153e-01 8.62858653e-01 8.63359153e-01 8.63859713e-01 8.64360213e-01 8.64860713e-01 8.65361273e-01 8.65861773e-01 8.66362274e-01 8.66862774e-01 8.67363334e-01 8.67863834e-01 8.68364334e-01 8.68864834e-01 8.69365394e-01 8.69865894e-01 8.70366395e-01 8.70866895e-01 8.71367455e-01 8.71867955e-01 8.72368455e-01 8.72868955e-01 8.73369515e-01 8.73870015e-01 8.74370515e-01 8.74871016e-01 8.75371575e-01 8.75872076e-01 8.76372576e-01 8.76873136e-01 8.77373636e-01 8.77874136e-01 8.78374636e-01 8.78875196e-01 8.79375696e-01 8.79876196e-01 8.80376697e-01 8.80877256e-01 8.81377757e-01 8.81878257e-01 8.82378757e-01 8.82879317e-01 8.83379817e-01 8.83880317e-01 8.84380817e-01 8.84881377e-01 8.85381877e-01 8.85882378e-01 8.86382937e-01 8.86883438e-01 8.87383938e-01 8.87884438e-01 8.88384998e-01 8.88885498e-01 8.89385998e-01 8.89886498e-01 8.90387058e-01 8.90887558e-01 8.91388059e-01 8.91888559e-01 8.92389119e-01 8.92889619e-01 8.93390119e-01 8.93890619e-01 8.94391179e-01 8.94891679e-01 8.95392179e-01 8.95892680e-01 8.96393239e-01 8.96893740e-01 8.97394240e-01 8.97894800e-01 8.98395300e-01 8.98895800e-01 8.99396300e-01 8.99896860e-01 9.00397360e-01 9.00897861e-01 9.01398361e-01 9.01898921e-01 9.02399421e-01 9.02899921e-01 9.03400421e-01 9.03900981e-01 9.04401481e-01 9.04901981e-01 9.05402482e-01 9.05903041e-01 9.06403542e-01 9.06904042e-01 9.07404602e-01 9.07905102e-01 9.08405602e-01 9.08906102e-01 9.09406662e-01 9.09907162e-01 9.10407662e-01 9.10908163e-01 9.11408722e-01 9.11909223e-01 9.12409723e-01 9.12910223e-01 9.13410783e-01 9.13911283e-01 9.14411783e-01 9.14912283e-01 9.15412843e-01 9.15913343e-01 9.16413844e-01 9.16914403e-01 9.17414904e-01 9.17915404e-01 9.18415904e-01 9.18916464e-01 9.19416964e-01 9.19917464e-01 9.20417964e-01 9.20918524e-01 9.21419024e-01 9.21919525e-01 9.22420025e-01 9.22920585e-01 9.23421085e-01 9.23921585e-01 9.24422085e-01 9.24922645e-01 9.25423145e-01 9.25923645e-01 9.26424146e-01 9.26924706e-01 9.27425206e-01 9.27925706e-01 9.28426266e-01 9.28926766e-01 9.29427266e-01 9.29927766e-01 9.30428326e-01 9.30928826e-01 9.31429327e-01 9.31929827e-01 9.32430387e-01 9.32930887e-01 9.33431387e-01 9.33931887e-01 9.34432447e-01 9.34932947e-01 9.35433447e-01 9.35933948e-01 9.36434507e-01 9.36935008e-01 9.37435508e-01 9.37936068e-01 9.38436568e-01 9.38937068e-01 9.39437568e-01 9.39938128e-01 9.40438628e-01 9.40939128e-01 9.41439629e-01 9.41940188e-01 9.42440689e-01 9.42941189e-01 9.43441689e-01 9.43942249e-01 9.44442749e-01 9.44943249e-01 9.45443749e-01 9.45944309e-01 9.46444809e-01 9.46945310e-01 9.47445810e-01 9.47946370e-01 9.48446870e-01 9.48947370e-01 9.49447930e-01 9.49948430e-01 9.50448930e-01 9.50949430e-01 9.51449990e-01 9.51950490e-01 9.52450991e-01 9.52951491e-01 9.53452051e-01 9.53952551e-01 9.54453051e-01 9.54953551e-01 9.55454111e-01 9.55954611e-01 9.56455112e-01 9.56955612e-01 9.57456172e-01 9.57956672e-01 9.58457172e-01 9.58957732e-01 9.59458232e-01 9.59958732e-01 9.60459232e-01 9.60959792e-01 9.61460292e-01 9.61960793e-01 9.62461293e-01 9.62961853e-01 9.63462353e-01 9.63962853e-01 9.64463353e-01 9.64963913e-01 9.65464413e-01 9.65964913e-01 9.66465414e-01 9.66965973e-01 9.67466474e-01 9.67966974e-01 9.68467474e-01 9.68968034e-01 9.69468534e-01 9.69969034e-01 9.70469594e-01 9.70970094e-01 9.71470594e-01 9.71971095e-01 9.72471654e-01 9.72972155e-01 9.73472655e-01 9.73973155e-01 9.74473715e-01 9.74974215e-01 9.75474715e-01 9.75975215e-01 9.76475775e-01 9.76976275e-01 9.77476776e-01 9.77977276e-01 9.78477836e-01 9.78978336e-01 9.79478836e-01 9.79979396e-01 9.80479896e-01 9.80980396e-01 9.81480896e-01 9.81981456e-01 9.82481956e-01 9.82982457e-01 9.83482957e-01 9.83983517e-01 9.84484017e-01 9.84984517e-01 9.85485017e-01 9.85985577e-01 9.86486077e-01 9.86986578e-01 9.87487078e-01 9.87987638e-01 9.88488138e-01 9.88988638e-01 9.89489138e-01 9.89989698e-01 9.90490198e-01 9.90990698e-01 9.91491258e-01 9.91991758e-01 9.92492259e-01 9.92992759e-01 9.93493319e-01 9.93993819e-01 9.94494319e-01 9.94994819e-01 9.95495379e-01 9.95995879e-01 9.96496379e-01 9.96996880e-01 9.97497439e-01 9.97997940e-01 9.98498440e-01 9.98998940e-01 9.99499500e-01 1.00000000e+00 
            </Histogram>
            <HistogramBinning NBins="1998">
