<?xml version="1.0"?>
<MethodSetup Method="DL::DNN_CPU">
  <GeneralInfo>
    <Info name="TMVA Release" value="4.2.1 [262657]"/>
    <Info name="ROOT Release" value="6.29/01 [400641]"/>
    <Info name="Creator" value="simon"/>
    <Info name="Date" value="Fri Mar 17 20:18:32 2023"/>
    <Info name="Host" value="Linux np-muon01.physics.gla.ac.uk 5.15.0-47-lowlatency #53-Ubuntu SMP PREEMPT Fri Aug 12 15:27:13 UTC 2022 x86_64 x86_64 x86_64 GNU/Linux"/>
    <Info name="Dir" value="/home/simon/Analysis/EIC_Analysis/NeuralNetwork"/>
    <Info name="Training events" value="573355"/>
    <Info name="TrainingTime" value="1.40227742e+03"/>
    <Info name="AnalysisType" value="Regression"/>
  </GeneralInfo>
  <Options>
    <Option name="V" modified="Yes">True</Option>
    <Option name="VerbosityLevel" modified="No">Verbose</Option>
    <Option name="VarTransform" modified="Yes">D,N(eE)</Option>
    <Option name="H" modified="Yes">False</Option>
    <Option name="CreateMVAPdfs" modified="No">False</Option>
    <Option name="IgnoreNegWeightsInTraining" modified="No">False</Option>
    <Option name="InputLayout" modified="No">0|0|0</Option>
    <Option name="BatchLayout" modified="No">0|0|0</Option>
    <Option name="Layout" modified="Yes">TANH|1024,TANH|64,TANH|64,TANH|32,LINEAR</Option>
    <Option name="ErrorStrategy" modified="Yes">SUMOFSQUARES</Option>
    <Option name="WeightInitialization" modified="Yes">XAVIERUNIFORM</Option>
    <Option name="RandomSeed" modified="No">0</Option>
    <Option name="ValidationSize" modified="No">20%</Option>
    <Option name="Architecture" modified="Yes">GPU</Option>
    <Option name="TrainingStrategy" modified="Yes">LearningRate=1e-4,Momentum=0,MaxEpochs=2000,ConvergenceSteps=50,BatchSize=1024,TestRepetitions=1,Regularization=None,Optimizer=ADAM|LearningRate=1e-6,Momentum=0,MaxEpochs=2000,ConvergenceSteps=50,BatchSize=1024,TestRepetitions=1,Regularization=None,Optimizer=ADAGRAD|LearningRate=1e-7,Momentum=0,MaxEpochs=2000,ConvergenceSteps=50,BatchSize=1024,TestRepetitions=1,Regularization=None,Optimizer=ADAM|LearningRate=1e-8,Momentum=0,MaxEpochs=2000,ConvergenceSteps=50,BatchSize=1024,TestRepetitions=1,Regularization=None,Optimizer=ADAM</Option>
  </Options>
  <Variables NVar="4">
    <Variable VarIndex="0" Expression="Fposition.fCoordinates.fY" Label="Fposition.fCoordinates.fY" Title="fit_position_y" Unit="units" Internal="Fposition.fCoordinates.fY" Type="F" Min="-1.87056895e+04" Max="3.13092949e+04"/>
    <Variable VarIndex="1" Expression="Fposition.fCoordinates.fZ" Label="Fposition.fCoordinates.fZ" Title="fit_position_z" Unit="units" Internal="Fposition.fCoordinates.fZ" Type="F" Min="-4.72742188e+05" Max="8.33424062e+05"/>
    <Variable VarIndex="2" Expression="Fvector.fCoordinates.fX" Label="Fvector.fCoordinates.fX" Title="fit_vector_x" Unit="units" Internal="Fvector.fCoordinates.fX" Type="F" Min="-1.69078037e-01" Max="7.41671920e-02"/>
    <Variable VarIndex="3" Expression="Fvector.fCoordinates.fY" Label="Fvector.fCoordinates.fY" Title="fit_vector_y" Unit="units" Internal="Fvector.fCoordinates.fY" Type="F" Min="-1.30027518e-01" Max="8.66637900e-02"/>
  </Variables>
  <Spectators NSpec="4">
    <Spectator SpecIndex="0" Expression="eE" Label="eE" Title="eE" Unit="" Internal="eE" Type="F" Min="6.56588674e-01" Max="4.99009466e+00"/>
    <Spectator SpecIndex="1" Expression="logQ2_3" Label="logQ2_3" Title="logQ2_3" Unit="" Internal="logQ2_3" Type="F" Min="-8.46721554e+00" Max="-2.54705644e+00"/>
    <Spectator SpecIndex="2" Expression="phiV" Label="phiV" Title="phiV" Unit="" Internal="phiV" Type="F" Min="-3.14159107e+00" Max="3.14159155e+00"/>
    <Spectator SpecIndex="3" Expression="thetaE" Label="thetaE" Title="thetaE" Unit="" Internal="thetaE" Type="F" Min="8.58374187e-06" Max="1.08163022e-02"/>
  </Spectators>
  <Classes NClass="1">
    <Class Name="Regression" Index="0"/>
  </Classes>
  <Targets NTrgt="4">
    <Target TargetIndex="0" Expression="eE" Label="eE" Title="eE" Unit="" Internal="eE" Type="F" Min="6.56588674e-01" Max="4.99009466e+00"/>
    <Target TargetIndex="1" Expression="thetaE" Label="thetaE" Title="thetaE" Unit="" Internal="thetaE" Type="F" Min="8.58374187e-06" Max="1.08163022e-02"/>
    <Target TargetIndex="2" Expression="cosPhi" Label="cosPhi" Title="cosPhi" Unit="" Internal="cosPhi" Type="F" Min="-1.00000000e+00" Max="1.00000000e+00"/>
    <Target TargetIndex="3" Expression="sinPhi" Label="sinPhi" Title="sinPhi" Unit="" Internal="sinPhi" Type="F" Min="-1.00000000e+00" Max="1.00000000e+00"/>
  </Targets>
  <Transformations NTransformations="2">
    <Transform Name="Decorrelation">
      <Selection>
        <Input NInputs="4">
          <Input Type="Variable" Label="Fposition.fCoordinates.fY" Expression="Fposition.fCoordinates.fY"/>
          <Input Type="Variable" Label="Fposition.fCoordinates.fZ" Expression="Fposition.fCoordinates.fZ"/>
          <Input Type="Variable" Label="Fvector.fCoordinates.fX" Expression="Fvector.fCoordinates.fX"/>
          <Input Type="Variable" Label="Fvector.fCoordinates.fY" Expression="Fvector.fCoordinates.fY"/>
        </Input>
        <Output NOutputs="4">
          <Output Type="Variable" Label="Fposition.fCoordinates.fY" Expression="Fposition.fCoordinates.fY"/>
          <Output Type="Variable" Label="Fposition.fCoordinates.fZ" Expression="Fposition.fCoordinates.fZ"/>
          <Output Type="Variable" Label="Fvector.fCoordinates.fX" Expression="Fvector.fCoordinates.fX"/>
          <Output Type="Variable" Label="Fvector.fCoordinates.fY" Expression="Fvector.fCoordinates.fY"/>
        </Output>
      </Selection>
      <Matrix Rows="4" Columns="4">
        1.489046661989601e-02 -1.283468699007911e-04 2.342266314906154e-04 2.593108423261340e-03 -1.283468699007911e-04 3.690549646614006e-04 -2.013344645744041e-05 -2.297492801613279e-05 2.342266314906154e-04 -2.013344645744041e-05 6.726149035290578e+01 8.210966096696561e-01 2.593108423261341e-03 -2.297492801613280e-05 8.210966096696563e-01 5.918562968098013e+02
      </Matrix>
    </Transform>
    <Transform Name="Normalize">
      <Selection>
        <Input NInputs="2">
          <Input Type="Target" Label="eE" Expression="eE"/>
          <Input Type="Spectator" Label="eE" Expression="eE"/>
        </Input>
        <Output NOutputs="2">
          <Output Type="Target" Label="eE" Expression="eE"/>
          <Output Type="Spectator" Label="eE" Expression="eE"/>
        </Output>
      </Selection>
      <Class ClassIndex="0">
        <Ranges>
          <Range Index="0" Min="6.5658867359161377e-01" Max="4.9900946617126465e+00"/>
          <Range Index="1" Min="6.5658867359161377e-01" Max="4.9900946617126465e+00"/>
        </Ranges>
      </Class>
    </Transform>
  </Transformations>
  <MVAPdfs/>
  <Weights NetDepth="5" InputDepth="1" InputHeight="1" InputWidth="4" BatchSize="1" BatchDepth="1" BatchHeight="1024" BatchWidth="4" LossFunction="R" Initialization="F" Regularization="0" OutputFunction="I" WeightDecay="0.0000000000000000e+00">
    <DenseLayer Width="1024" ActivationFunction="3">
      <Weights Rows="1024" Columns="4">
        -1.786340e-01  -5.241082e-02  -2.974939e-02  -2.180921e-03  1.550940e-01  7.473549e-02  -1.207020e-01  5.794919e-02  3.272464e-02  -3.489449e-02  -2.089255e-02  -7.041826e-03  8.460407e-02  2.705794e-03  -2.063386e-02  1.325652e-01  6.710813e-04  2.513687e-02  7.411429e-02  -3.953978e-01  6.177671e-02  1.408216e-02  -7.659656e-02  7.033440e-02  1.243321e-01  -6.998170e-03  -8.108880e-02  -6.212240e-01  1.550622e-01  7.083931e-02  -1.020724e-01  8.988281e-02  1.354672e-01  7.667797e-02  2.618632e-02  -8.182541e-02  3.226927e-02  6.162574e-02  3.926863e-02  -3.092076e-02  -1.070474e-01  -2.342692e-02  3.110545e-03  -1.482908e-01  1.337313e-01  -9.326153e-03  5.815077e-02  -5.939365e-02  1.195566e-01  -2.904432e-03  1.151306e-01  1.443504e-01  -4.106838e-02  4.191462e-02  -7.534502e-02  6.489190e-03  5.518587e-02  5.086900e-02  -8.364981e-03  -2.184489e-02  -6.530378e-03  -1.280117e-02  -5.973455e-02  5.818262e-02  -7.403932e-02  -5.686906e-02  3.049859e-02  1.091354e-01  -2.750635e-02  -3.567460e-02  -3.323242e-02  -7.328142e-02  7.605124e-02  1.540028e-03  -3.837998e-03  -2.639895e-01  4.647545e-02  8.106705e-02  -7.988711e-02  6.666465e-03  -5.375952e-02  6.751469e-03  -1.563318e-02  -1.102394e-01  -4.377022e-02  -5.467102e-02  5.121747e-03  1.125831e-02  8.517743e-02  -1.308115e-02  -6.182469e-02  5.862100e-02  -2.846568e-02  -1.764454e-02  -8.851970e-02  1.499172e-01  -4.842601e-02  3.433831e-02  -4.034443e-02  -6.471119e-02  -5.033897e-02  -6.094798e-02  -7.724823e-03  -1.813944e-02  1.049145e-01  -1.404967e-02  -1.317068e-02  -4.756482e-02  -1.866597e-02  1.933116e-02  5.397228e-02  1.558535e-01  8.408456e-02  -3.490083e-02  -6.409542e-02  -3.359254e-02  -2.789837e-02  1.207153e-02  -1.917168e-04  2.577241e-03  -1.834964e-02  -4.292582e-02  3.236711e-03  4.217053e-02  -1.301156e-01  -4.025264e-02  9.277483e-02  -2.676444e-02  -2.837344e-02  -3.555321e-02  -5.781221e-02  2.713048e-02  -6.261827e-02  1.178456e-02  1.375591e-02  -9.233502e-02  -3.064860e-02  5.221882e-02  -7.054704e-02  -3.487178e-02  1.718048e-02  3.526995e-03  -1.191147e-01  4.991097e-02  -2.285816e-01  1.930298e-01  8.684119e-02  4.511129e-03  -1.064365e-01  -5.868774e-02  -3.417369e-02  -2.582492e-02  1.730399e-01  2.328932e-02  1.461065e-02  -6.070273e-02  8.558212e-02  -1.996937e-03  1.415284e-02  1.988963e-02  -3.627896e-02  1.460633e-02  1.137239e-02  -1.162854e-01  -7.291672e-02  4.544090e-02  -7.463575e-02  3.142927e-02  1.490819e-01  7.058564e-02  1.370748e-02  -7.620955e-02  1.366713e-01  6.886265e-02  -4.069861e-02  4.387211e-01  -9.179757e-02  -6.800964e-02  -3.182696e-02  1.970628e-02  -4.722441e-02  -5.423837e-02  1.031635e-01  -1.317468e-01  4.689726e-02  -7.699813e-02  -1.777719e-01  -1.096200e-01  4.570151e-02  6.141882e-02  -2.048241e-02  -1.339888e-02  -4.908266e-04  -2.377618e-02  8.849992e-02  -1.866378e-01  -1.296484e-02  6.785914e-02  -6.607521e-02  -2.120038e-03  8.734085e-02  -6.864799e-02  2.015620e-02  1.777881e-02  2.348274e-02  5.853214e-02  4.431513e-02  1.355111e-02  1.536425e-01  1.829385e-02  2.077532e-02  -3.156871e-02  5.469513e-02  -2.134161e-02  -7.387964e-02  3.785853e-02  -7.616471e-02  -2.536311e-02  8.835371e-02  -1.022602e-01  1.845361e-02  -6.107936e-02  7.311402e-02  -5.248955e-02  -3.645524e-03  1.537915e-02  7.909453e-02  6.843585e-02  -1.195216e-01  -6.135323e-03  8.705713e-02  1.512969e-01  -3.842154e-02  2.583295e-02  4.540429e-02  -5.523035e-02  1.424162e-01  5.399459e-02  2.788096e-02  3.254649e-01  -8.122500e-02  1.283497e-02  4.538395e-03  5.401120e-03  -8.732209e-02  -5.136657e-02  1.053558e-01  -1.908169e-01  -1.933067e-01  -4.484630e-02  1.461209e-02  4.635577e-01  -1.625439e-02  -4.558703e-02  2.069119e-02  -5.723576e-02  1.775483e-01  2.846488e-02  2.272969e-02  -7.177798e-02  -5.360609e-02  8.075443e-03  6.386524e-02  -5.789306e-02  1.532850e-01  1.142477e-02  1.549740e-01  5.691192e-02  -1.243223e-01  2.883739e-02  -1.946910e-01  -4.466017e-02  -6.755595e-02  4.011815e-02  -2.005833e-02  7.076645e-02  2.349519e-02  2.434655e-02  -1.670666e-01  6.521737e-02  1.364520e-01  1.516642e-02  5.693742e-02  1.202086e-01  3.506253e-02  -3.092257e-03  -2.530400e-02  1.201978e-01  -9.121736e-02  -2.778176e-02  -7.294287e-02  -9.615298e-02  -5.017224e-02  3.760285e-02  5.023722e-02  -5.692441e-03  -9.334719e-02  -8.281048e-03  5.817094e-02  8.552189e-02  -7.619931e-02  1.453041e-01  2.636776e-01  5.607769e-02  3.775889e-02  -5.556281e-02  7.220186e-02  2.361024e-02  1.241819e-01  5.067302e-02  4.451735e-02  -5.443526e-02  -1.338971e-01  -2.176876e-02  -8.595513e-02  2.110902e-02  -2.443089e-01  -5.233701e-02  -8.639681e-03  1.369186e-01  -8.491770e-02  -1.926101e-03  1.117375e-02  -1.109214e-01  1.747366e-02  -5.651739e-02  7.823740e-02  -7.119804e-02  1.236087e-01  3.664228e-02  9.695076e-02  -3.632128e-02  -9.625193e-02  -3.499333e-02  1.842168e-02  -1.300415e-01  -6.259527e-02  -5.635446e-02  -1.540819e-02  3.577707e-02  -1.074993e-02  -6.474485e-02  3.664595e-02  -4.038319e-03  -1.282816e-01  6.164028e-03  -4.664778e-02  6.649389e-02  -5.556745e-03  1.770070e-02  -1.475536e-01  -1.956408e-02  -2.381775e-02  8.202867e-03  -1.488314e-01  2.763418e-02  1.069231e-01  1.245014e-02  -1.353438e-02  2.701522e-02  3.660424e-02  2.189059e-02  4.991681e-04  8.274387e-03  1.671513e-01  6.204258e-03  7.568938e-02  -5.146480e-02  -1.858354e-02  -3.531144e-02  -3.960734e-02  3.369973e-02  -5.788713e-02  1.586470e-02  -1.976652e-02  -8.088101e-02  7.234780e-02  -2.709608e-02  -3.684391e-02  -1.031648e-02  -8.256594e-02  -7.519533e-02  -2.375146e-02  4.447760e-05  1.122106e-01  7.058217e-02  -4.615085e-02  -2.399458e-03  -1.267205e-01  9.449699e-02  -2.729222e-02  -1.632338e-01  1.004448e-01  8.300566e-02  -7.589326e-02  1.214415e-01  5.732960e-02  8.854438e-02  -6.430151e-02  1.041052e-02  -3.404759e-03  1.727277e-02  6.974149e-02  -9.424316e-04  1.725705e-01  9.061571e-02  -8.012573e-02  3.201260e-02  -4.856645e-02  -7.230473e-04  4.375504e-02  -3.760081e-02  -6.146710e-03  6.724211e-02  -6.526106e-02  1.213466e-02  -7.186294e-02  -3.753844e-02  -1.907012e-02  1.443527e-01  5.428656e-02  3.086730e-02  7.501004e-02  -1.555528e-02  -5.758547e-02  3.524249e-03  -4.651092e-02  -1.828737e-01  6.914430e-02  3.974235e-02  -1.297994e-01  1.011453e-01  3.154239e-02  -4.069053e-02  7.690512e-02  1.707544e-02  -5.977130e-02  1.030264e-02  5.045038e-02  3.289807e-02  -1.371779e-01  1.649110e-03  -5.174355e-02  3.795858e-02  6.303322e-02  2.330969e-02  -1.506266e-02  2.123124e-02  -2.599198e-02  2.744948e-02  -1.169453e-02  1.101673e-01  1.669715e-02  1.902750e-02  1.108042e-01  4.199914e-02  1.249375e-01  2.706312e-02  1.679293e-03  8.367863e-03  -6.441014e-02  -7.588009e-03  2.068556e-02  -2.008562e-01  5.548846e-02  2.349551e-02  1.186622e-01  -3.505707e-02  1.190235e-01  1.361513e-02  1.405853e-01  1.353222e-01  -1.562627e-02  5.397314e-02  3.324753e-02  -9.816507e-03  5.622590e-02  -2.115522e-03  -5.368159e-02  3.322123e-02  8.282009e-02  -3.156550e-02  4.183616e-02  1.956108e-02  -8.350479e-02  -6.781366e-02  -5.194722e-02  -6.468555e-03  6.795980e-02  4.204845e-02  -4.502416e-04  1.840094e-03  -4.502473e-02  3.290812e-03  9.386840e-02  8.348411e-02  8.452054e-02  5.241494e-02  7.290579e-02  1.150769e-01  -1.243589e-01  -4.695030e-02  1.001387e-01  -2.148810e-02  1.829800e-02  -4.910410e-02  8.984183e-02  -1.132465e-01  6.296302e-02  1.391821e-02  -7.531406e-02  1.408948e-01  6.871092e-02  5.665113e-02  1.297280e-03  5.656367e-02  6.507932e-02  9.966816e-03  1.289543e-01  -3.784673e-02  -1.920946e-02  -2.890867e-02  -3.832712e-02  5.469734e-02  1.881795e-02  -1.401136e-02  5.517474e-02  -3.383708e-02  1.814240e-01  2.837073e-02  8.933047e-02  -1.664124e-01  -1.478457e-01  -4.551904e-02  1.091997e-02  -6.695182e-03  -1.594972e-01  -2.616490e-02  -3.727033e-03  3.884906e-02  1.270236e-01  8.636024e-02  -7.096002e-02  2.267231e-02  -1.045835e-01  -7.299992e-02  3.728713e-02  -3.227632e-02  -9.871965e-02  -7.511845e-02  -1.942625e-02  -1.817118e-02  -2.268512e-02  -3.836381e-02  -1.264538e-03  2.386515e-03  7.268740e-02  -1.745209e-02  -4.376203e-02  -6.512296e-02  -1.036875e-01  -4.857038e-02  -9.024754e-02  -1.646305e-01  1.351755e-01  -5.673807e-02  2.334622e-01  -6.038201e-02  6.604017e-02  -3.102863e-02  6.620283e-02  3.490138e-02  1.813459e-01  4.997801e-02  -5.085485e-03  1.026052e-01  -2.218715e-02  -8.169639e-03  8.428877e-03  1.632945e-01  5.053432e-02  2.672609e-02  5.115198e-02  2.273670e-01  -6.049791e-02  -1.333311e-02  1.142241e-02  -3.622262e-01  -6.218798e-02  -5.247463e-02  8.448269e-03  -2.106403e-02  -1.004510e-01  -6.661442e-02  1.243039e-02  -1.969641e-02  -9.110422e-02  -7.641495e-02  3.649092e-02  -9.067735e-02  8.401337e-02  8.166636e-03  -8.501420e-03  5.180878e-02  -3.208025e-02  6.520209e-03  -5.213445e-02  -8.892771e-01  3.541773e-03  7.304603e-03  -7.090279e-02  9.719842e-02  6.303523e-02  -2.313690e-02  -6.646256e-02  4.634619e-02  -1.293421e-01  1.158950e-02  -3.630398e-02  1.085021e-01  -2.106625e-02  4.411799e-02  3.959028e-02  1.053123e-02  3.524010e-02  2.033811e-02  9.078962e-02  8.249413e-02  9.632359e-02  7.288332e-02  -4.115957e-02  -1.092785e-02  1.689443e-01  5.699948e-02  -7.306167e-02  9.461862e-02  1.584043e-01  6.831485e-02  -1.216549e-01  -2.910369e-02  1.095870e-01  7.183835e-02  -3.990613e-03  7.877944e-01  1.330359e-01  7.325049e-02  -1.324466e-02  -5.401742e-02  -2.949169e-02  3.065940e-02  -1.603825e-04  2.545718e-02  -1.659382e-01  1.742382e-01  1.689704e-01  -1.972723e-01  -6.216899e-02  -2.755956e-02  -1.313496e-05  2.625170e-04  6.867617e-02  -6.088378e-02  1.111316e-01  1.011873e-01  -1.285724e-01  -6.833004e-02  1.769843e-02  -1.752198e-01  -9.993798e-03  -3.482949e-02  6.034328e-04  -3.646437e-03  -3.600172e-02  -3.196899e-02  -5.996534e-02  2.429001e-02  1.311391e-01  5.907290e-02  -1.530544e-02  1.934725e-02  -1.592114e-01  -7.423397e-03  -1.312261e-02  6.014656e-02  1.141739e-01  9.956772e-03  -8.894419e-02  -1.253431e-01  1.521644e-01  2.464290e-02  7.003639e-02  4.591668e-02  -1.155234e-01  -4.842721e-02  -6.956545e-02  3.024870e-02  -1.135597e-01  -6.677276e-02  -4.636017e-04  6.284907e-02  -3.328469e-02  -2.729830e-02  -1.876367e-02  -8.281006e-03  -1.416073e-01  -2.877603e-02  2.636922e-02  -1.282564e-01  -4.703868e-02  -5.276766e-02  -4.638309e-02  -2.297871e-01  -4.225499e-02  -5.183445e-02  -2.356981e-02  2.794647e-02  1.110433e-01  5.122441e-02  2.352600e-02  1.596054e-01  9.672239e-02  5.170313e-02  -9.059020e-02  2.251014e-01  -8.355305e-02  -7.098899e-02  -4.982545e-02  2.318058e-02  4.330200e-02  -6.395975e-04  -6.075334e-02  1.898560e-02  -7.918226e-02  -5.229539e-02  6.433470e-03  1.053921e-01  -2.245374e-02  2.433130e-02  1.640430e-02  -6.082406e-02  5.489801e-02  -3.125519e-02  7.444359e-02  6.591768e-02  -6.088338e-02  2.316497e-02  -2.156937e-02  -5.600731e-02  5.585553e-02  -4.521443e-02  4.810838e-02  -1.106932e-01  9.438676e-02  6.128328e-02  -8.578810e-03  4.628335e-02  -2.360323e-02  9.583702e-05  -1.373713e-01  5.985770e-02  -1.082790e-01  -2.421019e-02  -1.952006e-03  1.052439e-02  -5.760981e-02  2.070996e-02  1.324850e-02  2.377243e-02  1.150149e-02  4.040347e-02  1.211453e-02  -3.096928e-02  1.034743e-01  8.016869e-02  8.591037e-03  1.492480e-02  4.698063e-02  -2.658315e-02  4.706364e-02  -2.954001e-03  5.788902e-02  2.207573e-02  1.407989e-01  8.672109e-02  -1.143398e-01  -6.974217e-02  1.525721e-01  -1.551830e-01  7.978944e-02  -1.145941e-02  4.875354e-03  3.543895e-02  -4.223284e-02  -2.443858e-02  -9.594987e-02  -1.383426e-01  8.664803e-02  -2.383610e-02  -5.813086e-02  -1.226603e-02  -9.814472e-02  -7.800610e-02  5.813099e-02  1.619411e-02  1.988099e-02  -2.464113e-02  -2.394948e-02  -2.291435e-01  -7.569802e-02  4.432611e-02  -1.087791e-01  -1.077794e-02  -1.164405e-01  7.861644e-03  -1.980319e-02  2.303957e-02  -7.225844e-02  4.816593e-03  3.651508e-02  -8.416197e-02  1.132271e-01  -9.563982e-03  1.553039e-01  7.070142e-02  -1.157271e-01  1.650535e-02  6.528739e-02  -6.400546e-02  -3.376977e-02  -4.611825e-03  4.753008e-02  -1.545451e-02  -8.114159e-02  1.925634e-02  -2.894651e-02  3.845415e-02  1.274597e-01  3.889066e-02  -1.106684e-01  -9.446991e-03  1.303450e-01  -2.623926e-02  -1.058452e-01  1.224431e-01  -9.741183e-02  -4.181012e-02  -3.212394e-02  -1.355300e-01  -1.408279e-01  -6.168623e-03  -7.314705e-02  -3.254235e-02  2.182837e-02  -4.459436e-02  5.836083e-02  5.710543e-02  6.599829e-02  -4.483471e-02  2.497550e-01  2.038337e-01  1.029546e-01  2.228710e-02  -6.051483e-02  5.298277e-02  -3.679851e-02  4.203632e-02  -2.990369e-02  6.664748e-03  7.873023e-02  -1.100321e-02  5.446349e-02  1.060786e-01  -1.642948e-02  3.022108e-02  3.259962e-02  -5.619629e-02  -1.778911e-02  3.753129e-02  1.920216e-02  -4.540801e-02  8.304577e-02  -1.129572e-02  -1.724130e-02  -4.108417e-02  -1.720449e-01  -4.005577e-02  -3.842840e-02  6.252228e-02  7.519714e-02  8.992162e-02  -7.606401e-02  -5.371311e-03  -1.897289e-01  -4.053412e-02  -3.804844e-02  7.703358e-02  -3.926627e-02  -5.081816e-02  -7.509714e-03  -9.678216e-02  -1.359736e-01  -1.672226e-02  -1.070956e-03  2.062645e-02  1.475579e-01  1.435777e-02  6.169031e-02  -1.627624e-01  1.660883e-01  3.593848e-02  1.898938e-02  4.896278e-03  -1.077805e-01  -5.282484e-02  -2.430766e-03  -9.438036e-02  2.607027e-02  -2.765294e-02  -1.751105e-02  4.011898e-02  -1.174832e-01  -3.094749e-02  -7.973780e-02  -1.343420e-03  -1.093064e-01  -4.885172e-02  -6.636192e-02  1.349048e-02  8.152249e-02  5.390701e-04  -2.956990e-03  1.103830e-01  -8.711660e-02  -6.690269e-02  7.300562e-02  -6.235372e-02  3.323525e-02  -3.912530e-02  1.658978e-02  -3.996649e-02  1.257851e-01  4.790558e-02  6.813598e-02  -4.852354e-02  -1.342275e-01  -2.395931e-02  4.030654e-02  6.077339e-02  3.638642e-02  -1.725797e-02  1.685285e-01  -2.825927e-02  -2.272796e-02  5.489329e-02  -6.750999e-02  8.401496e-02  -1.055537e-02  -3.328599e-02  -3.221665e-05  -5.625037e-03  -8.962206e-02  2.925900e-02  -6.824392e-02  -3.220099e-03  -1.130534e-01  -1.987898e-02  -4.072413e-03  1.014215e-01  -1.274357e-01  -6.087678e-02  -2.805092e-02  5.772220e-02  -1.776914e-01  -3.256424e-02  8.300514e-03  8.598987e-02  1.637537e-01  9.095236e-02  6.748043e-02  1.831767e-02  1.557679e-01  3.940386e-02  -7.142163e-02  -7.166585e-02  -3.069798e-03  4.361330e-02  1.347719e-02  -1.514528e-02  6.590765e-02  2.066400e-02  -8.156321e-02  1.080813e-01  -8.719203e-02  2.486879e-02  5.787988e-02  1.615516e-01  -1.586188e-02  -2.264794e-02  1.352817e-01  -2.084656e-02  6.586784e-02  2.828531e-02  1.054758e-01  1.539686e-01  -1.229230e-01  -4.044105e-02  1.381528e-03  -1.013876e-01  -3.687818e-02  5.265588e-02  -5.245192e-02  -2.502463e-02  -1.039645e-01  7.924045e-03  -2.340922e-02  4.606394e-02  -3.235376e-02  1.780840e-03  2.858010e-02  -8.105890e-03  1.416123e-02  1.815584e-02  7.656467e-02  -7.413253e-02  -9.171925e-02  -2.150005e-02  1.634062e-02  -1.770599e-01  -2.052685e-02  1.340650e-02  4.153198e-02  1.867992e-01  -5.059483e-02  4.254716e-02  -5.938619e-02  -6.271871e-02  2.676819e-03  -5.822642e-02  6.294870e-02  -1.104312e-02  -1.318773e-01  -5.228232e-02  -1.312047e-02  9.395597e-02  2.760465e-02  -9.370760e-03  -1.337062e-01  1.378614e-01  4.120763e-02  -4.684044e-02  6.046483e-02  1.695450e-03  1.264057e-01  5.290655e-02  1.389685e-02  -6.763229e-02  -1.771074e-01  -3.056778e-02  -1.235439e-01  -1.063246e-01  -7.476582e-02  -5.504541e-03  -1.826694e-04  3.970857e-03  -1.454621e-01  -3.385517e-02  -4.814713e-02  -1.204598e-01  -1.670436e-01  -3.894821e-02  1.720372e-02  6.273044e-02  -6.973289e-03  5.198378e-02  -7.970682e-02  -7.125343e-02  -7.778700e-02  8.436025e-03  -5.061938e-03  -3.814997e-02  1.048309e-01  -9.101125e-04  -3.043349e-02  -2.002505e-01  1.447402e-01  2.105647e-02  5.477096e-02  1.547446e-01  -2.180535e-02  -6.491485e-02  4.161540e-02  -6.158561e-04  8.094179e-02  3.076930e-02  -3.676816e-02  6.633218e-02  -1.779282e-01  -3.487152e-02  -5.973378e-02  -6.698609e-03  -2.551781e-02  -5.271434e-02  4.194727e-02  1.610897e-02  -4.641228e-03  2.482005e-02  -1.153709e-01  1.124949e-02  -6.890539e-02  -6.801918e-02  -2.989387e-02  4.185525e-03  -2.576607e-02  5.044105e-02  -3.427236e-03  -3.692170e-02  -1.186505e-01  -6.560118e-02  -7.085629e-02  -4.842218e-02  1.559924e-01  8.872065e-03  2.694263e-02  -4.528785e-02  7.022344e-02  3.409346e-02  9.561909e-02  6.531651e-02  -2.033678e-01  -3.080006e-02  8.112617e-03  2.090342e-01  1.053588e-01  6.850426e-02  -4.406482e-03  -4.861521e-02  2.030189e-02  2.598066e-02  -4.605432e-02  -1.692291e-01  -1.434768e-01  -5.180311e-02  9.663960e-02  -8.417404e-02  1.743082e-01  7.811619e-02  -5.009791e-02  5.199597e-02  2.944768e-02  5.490138e-02  -1.868073e-02  -1.642845e-02  -1.701705e-01  1.020072e-02  -1.156535e-01  -1.036789e-02  -1.137578e-01  -1.202119e-02  -4.736812e-02  7.041333e-02  4.434993e-02  -2.073287e-03  1.651014e-01  3.546299e-02  1.352693e-01  4.855872e-02  7.936835e-02  1.773997e-01  -9.666058e-02  -3.089769e-02  4.769292e-02  -2.045224e-01  9.070472e-02  3.876629e-02  8.030096e-02  2.911993e-02  -1.682338e-02  2.725945e-02  -4.062351e-02  -1.285319e-02  -3.432859e-02  -4.805327e-02  -2.855769e-02  -1.054935e-01  -1.479808e-01  -7.307222e-02  -6.338433e-03  -1.589082e-03  1.315295e-01  6.797535e-02  4.545127e-05  -8.569570e-02  1.388883e-01  -2.461483e-02  -7.432075e-02  -4.353537e-02  -3.145450e-02  -5.608493e-02  4.896653e-02  -5.846893e-02  4.541227e-02  4.133127e-02  3.778208e-02  -1.325341e-01  3.415641e-02  1.066653e-02  1.069845e-01  -1.194482e-01  4.179747e-02  -2.444376e-02  5.509671e-03  2.621258e-02  -2.053850e-02  4.792797e-02  -6.320895e-02  -3.610887e-02  -1.081457e-02  3.816351e-02  4.321271e-02  -3.635918e-02  -4.878690e-02  -7.329045e-02  -5.260383e-02  -5.747935e-02  -1.142099e-01  -3.658488e-02  1.349285e-03  -7.948785e-03  -1.830383e-01  -8.954087e-02  4.779126e-02  -2.809758e-02  -6.135508e-02  -6.131145e-02  5.494295e-03  -5.615256e-03  1.333918e-01  6.325907e-02  -1.607637e-02  1.016383e-01  8.143652e-02  4.143593e-02  1.062750e-01  7.220182e-02  3.813293e-02  -4.519626e-02  4.677812e-02  -3.565440e-03  -9.638764e-03  -4.256613e-02  1.287236e-03  -3.099058e-03  6.139559e-02  -8.276900e-02  3.735659e-03  2.670632e-02  -9.761085e-02  -6.249867e-02  -1.356111e-02  1.830078e-02  1.172461e-01  8.027308e-02  -8.196479e-03  2.637622e-02  1.527334e-01  1.440749e-02  -2.811230e-02  -1.615898e-01  1.350479e-01  3.003242e-02  -4.956561e-02  2.206394e-02  4.817919e-02  4.939112e-02  1.131149e-03  2.316736e-01  9.881859e-02  -1.861993e-02  7.710234e-02  -9.902142e-02  -1.665186e-02  4.214881e-02  -3.437565e-02  -4.623604e-02  -2.870472e-03  2.184009e-02  2.464331e-03  -2.541422e-02  -1.553797e-01  -4.500770e-02  5.500878e-04  1.012547e-01  1.058679e-01  6.936507e-02  4.560796e-03  2.973285e-02  7.873283e-02  3.488921e-02  4.061693e-04  -5.047086e-03  -8.314213e-02  8.545936e-03  6.172856e-02  5.537652e-02  -1.465536e-01  -1.578750e-02  -3.590386e-02  9.524356e-03  7.183523e-02  -4.125811e-02  -1.252116e-02  -5.357481e-02  -9.104255e-02  2.134765e-02  -3.387225e-02  7.868774e-02  6.448583e-02  -4.697167e-02  8.791853e-02  4.918881e-02  -3.687866e-02  -1.037022e-02  -4.051153e-04  2.147022e-03  -1.077787e-01  1.495994e-02  -1.059163e-01  -1.258193e-01  2.037703e-02  5.722240e-02  -3.997239e-02  -3.213359e-02  -8.963081e-02  -6.496259e-02  2.276774e-02  -6.219940e-02  1.854187e-02  -1.496571e-02  7.285488e-02  -8.561029e-02  -5.490175e-02  -6.556440e-02  4.696928e-02  -8.845033e-02  -7.961592e-02  2.993864e-02  -2.109101e-02  7.869180e-02  -9.898715e-02  2.043489e-02  4.167096e-02  -3.292601e-03  -1.081005e-01  -7.211363e-02  2.587568e-02  5.916640e-02  8.512259e-02  3.988184e-02  5.803333e-02  -7.087288e-02  -3.344155e-02  3.359645e-02  2.185080e-02  8.780946e-02  1.893852e-02  -3.758585e-02  1.200897e-02  9.703589e-03  1.085923e-01  -2.391204e-02  1.179210e-01  -6.995338e-02  -2.175775e-02  -3.581855e-02  4.039250e-02  -1.091245e-01  -9.654402e-02  -2.990167e-02  3.931300e-03  -1.944156e-01  -2.919960e-02  -5.223691e-02  3.935656e-02  5.216547e-02  4.549168e-02  6.321857e-02  -1.166623e-02  -3.145059e-03  -2.893464e-02  2.834962e-02  9.672008e-03  -5.734527e-03  8.417443e-02  -4.250002e-02  5.594258e-02  4.450272e-02  -1.098124e-01  -5.944825e-02  -2.064335e-02  1.558006e-02  1.033257e-01  1.690179e-02  1.611692e-03  8.193874e-02  -9.911068e-03  -4.635060e-02  1.893393e-02  1.177665e-01  -1.633619e-01  -2.936531e-02  -4.436010e-02  -5.712587e-02  -1.378186e-01  -5.179584e-02  -3.634154e-02  -7.811691e-03  -9.936365e-03  -4.694457e-02  -2.775978e-02  -7.296095e-02  4.507169e-02  3.133281e-02  7.864083e-02  -5.453173e-02  1.549645e-01  7.037097e-02  -3.157621e-02  6.932915e-03  -3.806461e-02  7.691639e-03  5.902580e-03  1.029956e-01  -7.007461e-02  -1.869731e-02  1.271328e-01  1.290131e-01  -1.425882e-01  -2.688071e-02  -1.706840e-02  -1.413891e-01  4.801248e-02  -9.199657e-03  -5.401812e-02  5.244667e-02  1.166464e-01  8.690784e-02  -4.040651e-02  8.850283e-02  -7.641384e-02  -6.392089e-02  -8.444511e-03  -1.437110e-01  7.616709e-02  4.017310e-02  7.366525e-02  8.772375e-02  -5.349979e-02  3.418396e-02  4.619807e-02  5.170117e-02  -2.910522e-02  -3.210982e-02  -2.221265e-02  3.097465e-02  -6.272803e-02  -6.560285e-02  -3.359142e-02  1.951814e-02  -1.568393e-01  -5.746995e-02  -6.826679e-02  -1.642419e-01  -1.877694e-02  -2.048270e-02  -8.308563e-02  4.541244e-02  -1.182959e-01  -1.146332e-02  4.073228e-02  6.001973e-02  1.018870e-01  3.999185e-02  6.155776e-02  5.299276e-01  4.896663e-02  3.510470e-02  1.874811e-02  -1.447901e-01  -1.331242e-01  1.707432e-01  1.214296e-01  -5.570292e-02  -4.944126e-03  2.192207e-02  -9.341815e-03  1.475853e-01  -8.015551e-02  -6.688783e-02  4.095941e-02  1.890687e-02  8.148643e-02  1.735237e-02  -1.938176e-02  1.310290e-02  2.105932e-02  -2.225493e-02  1.540737e-01  2.497146e-02  1.231262e-01  5.429839e-02  7.155717e-02  6.144567e-02  -7.146566e-02  -6.462036e-02  -3.420516e-02  -6.336513e-01  -2.010434e-02  -2.058979e-02  1.106555e-01  -3.273379e-02  -1.099185e-01  7.257721e-03  1.864179e-02  5.856464e-02  -1.031944e-01  -1.150029e-02  -3.583749e-03  -2.290982e-02  -1.032131e-01  -6.355693e-02  -1.501276e-03  -1.558599e-02  -3.788410e-02  -1.500517e-02  -1.013898e-01  1.621919e-01  -1.581908e-01  -6.303909e-02  4.699163e-03  6.964561e-02  5.627240e-02  5.979817e-02  2.602262e-02  8.061175e-03  1.933130e-01  2.736596e-02  3.312493e-02  -9.202731e-02  -1.284668e-01  -7.814318e-02  -2.113811e-04  -1.445438e-01  -6.190605e-03  -1.859788e-02  -1.450300e-01  1.110199e-01  -4.528696e-02  1.117881e-02  3.009463e-03  -2.333066e-02  5.057242e-02  -4.712325e-02  5.684657e-02  -9.218030e-04  -6.233576e-02  7.840515e-02  4.270514e-02  -3.774487e-01  1.238319e-01  7.300506e-02  1.670265e-02  1.098506e-01  -3.352728e-03  -2.783638e-02  -3.784312e-02  -1.208453e-01  1.171993e-01  3.965644e-02  -1.066512e-01  2.085008e-02  7.406228e-04  4.316377e-02  -3.852317e-02  1.091801e-01  1.041231e-01  -3.967330e-03  -1.617743e-02  -3.065990e-02  1.005071e-01  7.805660e-02  -5.446689e-02  -2.655188e-02  2.141315e-02  -4.430196e-02  -1.422877e-01  -1.350063e-01  2.541801e-02  6.029328e-03  1.300501e-01  -1.114194e-01  -1.149213e-01  2.473196e-02  -6.567948e-02  2.425022e-02  -5.088773e-02  -7.497026e-03  1.313135e-04  2.450736e-04  4.468560e-02  -1.112327e-02  -2.236201e-02  4.806891e-02  7.546765e-02  5.155776e-02  5.396605e-03  -1.729894e-02  -1.832791e-03  -2.398258e-02  8.666673e-03  -8.708772e-02  -1.201683e-01  -4.515707e-02  -1.047222e-03  1.599526e-02  1.124483e-01  1.468366e-03  -3.990389e-02  -6.542244e-02  -1.294351e-01  -2.743785e-02  8.569906e-02  2.786804e-02  3.923157e-03  -6.220271e-04  -2.638484e-03  4.565316e-02  9.503930e-02  4.381768e-02  -3.900135e-02  5.560467e-02  -8.444722e-03  2.371192e-02  -1.597854e-01  2.289151e-02  2.204762e-01  -1.959333e-01  -1.610529e-01  2.596119e-02  6.808487e-02  -4.921377e-03  4.564921e-03  -2.764631e-03  -5.660697e-02  -3.738113e-02  -7.329227e-02  -9.017380e-02  -2.560202e-02  -2.743478e-02  -6.203176e-02  3.260091e-02  1.067322e-01  2.185317e-03  -7.318227e-02  -2.110996e-02  7.434757e-04  -4.593748e-02  8.828740e-04  2.761835e-02  4.084460e-02  6.019477e-02  -4.691200e-02  5.494148e-02  -1.554925e-01  -3.665389e-02  1.763629e-02  -7.914232e-02  9.996643e-02  4.626741e-02  -1.286812e-03  7.579148e-02  -1.457921e-02  2.981566e-02  4.751029e-03  -3.244490e-02  9.588212e-02  -1.574354e-02  -8.271388e-02  -1.245937e-01  1.236014e-01  1.466535e-02  4.206079e-02  1.331392e-01  9.672645e-02  -8.125061e-03  2.968741e-02  5.741798e-02  -6.945140e-02  -3.525940e-02  2.309660e-03  3.998188e-02  8.900081e-02  5.087757e-02  -7.187688e-02  1.264865e-02  2.869143e-02  3.958585e-02  -1.407060e-01  4.089420e-02  7.180764e-02  5.301565e-02  2.445031e-02  1.631729e-02  -1.334153e-01  -1.794359e-02  -6.685474e-02  -1.301039e-01  -1.246518e-02  9.895799e-03  2.294121e-04  8.232747e-04  7.986419e-02  2.851545e-02  -1.652834e-02  3.611228e-01  6.762486e-02  4.470892e-02  3.720423e-02  -1.021856e-01  -6.425329e-02  1.809567e-02  -1.387239e-02  3.936074e-03  1.034297e-01  7.516234e-02  -2.649418e-02  1.123623e-01  -1.486865e-01  3.015717e-03  4.991670e-02  7.488164e-02  -1.152701e-01  -5.930499e-02  2.349945e-02  -1.696103e-02  -5.320220e-02  -5.109730e-02  -1.397338e-02  -3.744674e-02  1.233900e-01  -1.403991e-02  -3.669332e-02  -9.497416e-02  2.726935e-02  -1.790442e-02  1.438950e-01  -2.926297e-02  8.983126e-02  -6.924745e-03  -4.221445e-02  7.211366e-02  -3.445169e-02  -1.065123e-02  -2.562963e-03  2.052168e-01  -8.493601e-02  -4.044267e-02  -3.487647e-02  -2.036993e-01  -6.730340e-02  1.861344e-02  5.090214e-02  -7.132652e-03  -3.664198e-02  -7.129489e-02  2.781465e-02  2.292557e-02  -1.539566e-01  -5.318720e-02  8.955279e-02  9.871616e-02  -5.729211e-02  1.708950e-02  4.655305e-02  4.742850e-02  -8.455894e-02  -2.597971e-02  -1.102242e-01  4.862806e-02  2.276756e-03  2.489823e-02  4.293777e-02  2.784712e-02  -6.092686e-02  2.329787e-02  1.673763e-02  1.308790e-02  -9.142679e-02  -3.472218e-02  -1.007807e-01  -3.399381e-02  3.975540e-02  -3.579675e-02  -3.236714e-02  5.894153e-03  1.087409e-01  -1.516601e-02  4.695277e-02  9.496842e-03  1.108409e-01  7.132526e-02  -6.024783e-02  -4.137520e-03  1.363017e-01  7.100836e-02  4.347273e-02  -1.453623e-02  -5.161856e-02  -5.469869e-02  -3.075303e-02  1.146792e-01  -8.745988e-03  3.184905e-02  3.753126e-02  2.144415e-01  -2.302027e-02  -5.216978e-02  -4.617676e-02  3.154978e-02  5.179380e-04  2.600387e-02  -1.495306e-02  -1.614976e-01  2.663413e-01  -2.777990e-01  -2.533931e-01  2.692894e-01  -2.787708e-03  3.585213e-02  8.952337e-03  -2.402940e-02  -1.126140e-01  -6.310429e-02  3.237163e-02  -2.530291e-02  -8.229391e-02  -6.192340e-02  -2.597061e-02  4.300673e-02  2.806416e-03  -3.768205e-02  1.752431e-01  -2.808025e-02  -2.260790e-02  -6.909026e-02  5.848494e-02  4.702595e-03  2.884941e-02  6.873376e-03  2.516294e-04  -3.372761e-05  1.954010e-01  6.148405e-02  -1.101889e-01  -1.947129e-01  8.869570e-02  -2.744545e-02  6.886648e-02  2.710030e-02  1.563349e-01  5.127785e-02  9.403519e-02  -7.442433e-02  1.785148e-01  5.633872e-02  2.896978e-02  1.714064e-01  -3.439665e-02  3.203356e-02  6.541058e-03  1.003732e-01  -1.646397e-01  -7.843994e-02  1.450642e-01  -9.398072e-02  -2.921868e-03  -4.131972e-02  -2.844745e-02  8.376029e-03  1.915249e-01  -1.469209e-01  -2.579355e-01  2.124131e-01  7.255507e-02  -2.259631e-02  -3.029468e-02  -3.273666e-04  4.981620e-02  -5.824133e-03  -5.171374e-02  -3.203372e-01  4.322854e-02  7.024626e-02  -6.156944e-02  4.420104e-03  -1.332040e-01  7.819861e-03  -8.214541e-02  -4.812457e-02  -4.979267e-02  -7.732408e-02  5.451064e-02  1.603148e-02  3.638582e-03  -4.719520e-02  2.193386e-02  4.097094e-02  1.160188e-02  5.902079e-02  -2.583935e-02  -2.395367e-03  -7.033930e-02  -2.558753e-02  -5.473254e-04  3.645521e-03  -4.928128e-02  -5.413256e-02  1.765215e-01  -5.294950e-02  1.484804e-01  3.297052e-02  3.393612e-02  1.315988e-01  2.423767e-02  -1.043850e-01  -1.164552e-01  -4.019984e-03  -1.296993e-01  7.397022e-03  2.699732e-02  6.486764e-02  1.401652e-01  -1.433719e-01  -2.231060e-01  6.323860e-02  1.329279e-01  1.967516e-02  -3.741706e-02  3.064815e-02  -1.314679e-02  -2.864127e-02  6.998792e-03  -8.453511e-02  -1.646448e-02  -4.705639e-02  2.074476e-01  8.069929e-04  1.091164e-01  1.174146e-02  5.546644e-02  1.327510e-01  -1.345461e-01  3.161883e-03  1.081437e-02  1.099137e-01  2.439499e-02  1.213480e-03  -1.580847e-04  1.782160e-03  -9.465821e-02  1.754675e-02  1.189074e-01  -1.532463e-02  -8.241037e-02  1.705616e-02  -4.707332e-02  -3.396652e-02  -6.378961e-02  -4.469755e-02  -1.857214e-02  1.040954e-01  1.149402e-01  6.800602e-02  9.731255e-02  9.941402e-02  3.018948e-02  9.839844e-03  4.756097e-04  1.280811e-03  -1.133199e-01  1.456846e-02  -4.038878e-02  -3.599904e-03  -4.749278e-03  -3.744104e-02  9.337104e-03  2.356801e-02  1.324711e-01  7.312549e-02  -9.587074e-02  -9.544969e-02  1.488707e-01  6.552606e-03  4.427401e-02  5.853687e-03  1.914811e-02  -4.634219e-02  6.835888e-02  -5.443082e-02  -4.303278e-02  4.566073e-02  1.684796e-01  9.616954e-02  1.805386e-01  5.586021e-02  -3.352675e-03  -6.280559e-02  -1.614267e-02  -5.123449e-02  1.115262e-02  -7.215842e-03  5.259175e-02  -1.995214e-02  -1.612971e-01  1.122949e-02  1.614603e-01  9.282357e-02  -8.731289e-02  4.426022e-02  -5.199509e-02  -7.449787e-03  9.597120e-02  -5.056201e-02  -1.270514e-01  -7.301208e-02  1.065551e-01  -3.005274e-02  1.340943e-01  8.345470e-02  -2.093126e-02  -3.218537e-02  -1.061479e-01  -8.055150e-02  4.707350e-02  -1.251401e-02  1.003787e-01  2.379730e-02  1.018908e-01  2.725455e-01  -3.932153e-02  1.904855e-02  -9.203105e-04  4.198786e-02  -8.436607e-03  -2.136378e-02  -5.936979e-04  3.096804e-03  -1.193927e-01  2.716599e-02  -6.329852e-02  9.524278e-02  9.920806e-02  5.032012e-02  7.644919e-02  6.415251e-02  5.843879e-02  3.642511e-02  3.605865e-03  1.898656e-01  -7.520303e-02  2.411434e-02  1.041031e-02  3.404703e-02  -7.704392e-02  -6.805846e-02  1.050582e-02  -4.197831e-02  9.494082e-02  7.845092e-02  -1.440142e-02  3.458670e-02  1.197625e-01  -1.347755e-03  -4.176420e-02  -2.055987e-01  -1.937528e-02  -9.793298e-03  -1.849884e-04  -9.108072e-03  -1.497724e-01  -4.421636e-03  -3.691371e-02  6.200423e-02  9.732516e-02  3.497782e-02  -8.475073e-02  -7.391809e-02  -8.568385e-02  -4.715772e-02  1.312142e-01  -6.925398e-02  3.083359e-02  3.746981e-02  5.546315e-02  9.645436e-02  1.843494e-01  1.520243e-02  9.791175e-02  -7.960513e-02  2.197359e-02  1.099584e-01  2.143774e-01  -9.620755e-02  -8.582822e-02  1.563875e-02  -3.951686e-02  5.637009e-02  5.191911e-02  -2.318585e-02  3.681633e-02  4.351636e-02  1.300296e-01  6.138454e-02  9.847322e-03  -8.781691e-02  9.275273e-02  7.205890e-02  -9.587538e-03  -8.450068e-03  7.528920e-03  -2.727877e-02  1.649760e-04  -6.329848e-03  1.056018e-01  1.095066e-02  2.015834e-03  -5.290701e-02  -1.329633e-01  -4.295446e-02  -7.842393e-03  -2.594780e-01  7.972071e-02  -7.251178e-02  -2.093243e-01  1.718498e-01  -2.642584e-02  2.677742e-02  -1.850369e-02  -1.013094e-02  1.090459e-02  3.274417e-02  1.551828e-02  8.104517e-02  7.499047e-02  4.120828e-04  -2.910140e-02  4.713699e-02  1.091734e-01  5.397169e-02  3.850060e-02  -1.441808e-02  -4.885634e-02  -6.385826e-02  -7.684631e-04  -6.562205e-02  7.875989e-02  -8.734978e-03  -8.566741e-03  -4.056330e-02  -9.520910e-02  -6.786559e-02  7.935522e-02  -1.915600e-02  5.181968e-03  5.250565e-03  6.947932e-02  1.030074e-01  -8.850051e-02  -3.558339e-02  5.679077e-02  -7.406273e-02  1.246314e-01  -3.709063e-03  -1.074545e-02  -1.180994e-01  -5.344570e-02  -6.261818e-02  4.342115e-02  1.150726e-02  -1.007533e-01  -3.527322e-03  -2.789257e-03  -3.057173e-02  -1.050871e-01  1.317548e-02  -4.108461e-02  -1.110291e-02  4.221430e-02  -1.394600e-02  -6.283151e-02  -4.978834e-02  -1.026681e-01  -5.365627e-03  -9.244879e-04  -7.711968e-03  1.073014e-02  4.684927e-03  7.599320e-02  -4.206578e-02  -1.156592e-01  -8.226426e-03  8.618300e-02  -6.880923e-02  -5.251956e-02  -2.791892e-03  -7.376952e-02  3.637200e-02  -1.093177e-01  -7.438049e-02  6.482034e-02  -2.505481e-02  1.640723e-01  4.458562e-02  5.430986e-03  -7.959331e-01  -7.426585e-02  -7.698426e-02  4.391919e-02  -1.520583e-02  -2.357389e-02  3.239413e-02  2.033895e-04  -3.436664e-02  -9.316579e-02  -1.406637e-02  2.835937e-02  -4.518560e-02  3.185690e-02  -2.587837e-02  -1.261131e-03  2.271074e-03  5.439554e-02  -3.656833e-02  -5.188287e-02  3.953447e-02  1.188118e-01  5.763436e-02  -6.574457e-02  2.954935e-01  1.081422e-02  -2.535990e-02  1.278224e-01  -1.493370e-01  7.649375e-02  -3.577647e-02  6.138483e-02  -6.889164e-02  -7.512753e-02  -4.245488e-02  -2.480448e-02  -1.113671e-02  -7.248794e-02  5.086100e-02  -5.333819e-02  8.047128e-02  1.270927e-01  4.092379e-02  -6.662470e-02  2.613506e-01  1.137698e-01  6.849127e-02  3.183762e-03  -5.158903e-02  1.324912e-01  7.709824e-02  -1.011376e-02  4.390952e-02  7.405643e-02  6.246140e-02  -4.605011e-02  1.468300e-01  -1.135396e-01  -4.153930e-02  1.379051e-01  -4.720225e-04  3.679410e-02  4.704824e-02  5.493376e-02  -6.347564e-02  -1.120787e-01  -3.375440e-02  5.825208e-02  -2.241771e-02  -8.592726e-02  -2.027349e-02  1.054327e-02  -1.131939e-01  7.964619e-02  5.112099e-02  -9.267962e-04  2.178524e-01  -1.474453e-01  -7.453915e-02  3.315533e-02  -2.408957e-01  1.028683e-01  -3.285373e-03  4.365996e-03  4.894590e-02  1.566177e-01  6.620826e-02  3.659574e-02  1.445245e-02  1.174916e-01  8.085631e-02  -2.362693e-01  -6.030048e-02  -1.073003e-03  -4.985116e-02  -2.602907e-02  -8.069061e-03  -1.160881e-02  -3.004831e-02  2.731871e-02  7.648493e-02  1.120389e-01  -3.514811e-03  -4.506635e-03  -2.965343e-02  7.837062e-02  1.994307e-02  6.887601e-02  -6.605296e-02  -7.467371e-02  -5.966308e-02  -3.453853e-02  7.854611e-02  3.902603e-02  -2.496137e-02  2.669679e-03  -6.427574e-02  1.346140e-01  8.235557e-02  3.436521e-02  -1.405003e-02  2.267889e-02  -5.815950e-02  7.109079e-02  -6.299733e-02  -1.290851e-01  -4.674591e-02  -8.187969e-02  6.638326e-02  -5.172418e-02  -5.255103e-02  3.444648e-02  -2.486897e-01  -7.475706e-03  -2.869716e-02  -4.814713e-03  -1.089193e-01  -3.586384e-02  -7.896050e-02  9.789632e-02  3.444253e-02  8.904172e-02  3.278286e-02  7.689916e-02  -1.015587e-01  -1.055952e-01  -3.305066e-03  -2.104030e-02  -7.043070e-02  -4.739336e-02  5.025155e-03  4.839863e-04  2.520355e-04  -9.407362e-02  -3.992256e-02  -5.756345e-02  1.369319e-01  1.061068e-01  -1.953021e-02  5.632202e-02  -9.159573e-02  -1.621354e-01  -1.335529e-02  -6.033055e-02  -3.479056e-02  6.898408e-02  -9.475037e-03  -1.563172e-04  5.690704e-02  1.859495e-01  8.249114e-02  -1.087196e-01  1.229262e-01  3.212832e-02  -1.582333e-02  -6.808733e-04  1.108003e-02  -1.051494e-01  -8.969976e-03  4.070313e-02  4.236280e-03  6.968205e-02  -2.625523e-02  1.278723e-03  -4.412004e-02  1.044542e-01  5.444442e-03  1.511760e-01  -6.899604e-02  1.410659e-01  -1.346925e-01  -2.393587e-01  -1.508883e-01  -1.427446e-01  -8.123409e-02  9.375551e-02  4.597253e-02  3.298612e-03  -5.889834e-02  4.479085e-02  1.547428e-02  2.912878e-02  -5.532094e-02  1.063488e-01  7.480341e-03  5.805337e-02  2.520838e-02  4.464094e-02  -2.693369e-02  8.345741e-02  7.945628e-02  -2.886778e-02  1.674355e-02  1.374285e-01  5.169506e-02  -1.052664e-01  4.674978e-02  -7.115480e-02  4.554024e-02  -7.023928e-02  -1.946022e-02  -9.104428e-02  -3.982847e-02  -9.135406e-02  4.133923e-02  -2.168634e-01  2.073816e-01  2.463966e-01  1.321525e-01  3.088662e-02  6.252289e-02  -3.073370e-02  1.098707e-02  -1.058974e-01  1.201671e-03  -2.959543e-03  1.275038e-02  -4.137602e-02  -1.506233e-03  3.690417e-02  1.300801e-02  -5.452389e-02  -2.619858e-02  1.329499e-01  -5.215907e-02  4.260030e-02  2.492335e-02  -1.817025e-02  -1.284265e-01  1.718853e-01  5.338508e-02  -2.629399e-02  1.334846e-01  2.033475e-01  6.979772e-02  2.514666e-02  -7.382361e-01  1.140865e-01  6.548971e-02  -1.461784e-01  3.280430e-02  1.218259e-01  2.527102e-02  -5.053409e-02  8.905432e-02  -4.083206e-02  1.711301e-02  4.273853e-02  -8.671502e-02  9.841928e-02  4.873916e-02  -5.401459e-02  6.915057e-02  -1.395378e-01  -1.032650e-02  -5.905009e-02  -7.765983e-02  -1.761783e-02  -4.233712e-02  -1.414960e-02  -3.823840e-02  -9.035469e-02  -3.985563e-03  7.322682e-02  6.394853e-02  -8.334036e-02  2.982871e-02  5.660474e-02  -6.729651e-04  -1.119274e-01  2.426975e-03  -6.226184e-03  5.823918e-02  7.545835e-04  3.303654e-02  -5.385246e-05  1.691777e-01  3.086411e-02  -4.784003e-02  4.903678e-02  5.610602e-03  -1.614200e-01  -5.520054e-02  3.007608e-02  -1.405954e-01  -8.739265e-02  1.464296e-02  -2.583581e-02  1.515041e-02  -8.288425e-02  -3.935692e-02  1.027947e-02  -1.994585e-01  1.089464e-02  -2.353541e-02  -8.182567e-03  1.295394e-01  -1.329672e-01  -6.410462e-02  1.022197e-02  -2.564301e-01  2.825815e-02  2.248432e-02  5.114676e-02  -3.312195e-03  -1.154220e-01  -8.084295e-02  9.245212e-02  7.545494e-02  -8.015621e-02  -3.037970e-03  -1.754580e-02  -2.765295e-02  4.012166e-02  1.452004e-02  6.233152e-04  -2.316350e-03  7.230864e-02  5.568770e-02  -1.224942e-02  -4.610674e-02  8.714954e-02  7.760540e-02  -8.894469e-02  -2.592140e-02  -6.177324e-02  3.668182e-02  -6.388487e-02  1.333652e-01  -8.970583e-03  1.258974e-02  5.233022e-03  3.768918e-02  -4.964276e-02  -5.815965e-02  6.020941e-03  2.276633e-02  -1.391788e-01  -3.901979e-02  -6.173259e-02  -5.564241e-02  1.429859e-01  1.305257e-02  8.472048e-02  8.367632e-02  1.019381e-01  -1.266693e-02  2.493116e-02  -3.423568e-03  -2.449550e-02  -6.766710e-02  4.665340e-02  -3.540949e-04  -6.881808e-03  -3.612535e-02  1.244693e-02  -5.594030e-02  -1.705423e-01  -1.595373e-02  1.248895e-02  5.181092e-02  -8.814034e-02  -4.332327e-02  2.265668e-02  -1.757300e-01  -4.243750e-02  -3.305863e-02  -9.745681e-02  -2.697332e-01  -9.588099e-02  -2.125378e-02  2.038909e-03  -8.500028e-03  2.884809e-02  5.837467e-02  -1.736466e-02  -2.273058e-02  -4.940439e-02  3.180452e-02  -3.060505e-02  -6.319993e-02  -6.558346e-02  8.676725e-03  -1.071053e-03  1.614902e-02  -1.233642e-01  -1.655355e-02  -3.244800e-03  -1.513307e-02  -8.862239e-02  1.299469e-02  -3.220150e-02  -3.891927e-02  -8.850417e-02  -3.502871e-02  -6.942040e-02  -2.465626e-01  -1.024562e-01  1.169374e-02  1.624405e-01  -2.742049e-02  1.321554e-02  4.092268e-02  3.462327e-02  -3.461156e-02  8.477744e-02  -1.814297e-02  -2.486443e-02  -5.571990e-02  -1.388919e-01  -3.143620e-02  -1.199193e-01  -5.020635e-02  1.920158e-01  3.129586e-02  -2.291458e-02  -7.924467e-01  -1.964134e-02  4.847282e-02  -3.565431e-02  -6.724872e-02  1.090825e-01  7.573681e-03  -5.125394e-02  -7.408934e-02  -5.491575e-03  1.720030e-02  4.804786e-02  7.213482e-02  -3.155025e-02  3.192098e-04  8.828184e-02  -8.614716e-05  1.087756e-02  4.329767e-02  5.591155e-02  6.729832e-02  6.767510e-02  5.532790e-02  -1.397935e-01  3.189896e-02  1.012844e-01  7.981617e-02  1.882966e-02  -1.244007e-02  -1.370268e-01  -4.182638e-02  1.230295e-03  -1.845130e-01  -6.950086e-02  -5.661332e-02  -1.382048e-02  -2.335737e-02  -3.464154e-02  2.788699e-02  1.103723e-02  5.138346e-02  -1.175334e-01  -8.223247e-02  1.394866e-01  -2.532945e-02  1.203218e-01  8.745583e-02  6.028408e-02  1.396876e-02  -1.011166e-01  -5.628047e-02  4.211406e-02  -2.049252e-01  -1.797155e-01  -5.077800e-02  3.000133e-02  -7.659448e-04  -8.148447e-02  -7.167465e-02  1.615341e-02  -6.769677e-02  5.697246e-02  5.332159e-02  1.427464e-01  2.995929e-02  1.675649e-01  6.143920e-02  1.835262e-02  -8.263446e-02  6.527951e-02  -1.052810e-03  1.460135e-01  -4.490462e-02  -5.666585e-02  -1.612400e-02  7.153999e-02  -6.355846e-02  -5.589136e-02  4.006670e-02  7.423972e-02  -1.062608e-03  1.035973e-01  5.779207e-02  -9.477886e-02  3.216334e-01  -8.493733e-02  -7.226886e-02  1.133361e-02  -3.665142e-02  -8.242330e-02  -9.800046e-03  6.021295e-04  -3.757979e-03  -4.839196e-02  1.437753e-02  2.532487e-02  -7.173324e-02  4.055403e-02  1.853658e-02  -4.393877e-04  7.005953e-03  -1.288444e-01  -3.309870e-02  8.915309e-04  -1.416871e-01  -1.156857e-02  6.791622e-02  -5.612777e-02  5.787173e-03  -1.011571e-01  -1.383580e-02  -8.175852e-03  -3.582015e-02  -1.287169e-02  5.597712e-02  -1.009325e-01  9.828513e-02  -1.832088e-01  -2.990869e-02  -4.324675e-02  2.881083e-02  -7.404558e-02  1.762662e-02  4.555145e-02  5.422439e-02  -5.755608e-03  3.354459e-02  -6.549426e-03  -1.020724e-01  -3.454830e-02  -1.122807e-02  4.331134e-02  1.521749e-01  6.477844e-04  -2.040705e-02  1.568522e-02  -1.161909e-01  -8.354108e-02  2.956463e-02  3.025286e-02  4.872746e-02  1.575735e-01  2.974593e-02  3.664952e-02  2.587201e-02  -1.293164e-01  -7.743617e-02  4.844697e-02  -2.420025e-01  1.102926e-03  4.463603e-02  -3.847063e-02  -5.093436e-02  7.529528e-02  -3.726470e-02  4.545058e-02  8.233303e-04  2.703844e-02  -1.938289e-02  2.181492e-04  -4.589865e-03  -1.056222e-01  -7.656933e-02  6.135832e-02  -4.526169e-02  4.342867e-03  4.569163e-02  5.840933e-02  4.979750e-02  -4.345230e-02  -1.814089e-02  -7.419871e-02  7.294018e-02  -7.418963e-02  -5.405726e-02  1.590143e-02  -8.635613e-02  -1.492211e-01  -1.842465e-02  -8.796577e-02  -1.021988e-01  2.347979e-02  -1.128190e-03  -1.347036e-04  -7.128357e-05  -1.106456e-02  -5.816276e-02  3.608194e-02  -8.815380e-03  -4.144725e-02  -5.263089e-02  8.405663e-03  -1.437227e-01  -1.443792e-01  -3.854541e-02  -1.012137e-01  -1.471807e-01  2.036384e-02  -1.305856e-03  8.191366e-02  -7.947861e-02  1.356999e-01  3.755293e-02  1.234673e-01  8.752410e-02  -1.209991e-01  -4.463149e-02  -7.944968e-02  4.952463e-02  2.284003e-01  -2.184674e-01  -3.027142e-01  -1.414264e-01  -6.381834e-02  3.522474e-02  -5.576260e-02  -3.191175e-02  -1.204594e-01  2.282019e-03  -1.436975e-01  -5.161940e-02  6.918188e-02  -4.475588e-02  4.082213e-02  -5.818890e-03  -1.809289e-02  -5.693869e-02  3.625090e-02  1.325152e-02  -4.945606e-02  -3.132897e-02  -2.426766e-02  -8.701051e-02  -1.194245e-01  -8.702654e-02  1.320609e-01  8.549342e-02  8.792232e-03  -5.220359e-02  3.801919e-02  -1.075363e-02  -1.473080e-02  -3.780035e-02  -2.082077e-02  -9.358262e-02  6.767894e-02  3.171463e-02  1.011715e-01  -4.120032e-02  1.045564e-01  6.720721e-02  -7.844993e-02  5.754220e-02  8.944028e-02  5.490755e-02  -1.395818e-01  3.816193e-02  -1.015163e-01  1.597590e-02  -8.054135e-02  6.049775e-02  3.666733e-02  2.344031e-02  7.439688e-02  1.996575e-01  -1.505201e-01  -6.889377e-02  9.389265e-03  7.254947e-02  1.130666e-01  4.575202e-03  9.625214e-02  1.413278e-01  -9.794422e-02  -6.143529e-02  -1.415738e-02  4.228650e-02  -6.230187e-02  -5.880948e-02  -2.708239e-03  -3.492020e-02  1.469021e-01  6.138265e-02  3.178005e-02  8.731680e-02  7.881730e-02  7.200035e-02  4.506312e-02  -4.313403e-02  -3.395788e-02  8.977076e-03  5.161852e-02  -3.946314e-02  -6.181945e-04  2.821996e-02  1.389957e-02  6.630547e-02  1.639860e-02  -3.503034e-02  7.310269e-03  -1.178382e-02  4.069854e-02  4.240135e-02  4.407021e-02  -4.040524e-02  -8.736617e-02  2.676187e-02  3.779000e-02  5.930110e-03  -1.281358e-01  -5.957242e-02  9.588902e-02  -4.750199e-02  5.835577e-02  2.806854e-03  -9.657510e-02  -1.970128e-01  -3.346282e-01  2.669053e-01  2.587121e-01  -4.139338e-01  -5.639539e-02  3.425224e-02  2.062042e-02  5.775347e-02  9.371332e-02  3.359024e-02  3.056286e-02  3.305857e-01  4.273330e-02  -3.363460e-02  1.061826e-01  -3.840594e-01  -7.215890e-02  4.196546e-02  -1.074491e-01  -2.521898e-02  2.617935e-02  1.223027e-02  7.416639e-02  -6.675189e-02  9.287675e-02  7.771115e-02  -5.531590e-02  1.147635e-01  2.031499e-02  -3.647774e-02  1.916092e-02  2.075247e-02  -1.393709e-01  -4.587565e-02  3.230562e-02  -1.094642e-01  4.242509e-02  6.648028e-02  -1.246098e-01  -1.379313e-01  -7.549702e-02  -7.958691e-03  2.171884e-02  -1.514411e-01  -6.557668e-02  -6.212057e-02  1.145546e-02  -7.740341e-02  3.844865e-02  8.126042e-02  -8.263377e-02  1.322965e-02  -7.301009e-02  -6.102870e-02  -4.510814e-02  -4.758595e-02  1.371857e-01  7.887030e-02  -1.227014e-01  1.048583e-02  3.938943e-02  -8.190655e-02  -2.828711e-01  -8.930073e-03  1.604436e-01  8.868656e-02  -6.135905e-02  1.431571e-01  -1.889687e-01  -6.101534e-02  -1.846773e-02  -7.464019e-03  8.471036e-03  -1.989504e-02  -2.569347e-02  3.196230e-02  1.500599e-01  2.001022e-02  1.429616e-01  7.047470e-02  -1.469472e-01  -2.606979e-02  -9.215107e-02  -2.785655e-02  -4.994657e-02  -7.394809e-02  2.048029e-01  -3.397922e-02  -1.046418e-01  -8.877819e-03  5.500357e-02  -1.344042e-02  1.324163e-01  4.335618e-02  3.098337e-03  -4.449179e-02  9.031454e-02  8.813436e-02  -5.575304e-02  1.124492e-01  -1.765429e-01  -2.334119e-02  6.900584e-03  4.167237e-01  4.746835e-02  1.932170e-02  -3.947234e-03  4.033489e-03  1.554078e-02  -1.621584e-02  -5.485985e-02  2.151829e-02  9.544274e-02  5.792989e-02  -7.526722e-02  1.487849e-01  5.607361e-02  3.741937e-02  -1.265460e-01  3.339301e-02  -2.269037e-02  5.353637e-02  -4.292185e-02  -6.747503e-03  -1.408796e-02  -6.788740e-02  3.520802e-02  2.628027e-03  -1.119389e-01  -5.433076e-02  -6.156975e-02  -5.337619e-02  -3.994857e-02  -4.915743e-02  -4.350578e-02  -9.268772e-02  8.725245e-02  3.737725e-02  -5.051549e-02  1.802154e-02  1.279164e-01  5.271336e-03  7.359663e-03  -1.856573e-02  1.300285e-01  -1.003389e-02  8.793532e-02  -6.924066e-02  -7.881832e-02  -8.143216e-02  7.870492e-02  -5.811091e-02  6.181333e-02  4.324495e-02  1.732744e-02  -8.646750e-02  -4.279902e-02  3.491582e-02  3.551929e-03  1.720805e-02  -6.078150e-02  -6.085302e-02  1.361348e-02  -2.754371e-02  1.406863e-01  1.088707e-02  -1.465608e-02  -3.092804e-01  -7.372516e-02  1.755636e-03  -6.784829e-02  5.418439e-02  -3.642217e-02  3.701681e-02  -1.313050e-02  -2.679917e-02  1.146051e-01  7.953754e-03  7.669229e-03  -5.051013e-02  5.664837e-02  3.341800e-02  1.327793e-02  -1.671151e-01  -8.015689e-02  4.293737e-02  -2.264979e-02  2.211581e-02  -1.168562e-01  -6.345846e-02  4.098287e-02  -5.379928e-02  -1.119802e-01  -7.442448e-02  1.745859e-02  -2.225121e-02  7.842965e-02  1.983663e-02  -2.836671e-02  -2.317515e-01  9.724023e-02  2.610186e-02  -6.458688e-02  1.686623e-01  7.266147e-03  -2.383250e-02  -1.243605e-02  5.142302e-02  9.776056e-02  4.759516e-02  6.400990e-02  -1.801798e-02  5.338455e-02  -5.364902e-02  9.456029e-02  -5.329164e-02  -1.759932e-01  -3.076064e-02  4.696795e-04  7.364497e-02  6.571118e-02  7.334255e-02  -1.489173e-01  6.609259e-02  1.770044e-01  4.826624e-02  1.078304e-02  2.233652e-02  1.705161e-01  3.510851e-02  -4.182471e-02  2.779247e-02  1.647441e-01  6.182248e-02  -9.603237e-03  2.091857e-01  -4.204481e-02  -1.993172e-02  9.712479e-02  -8.572212e-02  1.039928e-01  1.269335e-02  -2.961054e-02  -1.610373e-02  -1.375006e-02  -9.332308e-03  8.573736e-02  -7.643326e-02  5.643426e-03  2.640346e-02  -1.720158e-01  -1.106497e-01  -6.088366e-02  3.116186e-02  -6.660248e-02  -7.363585e-02  1.351415e-01  7.425908e-02  -2.315228e-02  5.626911e-02  2.580832e-02  2.215639e-02  -1.518878e-01  8.490737e-02  1.426771e-01  3.412678e-02  -5.801759e-02  -4.760605e-02  8.302943e-03  -4.870282e-02  4.199661e-02  2.311616e-02  8.463371e-02  -1.019782e-02  7.003817e-02  -8.049985e-02  9.971084e-02  5.490948e-02  3.133944e-02  1.182339e-01  9.133969e-02  3.138407e-02  1.145030e-01  1.025148e-01  -1.191607e-01  -8.547313e-02  4.540071e-02  -3.389508e-02  7.486697e-02  5.457870e-02  -1.358341e-02  -1.166131e-01  1.088659e-01  5.987738e-02  3.546009e-03  1.547558e-02  1.085349e-01  4.034806e-03  1.578078e-02  1.019883e-01  1.014951e-01  -3.517990e-02  7.265811e-02  -8.745269e-02  -1.166116e-01  1.952461e-02  4.852338e-02  5.531746e-03  -1.750434e-01  -3.604040e-02  -1.953740e-02  6.321909e-02  6.539693e-02  -2.859589e-02  8.273537e-02  8.177748e-02  -1.093626e-01  2.170070e-02  1.622238e-01  -7.377446e-02  2.278735e-02  -1.580304e-02  -4.748256e-02  5.437628e-01  -1.291371e-01  -4.018907e-02  1.804627e-02  -2.972269e-01  7.171425e-02  -2.600019e-02  -4.207522e-02  -9.792702e-02  1.002361e-01  -2.778428e-03  -5.585090e-02  -3.980494e-02  2.134582e-02  -3.425786e-02  3.377367e-02  7.044805e-02  -1.450798e-01  -1.872846e-02  -9.883550e-02  -3.615663e-02  -4.131395e-02  -5.868130e-02  4.491983e-02  -9.364320e-02  -9.781508e-02  -5.357816e-02  -4.509692e-02  -1.199607e-01  5.745317e-02  -2.887714e-02  1.446413e-01  1.203188e-01  9.405645e-02  4.480569e-02  6.908005e-02  8.409812e-02  -1.001116e-01  9.989509e-03  -1.592527e-01  -6.094504e-02  -2.408591e-03  2.375154e-04  -6.265593e-02  6.100589e-02  2.386799e-02  -1.843710e-03  -6.775439e-05  -5.457006e-04  -6.809752e-02  1.682406e-02  -7.552023e-03  -1.472389e-02  1.107975e-01  1.276596e-02  -5.383417e-02  6.638466e-02  -1.084474e-02  1.465087e-02  7.293084e-02  6.317309e-02  -1.023605e-01  -8.170779e-02  5.082595e-02  -7.087611e-02  -4.546733e-02  -2.922389e-02  -6.014433e-04  -3.926842e-03  -3.933475e-02  2.613160e-02  5.399249e-03  2.477663e-01  8.415482e-02  1.453322e-02  -4.161747e-02  5.913453e-02  2.177085e-02  1.874260e-03  1.294159e-01  -1.127705e-01  4.459158e-02  5.971651e-02  6.460358e-02  -3.211568e-02  -1.034921e-01  -8.598011e-02  3.621032e-02  -1.124216e-02  -4.763586e-02  -1.376333e-02  6.444592e-02  -5.560498e-02  -1.107697e-01  -7.399889e-02  5.047893e-03  -2.267491e-02  -5.635498e-02  -4.575370e-02  -5.290874e-02  5.008755e-02  -8.046713e-02  1.526387e-02  1.365272e-01  1.637549e-01  -7.878976e-02  -6.529006e-02  5.895538e-02  -1.405587e-01  3.948071e-02  2.386890e-02  6.581151e-02  -3.486374e-02  1.145218e-01  -1.381857e-03  -1.364122e-02  -1.138875e-01  -1.187906e-01  5.485328e-02  -1.476806e-02  -1.641286e-01  -8.319508e-02  -3.414819e-02  -3.473645e-03  -3.103396e-01  -1.402558e-01  -7.494998e-02  5.103416e-02  -1.205108e-01  1.148288e-01  3.727899e-02  -7.502734e-02  1.027004e-01  1.181545e-01  -1.252458e-02  5.027764e-02  -9.717035e-02  -1.366873e-01  -1.805043e-02  -4.518192e-02  1.435527e-01  -9.108271e-02  -5.986786e-02  -1.149483e-02  -1.446654e-01  -6.201512e-02  4.138709e-02  6.507441e-02  -6.792432e-03  -1.191095e-01  -4.820510e-02  -7.536034e-02  -3.856208e-01  -7.037203e-02  1.876460e-02  6.645687e-02  -3.728840e-03  -9.295852e-02  1.552316e-02  1.645835e-03  4.744312e-02  1.181086e-02  -4.650381e-02  2.562817e-02  -3.361259e-02  4.880169e-02  5.330674e-02  -2.061664e-02  -3.987221e-03  1.021036e-01  2.784591e-02  -1.058846e-01  1.217065e-02  -8.263845e-02  -5.801682e-02  5.609130e-03  -1.237492e-01  -1.930194e-01  -6.677003e-02  3.474350e-02  3.052421e-02  4.634620e-02  5.701992e-02  3.617535e-02  -4.096530e-02  -1.042208e-02  5.276395e-03  7.082988e-02  -2.461720e-02  2.860231e-02  -4.476183e-02  3.955174e-02  5.312091e-02  1.662372e-01  7.729989e-02  -3.795155e-02  6.116568e-02  5.910388e-02  3.815737e-02  3.318655e-02  -5.149097e-02  1.344957e-02  -4.162731e-02  -5.254437e-02  -7.729532e-02  1.136420e-01  7.628007e-02  -5.597771e-03  6.601821e-02  1.131076e-01  6.086689e-02  5.153104e-04  2.432971e-01  1.389918e-01  7.298712e-02  1.858142e-02  -7.168468e-02  2.228797e-02  -5.739464e-02  1.593897e-01  -1.402787e-01  2.016006e-02  -1.683840e-02  -8.842650e-02  -1.696366e-01  -9.561450e-02  1.460221e-02  -1.951845e-02  2.073787e-01  -2.873978e-02  -5.116529e-02  -4.610067e-02  8.444754e-03  -7.787545e-02  -6.087416e-03  -2.566937e-03  1.078132e-02  2.576959e-02  -1.920944e-03  6.305716e-02  1.458729e-01  -1.383192e-01  4.193049e-04  -2.718241e-02  8.870175e-02  1.253853e-01  -1.065800e-02  -9.098893e-02  6.557211e-02  2.134834e-01  5.126335e-02  6.518900e-02  -4.641037e-02  -1.034134e-01  -8.842932e-02  5.122317e-02  -3.286572e-02  -1.183847e-01  -2.415865e-02  -2.392360e-02  -2.644045e-01  6.242973e-02  8.381429e-02  9.128445e-02  1.600567e-02  1.306255e-01  1.359797e-02  1.143140e-03  -1.944384e-02  1.505620e-01  7.531326e-02  -6.157187e-02  2.745270e-01  -4.053500e-02  -3.139189e-02  1.525640e-01  6.779428e-02  2.501148e-02  1.469455e-02  1.056842e-01  1.233829e-01  1.413003e-01  7.368112e-02  -6.798831e-02  2.420564e-01  -6.460135e-02  2.487518e-02  8.856132e-03  5.446387e-02  -8.798667e-02  -2.879931e-02  -1.524392e-01  -4.837437e-01  -1.326415e-01  -8.092048e-02  -8.708693e-04  -1.560282e-01  -3.876356e-02  2.558144e-02  -1.346270e-02  9.544449e-02  5.817151e-02  7.742492e-02  -6.544566e-02  -4.563171e-02  1.718715e-01  2.708407e-02  6.665960e-03  -8.268417e-02  1.162145e-01  6.007191e-02  1.246487e-02  7.795445e-02  1.012228e-01  1.049048e-02  4.699886e-04  -5.758818e-03  -1.183538e-01  6.026776e-03  -1.607419e-01  -1.210142e-01  -6.863580e-03  2.916823e-02  1.249241e-02  6.700027e-02  -7.218967e-02  -4.981763e-02  -3.156058e-02  -5.164427e-02  4.476548e-02  1.108723e-02  -1.046936e-01  -3.353155e-02  2.617849e-02  -3.805317e-02  2.155663e-02  -4.413507e-02  -1.367271e-01  -2.926479e-02  -3.381608e-02  -1.197654e-01  1.078254e-01  1.271122e-02  -2.989726e-02  -5.477007e-02  1.103717e-02  5.454307e-02  -4.407893e-02  -3.983588e-02  -1.526664e-02  -3.855335e-02  4.590935e-02  2.173563e-01  -1.479931e-01  -3.505826e-02  -6.395191e-02  -2.156804e-01  1.240667e-02  1.508231e-03  8.566995e-02  9.110852e-02  -3.840711e-02  3.043400e-02  -1.763338e-02  -1.854695e-02  9.737934e-02  -1.962664e-02  6.255820e-02  5.570497e-02  -4.351101e-02  -1.170315e-02  -1.561897e-04  1.795075e-03  1.022362e-01  2.721905e-02  2.035783e-02  9.150323e-02  6.332991e-02  7.293869e-02  -4.842065e-02  5.931509e-03  1.163075e-01  -9.087564e-03  1.063996e-01  9.903885e-02  -9.317745e-02  -1.357673e-02  1.913966e-02  -4.332780e-02  1.589308e-01  2.879283e-02  3.860800e-03  -1.185302e-01  7.518655e-02  -2.332175e-02  2.995845e-02  4.917924e-02  -9.131761e-02  -4.499522e-02  8.090027e-02  -7.887525e-02  2.467470e-01  -1.803049e-01  -2.579452e-01  2.337708e-01  3.926815e-02  3.260775e-02  7.707711e-02  2.584572e-02  -2.007430e-02  -1.921195e-02  -2.723870e-04  5.640022e-04  -1.186455e-01  -6.361247e-02  -5.248620e-03  -1.495397e-01  -1.328550e-01  -2.549952e-02  5.340022e-03  -1.883961e-02  1.228629e-01  5.350517e-02  -1.071073e-01  7.449178e-02  -8.394960e-02  2.738688e-02  3.287053e-02  6.038043e-02  1.529548e-01  1.363136e-02  -2.039548e-03  -6.251776e-02  -5.438934e-02  7.067331e-03  -3.361882e-04  2.730591e-03  -8.004805e-02  1.391018e-02  1.754304e-02  -7.770208e-02  6.810924e-02  4.529108e-02  -1.102713e-01  7.312369e-02  4.791439e-02  6.336714e-03  -3.799225e-02  -3.195833e-02  9.897183e-02  1.844593e-02  -4.094361e-02  -2.098974e-02  2.896402e-02  -4.836529e-02  7.380092e-03  2.120601e-02  -1.691827e-03  -2.401556e-02  -4.949562e-02  5.329693e-03  -3.288740e-02  3.376849e-02  -1.262482e-02  -2.044872e-02  1.348443e-01  6.711526e-02  -6.649452e-03  2.628845e-02  -9.170248e-02  -5.754936e-02  -1.414090e-02  5.555110e-03  3.742955e-03  3.738746e-02  2.369940e-02  -3.441721e-02  1.507363e-01  6.622913e-02  4.325813e-02  8.065946e-02  -1.308259e-02  5.125854e-02  -5.894674e-02  -3.265268e-02  3.823455e-02  9.533624e-03  7.861850e-02  1.762902e-02  -1.542692e-01  -6.178406e-02  1.155211e-01  -6.575202e-02  4.946850e-02  4.073398e-02  -1.220434e-01  3.418950e-01  2.575487e-02  3.760953e-02  2.035589e-02  8.274167e-02  1.122169e-01  -2.194566e-02  5.083408e-02  -6.887401e-02  5.272240e-02  7.174272e-03  1.449581e-02  3.984321e-01  -7.852829e-02  1.764545e-02  -8.688219e-03  3.157311e-02  -7.856803e-02  -7.079820e-02  6.198376e-03  -7.967109e-02  -5.221379e-03  1.362654e-02  -1.861606e-01  -2.493007e-01  -6.456763e-02  -1.021051e-02  3.274382e-02  -6.383312e-02  -1.734352e-01  -4.480432e-02  -1.607197e-02  1.524042e-02  -6.951138e-02  -3.444134e-02  1.238454e-01  -2.287874e-02  -2.051177e-02  -2.784222e-02  -5.215427e-02  2.845615e-02  5.473168e-03  6.215753e-03  -6.297491e-02  1.398603e-01  -1.044692e-01  -2.375482e-02  2.193956e-02  -6.552806e-02  -5.772430e-02  -4.383031e-02  -1.241004e-01  -2.597767e-02  6.339036e-02  -3.395348e-02  1.121893e-01  5.722684e-02  2.662109e-02  4.231263e-03  1.255957e-01  -4.313718e-02  -8.230998e-02  -1.988160e-02  -4.094217e-03  5.757769e-02  -1.294056e-01  -7.262558e-02  -3.910214e-03  1.931757e-02  -4.602454e-03  -7.569144e-02  9.142153e-02  -6.696887e-03  4.262551e-02  4.068971e-02  1.797497e-02  -4.626301e-02  7.710688e-02  -2.160066e-02  -8.782520e-03  -7.355157e-02  -2.444024e-02  2.585310e-02  5.923423e-02  8.976145e-02  -6.286104e-02  3.952361e-02  4.421614e-02  -4.600810e-03  -4.895913e-03  2.748692e-02  4.633596e-02  9.953302e-02  -1.435071e-01  -8.201265e-02  1.380227e-01  -1.306735e-01  -9.517324e-02  -4.907192e-02  -6.219820e-02  -2.705950e-02  7.292981e-02  8.279075e-02  -4.456719e-02  7.921987e-03  -1.206079e-01  -3.833982e-02  -1.695991e-02  9.386920e-02  7.935970e-02  -1.978353e-02  9.522584e-02  1.383230e-02  -8.774236e-02  -1.483284e-02  -5.827135e-02  -1.128868e-01  3.692674e-02  4.277243e-02  3.908208e-02  1.332690e-02  3.400421e-02  2.100457e-02  6.734890e-02  8.886056e-03  1.150516e-01  1.618641e-02  -3.778706e-02  4.894140e-02  6.849604e-02  1.931009e-02  2.875963e-02  8.018734e-02  7.182299e-02  1.632692e-02  -7.009657e-02  -5.030207e-02  7.737378e-02  -2.014526e-02  -2.325760e-02  6.842697e-02  -1.074751e-02  -1.908681e-02  1.043106e-01  4.625313e-02  -2.943435e-02  -5.489217e-02  3.714367e-02  4.876372e-02  1.787870e-02  3.744572e-02  5.847106e-02  7.970241e-02  7.666653e-02  3.571142e-02  -4.855371e-03  -7.077547e-02  2.595685e-02  -2.869891e-02  9.917918e-03  -4.680317e-02  2.187271e-01  3.152963e-02  6.062393e-02  -1.348439e-01  -3.555968e-02  -9.733936e-03  -2.687856e-04  2.278788e-03  5.091241e-02  7.011378e-02  -3.356327e-02  3.032277e-02  -2.260833e-02  -2.650771e-02  -9.219339e-04  -9.793797e-03  -1.057311e-02  -6.966902e-02  4.799546e-02  -6.069647e-02  1.741892e-01  -2.215446e-01  -2.470423e-01  7.517406e-02  -7.067014e-02  -1.641682e-02  1.142066e-01  3.897798e-02  1.504329e-01  1.645413e-02  -2.415917e-02  -1.588273e-01  1.302892e-01  6.850185e-02  9.970309e-03  -4.762216e-02  1.193181e-01  5.841412e-02  4.171523e-02  6.146541e-02  6.196337e-03  -2.891841e-02  -1.874595e-03  -1.565312e-02  3.539725e-02  5.289285e-02  2.356175e-02  1.764750e-02  -1.170944e-01  -3.877111e-03  1.876171e-02  -4.626249e-02  1.127865e-01  3.742165e-02  8.592233e-02  4.322608e-02  2.790288e-02  -3.256431e-02  5.545845e-04  -1.616438e-02  3.934670e-02  1.886706e-02  6.350164e-02  -2.823222e-01  -6.570119e-02  2.961031e-02  -2.770654e-03  4.143585e-02  1.889481e-01  4.974535e-02  4.869160e-02  6.588511e-03  -1.379549e-01  -5.458761e-02  -3.483805e-02  2.954428e-02  1.278966e-02  -4.164931e-02  3.552851e-02  1.962663e-01  -5.987030e-02  -5.576929e-02  5.152240e-02  -1.161746e-02  -6.822812e-02  3.047533e-02  1.581031e-02  -5.190403e-02  -5.692855e-02  -3.382287e-02  5.535667e-02  -2.301631e-01  5.522297e-02  -1.355746e-02  -5.793543e-02  -3.336203e-02  -2.008758e-01  -5.018878e-02  -8.856349e-03  1.006823e-01  4.813495e-02  3.182080e-02  -8.699132e-02  8.058403e-01  -1.140275e-01  -2.941279e-02  -1.128635e-01  -1.191306e-01  -7.190996e-02  -6.605845e-02  7.397589e-02  -1.633568e-01  -8.623571e-02  -4.826152e-02  -6.069001e-03  5.579741e-02  1.889674e-02  6.268866e-02  -4.946781e-02  7.001902e-02  -1.148747e-01  -8.442288e-02  3.776627e-02  3.035471e-02  9.321318e-02  4.414949e-02  -1.193287e-01  5.643704e-03  2.349044e-02  6.518774e-02  -6.200525e-02  1.070393e-02  -6.591917e-02  7.610416e-02  1.439045e-01  -2.245141e-01  9.039549e-02  3.969571e-02  8.359531e-02  -6.602298e-02
      </Weights>
      <Biases Rows="1024" Columns="1">
        4.690113e-02  -6.665117e-02  -1.733293e-01  -1.582617e-01  1.606145e-01  -1.405547e-01  2.080295e-02  -7.977829e-02  1.681035e-01  1.916953e-01  1.148752e-01  -1.380227e-01  -1.044135e-01  1.243149e-01  1.326740e-01  -1.385276e-01  -1.263863e-01  -1.355366e-01  -9.160511e-02  1.174945e-01  1.263435e-01  -1.592514e-01  -1.557799e-01  -1.610879e-01  1.812247e-01  -1.746083e-01  -1.748248e-01  1.316812e-01  -1.276729e-01  9.897342e-02  -1.628224e-01  1.580187e-01  -1.551982e-01  1.680817e-01  1.506538e-01  -1.648814e-01  -2.794448e-01  -1.092691e-01  -9.824338e-02  -1.357733e-01  1.577099e-01  1.724437e-01  1.097620e-01  -3.475602e-02  -1.559960e-01  -4.713109e-02  1.579892e-01  1.588482e-01  -5.071617e-02  1.657719e-01  1.496509e-01  1.599610e-01  -1.229070e-01  -1.516400e-01  1.491302e-01  -1.623328e-01  1.475300e-01  -4.716876e-02  1.573381e-01  -1.858541e-02  1.668704e-01  1.263112e-01  3.553464e-02  -1.365934e-01  -8.386523e-02  1.779905e-01  -6.399886e-03  8.934604e-02  2.067390e-01  -1.395956e-01  -1.223654e-01  -1.265253e-01  9.340406e-02  1.401549e-01  1.402895e-01  -2.181543e-01  -1.730423e-01  9.536117e-02  -1.399484e-03  8.448660e-02  1.416043e-01  -1.497381e-01  9.413179e-02  3.845984e-02  -1.536710e-01  -1.717834e-01  1.298714e-01  -1.020458e-01  -1.427191e-01  -1.288470e-01  4.306224e-02  -1.256049e-01  -1.597716e-01  1.473606e-01  -1.595811e-01  -1.618089e-01  7.952221e-02  -2.121621e-01  8.221322e-02  1.561572e-01  1.619736e-01  3.138662e-02  1.352241e-01  1.664677e-01  -9.990964e-02  1.408303e-01  1.929075e-01  -1.080798e-01  -1.201772e-01  1.530978e-01  1.429615e-01  -1.404794e-02  1.392772e-01  1.487414e-01  -7.091751e-02  1.252539e-01  1.538917e-01  1.357403e-04  -1.508100e-01  -1.405744e-01  -1.740638e-01  -1.300556e-01  8.317587e-02  1.666279e-01  1.398628e-01  1.481034e-01  -1.018991e-01  -1.514069e-01  1.317385e-01  1.103992e-01  -1.494452e-01  1.151264e-01  -8.204019e-02  4.696447e-02  1.228171e-01  8.048008e-02  -9.551191e-02  -1.557455e-01  -1.409827e-01  -1.537028e-01  -1.161072e-01  -3.723351e-02  -1.413045e-01  -9.062262e-02  -4.807438e-02  5.742640e-02  1.254801e-01  -1.218382e-01  -1.125080e-01  -1.187842e-01  -1.153194e-01  4.050776e-03  1.119699e-01  -1.766968e-01  1.605960e-01  1.629070e-01  1.224493e-01  1.042581e-01  -1.011658e-01  -1.006401e-01  -4.110989e-03  1.097162e-01  1.611678e-01  -2.737271e-01  -2.654274e-02  1.660357e-01  -4.476662e-02  -1.418647e-01  -1.597509e-01  3.180189e-02  1.588551e-01  1.165033e-01  -5.645067e-02  -1.264224e-01  -1.351061e-01  -9.463380e-02  1.384509e-01  -9.221462e-02  -1.600506e-01  4.316752e-02  -8.550404e-02  -1.549144e-01  -1.386794e-01  -1.272386e-01  1.605615e-01  -1.342459e-01  1.698693e-01  -1.866119e-01  1.024697e-01  -1.429735e-01  5.745592e-02  1.659167e-01  1.764842e-01  1.473308e-01  -1.281392e-01  1.185913e-01  1.087274e-01  -1.636130e-01  -1.200368e-01  -1.895158e-01  -1.045173e-01  -1.020928e-01  1.461251e-01  1.677659e-01  1.454859e-01  -6.820271e-02  1.223993e-01  1.108291e-01  1.457336e-01  -1.480705e-01  1.636940e-01  -3.591904e-02  1.025020e-01  -1.675660e-01  5.535638e-03  -1.339392e-01  1.811990e-01  -1.381496e-01  1.761422e-01  1.850257e-01  -1.293079e-01  2.321583e-02  1.294434e-01  9.865963e-02  -1.534679e-01  1.246437e-01  -1.354793e-01  -5.911161e-02  -5.012996e-02  -1.633965e-01  -5.619260e-02  -1.169130e-01  -1.454415e-01  -6.182845e-02  -1.699263e-01  1.135699e-01  1.288575e-01  1.229726e-01  1.611031e-01  -1.354691e-01  1.456594e-01  4.973106e-02  -1.107794e-01  1.119678e-01  8.222309e-02  -1.307010e-01  1.838431e-01  -1.361093e-01  1.120821e-01  1.350249e-01  8.656690e-02  2.508706e-02  1.937947e-01  1.468012e-01  1.090543e-01  1.598251e-01  1.226714e-01  8.981584e-02  1.640619e-01  -1.536145e-01  -6.556600e-02  1.395443e-01  -1.613028e-01  7.778382e-02  4.411801e-02  9.402256e-02  6.958538e-02  8.909829e-02  1.441301e-01  1.580188e-01  -1.428220e-01  -1.086969e-01  -1.365053e-01  -4.032487e-02  3.711402e-02  -1.272958e-01  -7.871921e-02  -1.455589e-01  1.945232e-01  -1.343972e-01  -1.336762e-01  -1.243462e-01  1.162415e-01  1.353290e-01  1.128185e-01  1.185519e-01  -1.905197e-03  1.670651e-01  1.231125e-01  1.488269e-01  1.015424e-01  5.024666e-02  1.132020e-01  1.114853e-01  1.078794e-01  -1.600238e-01  -9.162342e-02  1.217572e-01  -1.131266e-01  -1.267368e-01  -1.173000e-01  1.321028e-01  -1.701993e-01  1.479588e-01  1.630678e-01  -1.672921e-01  2.011016e-02  -2.098467e-02  -1.629004e-01  3.525161e-02  -1.574172e-01  -1.662095e-01  -1.668270e-01  1.792758e-01  -1.240628e-01  1.456581e-01  -1.330303e-01  1.960603e-02  9.241880e-02  -1.216491e-01  1.638801e-01  1.179704e-01  1.748996e-03  1.279823e-01  3.591089e-02  1.610808e-01  1.150123e-01  -1.994043e-01  1.576600e-01  -1.890090e-01  1.070915e-02  1.275144e-01  1.569092e-01  -9.981608e-02  1.241231e-01  -1.178446e-01  1.908105e-01  1.599140e-01  -1.269374e-01  1.351934e-01  1.897564e-01  -1.582559e-01  -1.056308e-01  -7.739658e-02  6.684193e-02  -1.444875e-01  1.588390e-01  1.700716e-01  -2.041432e-01  -1.159703e-01  -1.086411e-01  -1.874738e-01  7.571028e-02  -4.655103e-02  -1.816767e-01  1.527433e-01  3.548060e-02  9.171484e-02  1.396191e-01  1.337026e-01  -1.739662e-01  1.062884e-01  -1.245949e-01  9.634407e-02  1.348330e-01  -1.312646e-01  -1.604075e-01  -2.642970e-02  -1.463417e-01  3.122750e-02  -8.249847e-02  1.399604e-01  -2.738435e-01  7.044942e-02  -1.038944e-01  -6.959498e-02  1.030447e-01  1.060629e-01  -3.430681e-02  1.136295e-01  1.370323e-01  1.081526e-01  -1.163021e-01  -1.229734e-01  -5.637898e-02  1.294669e-01  -9.640788e-02  -8.810543e-02  1.346010e-01  1.328335e-01  -1.676122e-01  -1.726568e-01  9.142150e-02  -1.312505e-01  -1.293175e-01  1.253195e-01  -1.524830e-01  1.037627e-01  1.128032e-01  1.387041e-01  1.518463e-01  4.804740e-02  -1.479816e-01  1.233230e-01  -9.806116e-02  -1.820409e-02  -1.676324e-01  1.580725e-01  -2.219414e-02  -7.377491e-03  -1.251391e-01  2.905982e-01  -1.253302e-01  -1.259156e-01  -1.524246e-01  -1.639368e-01  -1.940830e-01  1.207681e-01  9.345993e-02  3.356143e-02  1.633025e-01  -5.317047e-02  -1.055558e-01  -1.436785e-01  -6.742942e-02  -1.777123e-02  -1.321696e-01  1.147965e-01  1.224604e-01  6.172941e-02  -7.673015e-02  1.462661e-01  1.540826e-01  9.679870e-02  1.196834e-01  -4.541589e-02  -1.435195e-01  -1.248199e-01  1.244964e-01  -1.466114e-01  -6.736965e-02  -5.606257e-02  1.265385e-01  -1.783765e-01  9.294271e-02  1.691341e-01  -1.271378e-01  1.491528e-01  1.709100e-01  -1.113220e-01  -1.817150e-01  -1.368434e-01  6.186357e-02  1.382978e-01  1.732800e-01  1.275535e-01  -1.672407e-01  1.281490e-01  4.129944e-01  1.726124e-01  -5.642396e-02  -1.579278e-01  1.156320e-01  -1.439067e-01  -1.343353e-02  -9.071358e-02  -1.457706e-01  1.183726e-01  -4.721830e-02  1.743517e-01  1.065191e-01  -1.561385e-01  2.578001e-01  -1.743885e-01  -9.281896e-02  1.250283e-01  1.228995e-01  -1.650911e-01  -1.799513e-01  1.795191e-01  -6.031675e-03  1.300635e-01  -1.371063e-01  1.783464e-01  1.568949e-01  2.349073e-01  -1.268636e-01  -1.035949e-01  9.577773e-02  -8.626903e-02  1.537197e-01  -3.210601e-02  -2.175277e-02  1.413776e-01  -1.366224e-01  -8.904590e-02  -1.460995e-03  1.580368e-01  -1.518491e-01  2.507600e-02  -1.279575e-01  -1.268427e-01  -8.942554e-02  -2.082497e-02  -1.805264e-01  1.862487e-01  1.770897e-02  1.598110e-01  7.614541e-03  1.338760e-01  -1.042372e-01  -3.114175e-02  1.392556e-01  -8.616243e-02  1.870473e-01  1.215968e-01  5.561732e-02  1.877151e-01  -1.499008e-01  1.474763e-01  -1.125902e-01  -1.266597e-02  1.343864e-01  -1.039691e-01  1.033259e-01  1.387313e-01  -6.142084e-02  -2.228206e-01  1.427332e-01  -1.483155e-01  1.056893e-01  1.474720e-01  -1.372440e-01  -1.063180e-01  8.772892e-02  2.275015e-01  1.376485e-01  1.469688e-01  -1.355988e-01  1.018838e-01  -1.624333e-01  -1.427891e-01  -3.892981e-02  8.554500e-02  7.915819e-02  -1.578058e-01  -1.237497e-01  1.418019e-01  1.399257e-01  -1.699590e-01  1.349905e-01  9.655380e-02  1.547924e-01  -5.358903e-02  -5.198496e-02  3.401047e-02  -1.314193e-01  1.646528e-01  1.007345e-01  -1.646304e-01  -1.697372e-01  -6.460944e-02  5.513200e-02  -1.655781e-01  -9.751899e-02  2.190053e-01  4.834925e-02  1.341975e-01  1.020411e-01  7.634509e-02  1.506396e-01  1.121104e-01  1.085780e-01  8.365183e-02  1.943839e-02  -1.035822e-02  -1.629954e-01  5.170509e-02  -1.159906e-01  -1.853429e-01  -1.446543e-01  -1.688507e-01  8.399697e-02  -1.462120e-01  -1.559647e-01  1.450413e-01  -1.640971e-01  -1.207774e-01  -5.028911e-02  -1.063909e-01  -1.564713e-01  1.194666e-01  1.227657e-01  1.015679e-01  -1.230891e-01  -1.494842e-01  1.075614e-01  -1.583909e-01  -5.470220e-02  -1.280143e-01  1.540838e-01  -1.932433e-01  7.846289e-02  2.204646e-01  -3.320888e-02  -1.771026e-01  -1.185707e-01  9.094138e-02  1.509618e-01  -1.335219e-01  1.792463e-01  -1.438585e-01  -3.068257e-01  1.600539e-01  1.559030e-01  1.072125e-01  1.305471e-01  6.002847e-02  -9.901150e-02  7.807835e-02  -1.246047e-01  -1.388008e-01  1.423819e-01  -2.012697e-02  1.100005e-01  -1.535363e-01  1.730361e-01  1.515627e-01  1.523356e-01  1.099055e-01  -1.483275e-01  9.138788e-02  1.378989e-01  2.965339e-02  -1.523539e-01  -1.989650e-02  1.388619e-01  -7.679071e-02  1.014879e-01  3.173513e-03  1.221346e-01  9.376078e-02  1.501290e-01  7.071105e-02  -1.695544e-01  -1.658685e-02  -9.246060e-02  -1.620491e-01  -1.508968e-01  -1.246300e-01  1.242892e-01  -5.412554e-02  -9.134146e-02  6.091013e-02  1.726066e-01  1.760673e-01  1.374792e-01  1.221292e-01  1.407228e-01  -4.003456e-02  -1.981830e-01  1.813652e-01  -1.613840e-01  -5.113430e-02  -3.465194e-02  2.027235e-01  -1.417725e-01  1.385961e-01  -1.163972e-01  1.483088e-01  -1.088816e-01  1.710690e-01  7.187512e-02  -1.437204e-01  1.639702e-01  7.282217e-03  1.214863e-01  -2.279892e-02  1.034817e-01  -1.476177e-01  -1.423974e-01  5.464657e-02  1.180074e-01  1.248621e-01  1.318698e-01  -1.110712e-01  -1.545694e-01  8.919474e-02  1.761454e-01  1.547171e-02  8.878687e-02  1.783728e-01  9.980126e-02  1.217120e-01  8.704296e-02  1.665473e-01  1.587833e-01  2.406804e-02  -1.016963e-01  2.027065e-01  -1.207704e-01  -2.666562e-02  1.451691e-01  -1.765139e-01  -1.308812e-01  -9.326050e-02  1.411587e-01  -1.224234e-01  -9.675768e-02  7.978389e-02  -4.239358e-02  -1.577052e-01  -1.144548e-01  -1.632005e-02  7.958471e-02  5.925803e-02  -1.177354e-01  3.029558e-01  1.644631e-01  2.739730e-02  -1.884431e-01  -1.480103e-01  -8.155500e-02  -4.005401e-02  -1.653276e-01  -1.407617e-01  1.569447e-01  2.558206e-02  -1.340617e-01  1.036728e-01  5.586405e-02  -8.054928e-02  -6.860381e-02  -1.411504e-01  -1.526201e-01  5.003093e-02  1.410638e-01  1.568157e-01  1.169686e-01  -1.671204e-01  1.645350e-01  1.625313e-01  5.609995e-02  1.282554e-01  -3.697754e-01  2.002702e-01  -5.278078e-02  -8.469493e-02  1.231817e-01  1.201049e-01  1.025474e-01  -1.668791e-01  7.505220e-02  1.086507e-01  1.256695e-01  -1.390470e-01  1.480667e-01  -1.476940e-01  -9.937414e-03  1.305124e-01  4.432356e-02  2.935345e-02  -1.437205e-01  -1.184527e-02  5.906994e-03  -4.803926e-03  1.559727e-01  7.704141e-03  1.360012e-01  6.540269e-02  8.598452e-03  -1.533105e-01  -9.284573e-03  -1.544739e-01  1.821258e-01  -1.821272e-01  -1.105842e-01  -1.849644e-01  -3.154683e-02  -1.441804e-01  -1.111365e-01  -1.184409e-01  1.314443e-01  1.950515e-01  -1.435033e-01  -1.073995e-01  1.984880e-02  1.825456e-01  -1.147627e-01  1.284931e-01  1.867956e-01  -4.576863e-02  -1.128260e-01  1.730954e-02  -1.398472e-01  -1.400139e-01  1.247838e-01  -1.574156e-01  1.132257e-01  -1.916896e-03  -5.387695e-02  -1.319061e-01  -2.488391e-02  1.198048e-01  -1.368866e-01  1.010096e-01  -1.095177e-01  1.486026e-01  7.630372e-02  -1.350370e-01  -1.203451e-01  -1.686240e-01  -7.105859e-02  8.289720e-02  8.868761e-02  -1.074937e-01  1.309468e-01  9.496783e-02  -1.318637e-01  -1.793166e-01  1.517647e-01  7.511185e-02  -1.335318e-01  -7.422056e-02  -6.641822e-02  1.192631e-01  -1.624179e-01  -1.661206e-01  -1.468571e-01  3.556674e-02  -1.226463e-01  -8.899471e-02  -5.363099e-02  1.004705e-01  3.323836e-02  -9.759609e-02  -4.607536e-02  1.684365e-01  -1.176810e-01  1.516294e-01  -1.163402e-01  -6.077173e-02  1.386098e-01  -1.347010e-01  1.468421e-01  1.562648e-01  -1.277360e-01  1.252221e-01  -1.362118e-01  -1.615784e-01  1.048109e-01  -7.884304e-02  1.371805e-01  -1.291695e-01  -1.439784e-01  4.566482e-02  -2.898064e-02  -1.215439e-01  -1.429920e-01  4.425691e-02  -8.953739e-02  1.621117e-01  7.074479e-03  9.744819e-02  1.707757e-01  -1.674194e-01  1.411894e-01  -1.548527e-01  -9.471128e-02  2.141939e-02  1.521108e-01  1.803323e-01  -1.817255e-01  3.674683e-02  1.338046e-01  -1.498611e-01  1.236384e-01  3.181205e-02  1.275442e-01  1.588566e-01  -1.461178e-01  1.467706e-01  -1.519831e-01  8.796432e-02  -1.246676e-01  1.503263e-01  -8.421801e-02  -1.824709e-02  -1.277220e-01  1.059060e-01  8.255016e-02  -1.269484e-01  -3.021408e-02  1.209297e-01  1.098917e-01  -3.946052e-02  1.777925e-01  -5.553311e-02  -9.611035e-02  1.497233e-01  1.479740e-01  -1.246929e-01  7.288257e-02  -1.136353e-01  7.225882e-02  1.372614e-01  -1.239221e-01  -1.405081e-01  -1.647633e-01  9.191003e-02  -1.362612e-01  1.647298e-01  -1.564853e-01  7.392294e-02  7.511886e-02  1.679440e-01  -1.548628e-01  1.860638e-02  -9.090486e-02  1.328670e-01  -1.182525e-01  1.181411e-01  -7.820975e-02  -1.708209e-01  7.309970e-02  2.958624e-01  1.400706e-01  -5.760797e-02  -6.943861e-02  1.042905e-01  -1.237124e-01  1.880988e-01  -1.321612e-01  1.187621e-01  1.853695e-01  -5.916525e-02  -1.077730e-01  -1.143887e-01  -1.881568e-01  -1.580621e-01  1.724140e-01  7.060955e-02  -1.202897e-01  1.510806e-01  7.954734e-02  1.554019e-01  1.382756e-01  9.653045e-02  2.925317e-02  1.267980e-01  -1.660907e-01  -8.114775e-02  1.612793e-01  -1.561270e-01  -8.024923e-02  1.131672e-01  3.059280e-02  1.048963e-01  -1.389622e-01  5.785383e-02  1.055129e-01  1.338928e-01  1.402613e-01  1.343897e-01  1.749563e-02  -1.272587e-01  -1.284344e-01  1.224529e-01  -1.833818e-01  -1.383379e-01  1.954731e-01  1.530554e-01  7.125538e-02  -1.284987e-01  1.507711e-01  -3.212477e-02  -8.121749e-02  1.181099e-01  1.680368e-01  1.322595e-01  -1.489621e-01  -1.199529e-02  -1.294170e-01  -2.100451e-01  5.377769e-02  -1.477361e-01  1.695856e-01  6.397203e-02  -1.482135e-01  -8.976753e-02  1.210444e-02  1.599342e-01  -8.499820e-02  -1.879912e-01  3.259418e-01  1.523959e-01  -1.040009e-01  1.215166e-01  9.218039e-02  -1.391532e-01  1.419257e-01  1.547766e-01  9.597734e-02  -1.684394e-01  1.210096e-01  1.882226e-01  -1.686419e-02  -7.467550e-02  1.537096e-01  -9.310241e-02  1.754237e-01  5.592354e-02  -1.748322e-01  4.078598e-02  6.865284e-03  -3.670789e-02  -6.491546e-02  -1.076944e-01  1.591759e-01  -1.285929e-01  -1.292379e-01  1.330706e-01  -1.872872e-01  1.059382e-01
      </Biases>
    </DenseLayer>
    <DenseLayer Width="64" ActivationFunction="3">
      <Weights Rows="64" Columns="1024">
